tree
version=v3
num_class=1
num_tree_per_iteration=1
label_index=0
max_feature_idx=4
objective=binary sigmoid:1
feature_names=cape integral_of_surface_downwelling_shortwave_flux_in_air_assuming_clear_sky_wrt_time lwe_thickness_of_convective_precipitation_amount lwe_thickness_of_precipitation_amount wind_speed
feature_infos=[0:8146.375] [6005744.5:32446586] [0:0.11367034912109375] [0:0.21045303344726562] [0.4375:38.5625]
tree_sizes=666 684 682 675 679 675 676 683 682 684 686 687 678 687 684 682 683 686 687 684 685 685 684 681 685 686 682 684 685 685 687 686 665 686 685 685 689 686 689 689 691 682 685 689 691 690 686 668 688 686 688 690 687 689 687 689 685 685 684 685 670 692 689 689 688 684 686 691 687 685 690 690 685 689 691 693 687 686 685 692 686 688 688 670 686 689 687 686 693 688 681 683 682 690 689 682 687 665 693 689 695 687 685 688 685 672 691 689 684 693 684 695 689 684 686 687 689 688 695 686 684 689 684 687 670 688 685 691 691 688 683 691 692 695 690 659 689 690 691 687 690 688 690 686 694 693 671 689 692 667 689 694 685 686 694 688 664 692 690 690 684 689 687 689 684 688 691 693 694 685 688 691 689 690 690 692 692 689 673 686 685 694 688 689 686 692 687 688 686 685 692 690 688 691 696 690 691 692 685 690 689 685 694 684 691 689 685 691 689 694 692 689 694 690 691 690 690 690 690 694 679 691 683 688 680 686 665 670 687 675 691 674 673 689 695 692 688 684 690 693 689 696 694 687 692 689 696 688 688 687 671 689 692 671 684 694 684 680 691 649 690 681 668 676 684 670 693 687 684 689 675 673 671 691 686 690 681 665 686 679 687 667 667 696 690 675 688 692 660 664 694 689 693 691 681 688 675 694 689 691 693 697 691 694 695 691 671 670 689 692 699 668 673 700 697 687 642 690 684 693 685 695 680 690 690 684 682 696 684 693 687 696 688 679 690 691 691 693 696 663 694 693 693 694 697 696 691 666 670 690 693 699 649 672 683 694 693 692 690 639 695 694 681 694 662 693 671 683 700 693 695 697 675 698 671 683 691 668 688 684 700 695 694 684 676 695 689 694 641 681 679 687 688 695 682 684 691 692 680 654

Tree=0
num_leaves=5
num_cat=0
split_feature=3 2 3 3
split_gain=3.12484e+06 337516 166702 94756.2
threshold=0.017136096954345707 0.016470909118652347 0.037493228912353523 0.015351295471191408
decision_type=2 2 2 2
left_child=3 2 -2 -1
right_child=1 -3 -4 -5
leaf_value=4.5876113607240319 4.1606924538120706 3.5687163351697464 3.5532269813427062 4.3280301956054066
leaf_weight=120070.61665577255 2277.2762680966407 1420.0529717542231 318.56278090365231 834.91409166716039
leaf_count=3182668 54916 36563 7892 19874
internal_value=4.5627 3.88109 4.068 4.58571
internal_weight=0 4015.89 2595.84 120906
internal_count=3301913 99371 62808 3202542
is_linear=0
shrinkage=1


Tree=1
num_leaves=5
num_cat=0
split_feature=3 1 3 3
split_gain=1.60412e+06 90292.7 32012.2 19639.7
threshold=0.015351295471191408 26246568.000000004 0.022485733032226566 0.027338027954101566
decision_type=2 2 2 2
left_child=-1 2 -2 -3
right_child=1 3 -4 -5
leaf_value=0.024908118994825756 -0.099766245706071399 -0.32178540942101019 -0.27909187296500576 -0.4351779763699673
leaf_weight=117078.67203600891 1345.2100412826985 3583.6895261425525 1329.5223341900855 2701.2491902252659
leaf_count=3181346 24060 48928 18340 27601
internal_value=0 -0.321267 -0.192848 -0.373769
internal_weight=0 8959.67 2674.73 6284.94
internal_count=3300275 118929 42400 76529
is_linear=0
shrinkage=0.025


Tree=2
num_leaves=5
num_cat=0
split_feature=3 2 3 1
split_gain=1.14208e+06 34207.8 28524.8 12835.7
threshold=0.015351295471191408 0.010103225708007814 0.022485733032226566 18320751.000000004
decision_type=2 2 2 2
left_child=-1 2 -2 -3
right_child=1 3 -4 -5
leaf_value=0.024891954087465751 -0.094511992077341178 -0.14548641321316044 -0.23730585215741323 -0.26945660650490894
leaf_weight=114241.47220354155 2058.8237792868167 818.55272925645113 1702.8804290406406 7584.1904049403965
leaf_count=3180857 28875 9977 18151 62170
internal_value=0 -0.229439 -0.161746 -0.25846
internal_weight=0 12164.4 3761.7 8402.74
internal_count=3300030 119173 47026 72147
is_linear=0
shrinkage=0.025


Tree=3
num_leaves=5
num_cat=0
split_feature=3 1 2 3
split_gain=901090 20732 11598 5528.86
threshold=0.015351295471191408 18050562.000000004 0.005310535430908204 0.019406795501708988
decision_type=2 2 2 2
left_child=-1 3 -3 -2
right_child=1 2 -4 -5
leaf_value=0.024863339736040029 -0.034736332476650526 -0.11469617552902522 -0.20135373781178345 -0.12915495151453354
leaf_weight=111605.40925397165 640.31536841392517 1382.0266944691539 11619.044470798224 1452.1952901426703
leaf_count=3181406 9787 15783 79150 14639
internal_value=0 -0.180644 -0.192712 -0.102331
internal_weight=0 15093.6 13001.1 2092.51
internal_count=3300765 119359 94933 24426
is_linear=0
shrinkage=0.025


Tree=4
num_leaves=5
num_cat=0
split_feature=3 3 2 4
split_gain=735749 13399.8 16484.1 5573.92
threshold=0.015351295471191408 0.019406795501708988 0.013490200042724611 20.156250000000004
decision_type=2 2 2 2
left_child=-1 2 -2 -3
right_child=1 3 -4 -5
leaf_value=0.024862102680547959 -0.067747916911940126 -0.16526883085633376 -0.17661966647439645 -0.085009724187357361
leaf_weight=108798.61263307929 2771.2198887709528 12830.325297154486 1354.1083046589047 806.79525509104133
leaf_count=3180210 29105 72325 10727 6956
internal_value=0 -0.148459 -0.105471 -0.16094
internal_weight=0 17762.4 4125.33 13637.1
internal_count=3299323 119113 39832 79281
is_linear=0
shrinkage=0.025


Tree=5
num_leaves=5
num_cat=0
split_feature=3 1 4 3
split_gain=627908 10340.1 5705.48 3490.67
threshold=0.015351295471191408 18050562.000000004 20.156250000000004 0.027338027954101566
decision_type=2 2 2 2
left_child=-1 -2 3 -3
right_child=1 2 -4 -5
leaf_value=0.024831641849629812 -0.076500061649283135 -0.12306309721304794 -0.050563549072412561 -0.1515060653793926
leaf_weight=106266.06798300147 2604.1113217379898 9239.9116433914751 622.79627244733274 7843.1765262670815
leaf_count=3181767 24388 57968 5375 31162
internal_value=0 -0.126715 -0.133794 -0.136599
internal_weight=0 20310 17705.9 17083.1
internal_count=3300660 118893 94505 89130
is_linear=0
shrinkage=0.025


Tree=6
num_leaves=5
num_cat=0
split_feature=3 4 3 0
split_gain=551532 7987.25 9808.43 6760.9
threshold=0.015351295471191408 5.5312500000000009 0.022485733032226566 619.46875000000011
decision_type=2 2 2 2
left_child=-1 -2 3 -3
right_child=1 2 -4 -5
leaf_value=0.024838607539834814 -0.13616160825727278 -0.04555429056754929 -0.11516097468282233 -0.10375426710144611
leaf_weight=103652.5298666954 6530.1362286750227 3113.9764464236796 10608.443266741931 2382.1440105121583
leaf_count=3180795 29409 30003 46743 13122
internal_value=0 -0.111248 -0.100678 -0.0717128
internal_weight=0 22634.7 16104.6 5496.12
internal_count=3300072 119277 89868 43125
is_linear=0
shrinkage=0.025


Tree=7
num_leaves=5
num_cat=0
split_feature=3 2 3 4
split_gain=489409 7564.45 4492.09 3470.94
threshold=0.015351295471191408 0.0079941749572753924 0.019406795501708988 5.4062500000000009
decision_type=2 2 2 2
left_child=-1 2 -2 -3
right_child=1 3 -4 -5
leaf_value=0.024825139180631214 -0.034231859488621827 -0.12394497067034467 -0.086549895683899411 -0.097407178175347636
leaf_weight=101176.8293394614 1749.9775153342634 6073.2638278305531 3335.4258208274841 13828.118568250909
leaf_count=3180806 16316 22668 20610 59805
internal_value=0 -0.0986209 -0.0692983 -0.105859
internal_weight=0 24986.8 5085.4 19901.4
internal_count=3300205 119399 36926 82473
is_linear=0
shrinkage=0.025


Tree=8
num_leaves=5
num_cat=0
split_feature=3 2 3 4
split_gain=435914 7130.94 9751.08 3360
threshold=0.013855457305908205 0.011529445648193361 0.019406795501708988 13.281250000000002
decision_type=2 2 2 2
left_child=-1 2 -2 -4
right_child=1 -3 3 -5
leaf_value=0.025188196411556681 -0.032330529767103593 -0.096289837607606274 -0.10292900338089071 -0.059171739465221279
leaf_weight=98045.349891064689 3342.5415628142655 18530.016719389707 3641.8928383048624 2221.9539224747568
leaf_count=3161239 37284 70557 17201 13161
internal_value=0 -0.0869827 -0.0676961 -0.0872001
internal_weight=0 27736.4 9206.39 5863.85
internal_count=3299442 138203 67646 30362
is_linear=0
shrinkage=0.025


Tree=9
num_leaves=5
num_cat=0
split_feature=3 2 3 4
split_gain=387132 5724.06 7686.02 2461.11
threshold=0.013855457305908205 0.011529445648193361 0.019406795501708988 12.531250000000002
decision_type=2 2 2 2
left_child=-1 2 -2 -4
right_child=1 -3 3 -5
leaf_value=0.025182237829059317 -0.029523309495935946 -0.08576817233462708 -0.091442603148642207 -0.055223696478926443
leaf_weight=95639.311639916152 3421.5536551978439 20167.357623344287 3718.240182582289 2569.3242060542107
leaf_count=3162340 37123 70984 15930 14176
internal_value=0 -0.0778399 -0.0608885 -0.0773919
internal_weight=0 29876.5 9709.12 6287.56
internal_count=3300553 138213 67229 30106
is_linear=0
shrinkage=0.025


Tree=10
num_leaves=5
num_cat=0
split_feature=3 3 2 4
split_gain=357501 5110.63 8155.69 3160.33
threshold=0.013855457305908205 0.027338027954101566 0.013490200042724611 9.4062500000000018
decision_type=2 2 2 2
left_child=-1 2 3 -2
right_child=1 -3 -4 -5
leaf_value=0.025176396290484432 -0.059386398996312775 -0.083498053810317316 -0.079189037630561579 -0.028180567662125258
leaf_weight=93286.843592389487 4474.1841579768807 14112.813669543713 8934.8335743397474 4392.729060321115
leaf_count=3161410 29773 39154 30648 39001
internal_value=0 -0.0716948 -0.0620597 -0.0443117
internal_weight=0 31914.6 17801.7 8866.91
internal_count=3299986 138576 99422 68774
is_linear=0
shrinkage=0.025


Tree=11
num_leaves=5
num_cat=0
split_feature=3 3 4 2
split_gain=327233 4217.07 6207.85 1857.01
threshold=0.013855457305908205 0.022485733032226566 8.0937500000000018 0.011529445648193361
decision_type=2 2 2 2
left_child=-1 2 -2 -4
right_child=1 -3 3 -5
leaf_value=0.025170675735712657 -0.069306106030231782 -0.073186309892946375 -0.018420250767846678 -0.048958534766240611
leaf_weight=91019.413058519363 7083.8221788480878 21070.981806345284 3005.2577316407114 2495.6490021208301
leaf_count=3161861 35569 59488 30876 12252
internal_value=0 -0.0660079 -0.0536479 -0.0328162
internal_weight=0 33655.7 12584.7 5500.91
internal_count=3300046 138185 78697 43128
is_linear=0
shrinkage=0.025


Tree=12
num_leaves=5
num_cat=0
split_feature=3 1 1 3
split_gain=300407 3998.5 6283.36 3286.15
threshold=0.013855457305908205 26246568.000000004 27328589.000000004 0.027338027954101566
decision_type=2 2 2 2
left_child=-1 3 -3 -2
right_child=1 2 -4 -5
leaf_value=0.025165051444518999 -0.030515581246351238 -0.11699722135767754 -0.062418159244159201 -0.063981428962598771
leaf_weight=88768.87684328761 4913.7555928509682 1481.2923492277041 25744.069795952179 3357.925093151629
leaf_count=3161734 39383 5365 81992 11434
internal_value=0 -0.0608332 -0.0656426 -0.0445542
internal_weight=0 35497 27225.4 8271.68
internal_count=3299908 138174 87357 50817
is_linear=0
shrinkage=0.025


Tree=13
num_leaves=5
num_cat=0
split_feature=3 3 2 1
split_gain=281795 3647.66 5168.28 1870.13
threshold=0.013855457305908205 0.027338027954101566 0.013490200042724611 24834360.000000004
decision_type=2 2 2 2
left_child=-1 2 3 -2
right_child=1 -3 -4 -5
leaf_value=0.025159551007496828 -0.020212847648524518 -0.066077863208057683 -0.061924122478015153 -0.044044253589815584
leaf_weight=86629.853142127395 3523.1552703175694 16685.059364959598 10495.781672278419 6642.9212356731296
leaf_count=3161369 31157 39108 30491 37749
internal_value=0 -0.0569462 -0.0493701 -0.0360469
internal_weight=0 37346.9 20661.9 10166.1
internal_count=3299874 138505 99397 68906
is_linear=0
shrinkage=0.025


Tree=14
num_leaves=5
num_cat=0
split_feature=3 3 1 1
split_gain=259215 3497.8 3858.34 2083.45
threshold=0.013855457305908205 0.037493228912353523 24529922.000000004 28825566.000000004
decision_type=2 2 2 2
left_child=-1 2 -2 -4
right_child=1 -3 3 -5
leaf_value=0.025154154736265796 -0.029179284390733196 -0.066447926031154667 -0.065208092053983188 -0.047277738319035825
leaf_weight=84539.07080498524 5902.0564459450543 9718.3205803707242 6932.3719276776537 16298.070417293347
leaf_count=3162549 40384 19522 24653 53633
internal_value=0 -0.0528194 -0.0481242 -0.0528107
internal_weight=0 38850.8 29132.5 23230.4
internal_count=3300741 138192 118670 78286
is_linear=0
shrinkage=0.025


Tree=15
num_leaves=5
num_cat=0
split_feature=3 3 4 4
split_gain=240885 2934.52 3160.92 1932.77
threshold=0.013855457305908205 0.037493228912353523 6.0312500000000009 17.156250000000004
decision_type=2 2 2 2
left_child=-1 2 -2 -3
right_child=1 3 -4 -5
leaf_value=0.025148840910345693 -0.05532754373421344 -0.056270923180704119 -0.037981308002038729 -0.09312731540251995
leaf_weight=82449.468760129996 11917.636964233592 9033.429821588099 18487.059527542442 1252.4793741330504
leaf_count=3162516 36104 17430 82988 2196
internal_value=0 -0.0491495 -0.0449012 -0.0613085
internal_weight=0 40690.6 30404.7 10285.9
internal_count=3301234 138718 119092 19626
is_linear=0
shrinkage=0.025


Tree=16
num_leaves=5
num_cat=0
split_feature=3 1 1 1
split_gain=226507 2598.42 1930.31 2429.43
threshold=0.013855457305908205 18050562.000000004 28825566.000000004 26246568.000000004
decision_type=2 2 2 2
left_child=-1 -2 3 -3
right_child=1 2 -4 -5
leaf_value=0.025143615683688964 -0.028257943238008357 -0.040894365827432382 -0.044030656364997756 -0.065475663769968551
leaf_weight=80392.660690972582 4953.0442188950256 4623.3126300368458 24094.678544162773 8458.0833548847586
leaf_count=3162736 29531 21292 64652 22980
internal_value=0 -0.0463835 -0.0487237 -0.057072
internal_weight=0 42129.1 37176.1 13081.4
internal_count=3301191 138455 108924 44272
is_linear=0
shrinkage=0.025


Tree=17
num_leaves=5
num_cat=0
split_feature=3 3 2 4
split_gain=213990 2608.95 3890.8 1281.55
threshold=0.013855457305908205 0.019406795501708988 0.013490200042724611 7.4062500000000009
decision_type=2 2 2 2
left_child=-1 2 3 -2
right_child=1 -3 -4 -5
leaf_value=0.025138494263978201 -0.031152022667258552 -0.047425698976984697 -0.052898052917151918 -0.0081733443807819831
leaf_weight=78419.602392749395 3221.6718802405521 33445.205035209656 3634.3516297396272 3268.199256435968
leaf_count=3160903 17978 79384 11636 29627
internal_value=0 -0.0439304 -0.0320845 -0.0199224
internal_weight=0 43569.4 10124.2 6489.87
internal_count=3299528 138625 59241 47605
is_linear=0
shrinkage=0.025


Tree=18
num_leaves=5
num_cat=0
split_feature=3 3 2 1
split_gain=199506 2696.07 3708.88 1244.27
threshold=0.013855457305908205 0.027338027954101566 0.013490200042724611 24834360.000000004
decision_type=2 2 2 2
left_child=-1 2 3 -2
right_child=1 -3 -4 -5
leaf_value=0.025133475470604263 -0.013020082576007848 -0.048353671590059724 -0.044973215862535332 -0.030881266992057618
leaf_weight=76528.545336057432 4073.2046312019229 20033.858606420457 12692.419379535131 8036.2970753703266
leaf_count=3161979 31083 38988 30445 37603
internal_value=0 -0.0412457 -0.0353682 -0.0250544
internal_weight=0 44835.8 24801.9 12109.5
internal_count=3300098 138119 99131 68686
is_linear=0
shrinkage=0.025


Tree=19
num_leaves=5
num_cat=0
split_feature=3 3 4 2
split_gain=188731 2324.18 2656.91 1340.35
threshold=0.013855457305908205 0.037493228912353523 6.0312500000000009 0.021717548370361332
decision_type=2 2 2 2
left_child=-1 2 -2 -4
right_child=1 -3 3 -5
leaf_value=0.025128529550622565 -0.0443611068103998 -0.04912917992383542 -0.026735495377419639 -0.045990968649855683
leaf_weight=74653.138814841397 13716.216205816716 11710.932069189847 18049.275454286486 2953.8183026239276
leaf_count=3162161 36208 19694 76949 5998
internal_value=0 -0.0390334 -0.0355263 -0.0296057
internal_weight=0 46430.2 34719.3 21003.1
internal_count=3301010 138849 119155 82947
is_linear=0
shrinkage=0.025


Tree=20
num_leaves=5
num_cat=0
split_feature=3 2 3 4
split_gain=177711 2192.86 1861.07 1371.3
threshold=0.013855457305908205 0.0071363449096679696 0.019406795501708988 5.4062500000000009
decision_type=2 2 2 2
left_child=-1 2 -2 -3
right_child=1 3 -4 -5
leaf_value=0.025123679926583639 -0.006913345062296801 -0.047052496493689457 -0.033129729282966015 -0.036018364350775774
leaf_weight=72851.003829834051 2732.8529200041667 12313.68601921387 5237.9756541103125 27067.90364293009
leaf_count=3161906 22444 27326 18021 70495
internal_value=0 -0.0370585 -0.0243962 -0.0395555
internal_weight=0 47352.4 7970.83 39381.6
internal_count=3300192 138286 40465 97821
is_linear=0
shrinkage=0.025


Tree=21
num_leaves=5
num_cat=0
split_feature=3 3 2 4
split_gain=168673 2184.87 2959.54 1193.8
threshold=0.013855457305908205 0.022485733032226566 0.013490200042724611 7.1562500000000009
decision_type=2 2 2 2
left_child=-1 2 3 -2
right_child=1 -3 -4 -5
leaf_value=0.025118876253252133 -0.027881686698719172 -0.039509681540205246 -0.039215126135703139 -0.0098954277783378421
leaf_weight=71023.366618811153 4600.3622903330252 30497.526862826198 8236.804131122306 5355.7454549595714
leaf_count=3161456 20148 59460 20096 38527
internal_value=0 -0.0352642 -0.0279901 -0.018429
internal_weight=0 48690.4 18192.9 9956.11
internal_count=3299687 138231 78771 58675
is_linear=0
shrinkage=0.025


Tree=22
num_leaves=5
num_cat=0
split_feature=3 3 1 4
split_gain=159566 1953.5 1966.04 1695.49
threshold=0.013855457305908205 0.037493228912353523 24529922.000000004 17.156250000000004
decision_type=2 2 2 2
left_child=-1 2 -2 -3
right_child=1 3 -4 -5
leaf_value=0.025114167890943746 -0.018153225495725598 -0.038251499384263678 -0.033234696752734154 -0.067939007791743569
leaf_weight=69283.325685904827 7339.4637228213251 11018.120796084404 30165.718074284494 1583.0482483059168
leaf_count=3161878 40313 17293 78399 2194
internal_value=0 -0.0334239 -0.0303448 -0.0423336
internal_weight=0 50106.4 37505.2 12601.2
internal_count=3300077 138199 118712 19487
is_linear=0
shrinkage=0.025


Tree=23
num_leaves=5
num_cat=0
split_feature=3 1 1 3
split_gain=152255 1778.14 1584.75 1558.15
threshold=0.013855457305908205 17792145.000000004 28825566.000000004 0.037493228912353523
decision_type=2 2 2 2
left_child=-1 -2 3 -3
right_child=1 2 -4 -5
leaf_value=0.025109528628396036 -0.018337830223691978 -0.03575301408196338 -0.030044956494032011 -0.056096796427131237
leaf_weight=67571.641365502961 5806.6362915830687 12465.936383138411 29131.145168590359 3547.2739450633526
leaf_count=3161439 28934 39572 64544 5348
internal_value=0 -0.0321008 -0.0338211 -0.040498
internal_weight=0 50951 45144.4 16013.2
internal_count=3299837 138398 109464 44920
is_linear=0
shrinkage=0.025


Tree=24
num_leaves=5
num_cat=0
split_feature=3 3 2 4
split_gain=143463 2143.33 2799.2 908.008
threshold=0.013855457305908205 0.027338027954101566 0.013490200042724611 5.4062500000000009
decision_type=2 2 2 2
left_child=-1 2 -2 -3
right_child=1 3 -4 -5
leaf_value=0.025104988420700025 -0.017212219466994749 -0.046176034992508351 -0.033150743670916381 -0.032970597221700065
leaf_weight=65957.545764562674 14051.903898487799 5327.3592867925763 14935.226824998856 18022.931124672294
leaf_count=3162757 68810 7401 30524 31786
internal_value=0 -0.0303017 -0.0255103 -0.0361291
internal_weight=0 52337.4 28987.1 23350.3
internal_count=3301278 138521 99334 39187
is_linear=0
shrinkage=0.025


Tree=25
num_leaves=5
num_cat=0
split_feature=3 3 2 4
split_gain=135133 1620.06 2346.06 782.76
threshold=0.013855457305908205 0.027338027954101566 0.013490200042724611 10.156250000000002
decision_type=2 2 2 2
left_child=-1 2 3 -2
right_child=1 -3 -4 -5
leaf_value=0.025100475359182462 -0.022151197852977936 -0.033739269864830577 -0.03146915885823677 -0.0097135597505376634
leaf_weight=64313.356664231978 8153.8830386474729 23876.649515725672 15183.756767081097 6137.7881770292297
leaf_count=3161503 32117 39149 30551 36527
internal_value=0 -0.0286926 -0.0245119 -0.0169493
internal_weight=0 53352.1 29475.4 14291.7
internal_count=3299847 138344 99195 68644
is_linear=0
shrinkage=0.025


Tree=26
num_leaves=5
num_cat=0
split_feature=3 3 4 4
split_gain=130337 1732.92 1855.79 1190.47
threshold=0.013855457305908205 0.037493228912353523 13.843750000000002 17.156250000000004
decision_type=2 2 2 2
left_child=-1 2 -2 -3
right_child=1 3 -4 -5
leaf_value=0.025096049104534137 -0.027681966613580022 -0.032454636401714775 -0.013743592897278018 -0.056575966038413833
leaf_weight=62744.868855290115 32772.610193453729 11913.488722860813 7980.5586403617635 1719.3871147334576
leaf_count=3161861 84509 17196 34367 2219
internal_value=0 -0.027759 -0.0250033 -0.0357838
internal_weight=0 54386 40753.2 13632.9
internal_count=3300152 138291 118876 19415
is_linear=0
shrinkage=0.025


Tree=27
num_leaves=5
num_cat=0
split_feature=3 3 4 4
split_gain=124542 1474.01 1543.69 1178.52
threshold=0.013855457305908205 0.037493228912353523 14.156250000000002 17.156250000000004
decision_type=2 2 2 2
left_child=-1 2 -2 -3
right_child=1 3 -4 -5
leaf_value=0.025091711068597491 -0.026503598329569694 -0.030795699026316771 -0.013556516040145733 -0.05447881050888892
leaf_weight=61252.222701460589 33606.448827132583 12072.078323632479 7683.8325043367222 1750.2223547399044
leaf_count=3163362 85522 17282 33250 2196
internal_value=0 -0.0266846 -0.0241438 -0.0340702
internal_weight=0 55112.6 41290.3 13822.3
internal_count=3301612 138250 118772 19478
is_linear=0
shrinkage=0.025


Tree=28
num_leaves=5
num_cat=0
split_feature=3 1 1 3
split_gain=117773 1316.63 1154.98 1444.79
threshold=0.013855457305908205 18050562.000000004 28825566.000000004 0.017136096954345707
decision_type=2 2 2 2
left_child=-1 -2 3 -3
right_child=1 2 -4 -5
leaf_value=0.025087373351460697 -0.014193441228690826 -0.011652236588523934 -0.02370589295231551 -0.034946886727717501
leaf_weight=59711.671303376555 6521.4770261254162 2126.4363197619095 32028.206406581216 15381.626702204347
leaf_count=3163466 29542 12715 64523 31462
internal_value=0 -0.0253461 -0.0267733 -0.0322301
internal_weight=0 56057.7 49536.3 17508.1
internal_count=3301708 138242 108700 44177
is_linear=0
shrinkage=0.025


Tree=29
num_leaves=5
num_cat=0
split_feature=3 1 1 3
split_gain=113777 1393.45 1287.71 1271.14
threshold=0.013855457305908205 17792145.000000004 28825566.000000004 0.017136096954345707
decision_type=2 2 2 2
left_child=-1 -2 3 -3
right_child=1 2 -4 -5
leaf_value=0.025083104375901902 -0.013119054702170264 -0.012344708623848398 -0.022787300126700438 -0.034104933248454893
leaf_weight=58227.116601342335 6524.3966205436736 2171.0923996185884 32604.600737684406 15868.784090146422
leaf_count=3162063 28957 13025 64667 31739
internal_value=0 -0.024545 -0.0259779 -0.0315966
internal_weight=0 57168.9 50644.5 18039.9
internal_count=3300451 138388 109431 44764
is_linear=0
shrinkage=0.025


Tree=30
num_leaves=5
num_cat=0
split_feature=3 3 2 4
split_gain=108030 1379.07 1456.31 1289.87
threshold=0.013855457305908205 0.037493228912353523 0.021717548370361332 5.5312500000000009
decision_type=2 2 2 2
left_child=-1 2 3 -2
right_child=1 -3 -4 -5
leaf_value=0.02507888953215856 -0.025497054339389313 -0.030346573756076856 -0.032610074836419714 -0.015405037719334443
leaf_weight=56783.005997765809 13195.316992746666 14508.005693554878 6184.1254933029413 24142.367154746316
leaf_count=3162131 28835 19515 9398 80491
internal_value=0 -0.0234028 -0.0210273 -0.0190344
internal_weight=0 58029.8 43521.8 37337.7
internal_count=3300370 138239 118724 109326
is_linear=0
shrinkage=0.025


Tree=31
num_leaves=5
num_cat=0
split_feature=3 3 2 4
split_gain=104818 1310.02 2239.57 740.918
threshold=0.013855457305908205 0.019406795501708988 0.013490200042724611 5.4062500000000009
decision_type=2 2 2 2
left_child=-1 2 -2 -3
right_child=1 3 -4 -5
leaf_value=0.025074758993194775 -0.007652194388804285 -0.030573560997167931 -0.028817394578425456 -0.022712485973371072
leaf_weight=55415.52415883448 8640.5371980201453 12348.677278988063 5113.3865077868104 32809.572546768934
leaf_count=3162163 47328 17444 11657 61959
internal_value=0 -0.0228018 -0.0156874 -0.0249212
internal_weight=0 58912.2 13753.9 45158.2
internal_count=3300551 138388 58985 79403
is_linear=0
shrinkage=0.025


Tree=32
num_leaves=5
num_cat=0
split_feature=3 3 2 4
split_gain=99408.9 1343.71 1847.14 784.303
threshold=0.013855457305908205 0.022485733032226566 0.011529445648193361 9.7812500000000018
decision_type=2 2 2 2
left_child=-1 2 3 -2
right_child=1 -3 -4 -5
leaf_value=0.025070663420369035 -0.014474661691830757 -0.024749287457299693 -0.02256528746377133 0
leaf_weight=54062.515847917646 4799.2037540245801 37094.120405294001 13436.959952779114 4203.8233819901943
leaf_count=3161910 19115 59522 32065 27694
internal_value=0 -0.021736 -0.0166554 -0.00762099
internal_weight=0 59534.1 22440 9003.03
internal_count=3300306 138396 78874 46809
is_linear=0
shrinkage=0.025


Tree=33
num_leaves=5
num_cat=0
split_feature=3 4 3 4
split_gain=95408.8 1367.04 1378.87 1363.94
threshold=0.013855457305908205 5.4062500000000009 0.037493228912353523 17.156250000000004
decision_type=2 2 2 2
left_child=-1 -2 -3 -4
right_child=1 2 3 -5
leaf_value=0.025066609765885064 -0.026891767736163419 -0.015292890306118155 -0.021556845245011908 -0.045449663381855111
leaf_weight=52739.573129976634 18125.855924408883 29901.073065716773 10329.318380311131 1928.5349006354809
leaf_count=3162045 33458 88372 14275 2202
internal_value=0 -0.0209537 -0.0183423 -0.0255868
internal_weight=0 60284.8 42158.9 12257.9
internal_count=3300352 138307 104849 16477
is_linear=0
shrinkage=0.025


Tree=34
num_leaves=5
num_cat=0
split_feature=3 3 2 4
split_gain=91515.6 1254.88 1859.47 698.997
threshold=0.013855457305908205 0.027338027954101566 0.013490200042724611 5.4062500000000009
decision_type=2 2 2 2
left_child=-1 2 -2 -3
right_child=1 3 -4 -5
leaf_value=0.025062575144104773 -0.010554471445123857 -0.032285241039728164 -0.022515181815742719 -0.021821762287826174
leaf_weight=51424.345434864052 16445.983940308914 6192.8438382595778 17548.700804332271 20967.201524958014
leaf_count=3161288 68639 7375 30574 31772
internal_value=0 -0.0201664 -0.0167895 -0.0243085
internal_weight=0 61154.7 33994.7 27160
internal_count=3299648 138360 99213 39147
is_linear=0
shrinkage=0.025


Tree=35
num_leaves=5
num_cat=0
split_feature=3 3 2 4
split_gain=87217.6 1291.58 1174.25 1110.2
threshold=0.013855457305908205 0.037493228912353523 0.021717548370361332 5.4062500000000009
decision_type=2 2 2 2
left_child=-1 2 3 -2
right_child=1 -3 -4 -5
leaf_value=0.025058593862982755 -0.021309339285252096 -0.02581134746920485 -0.027230978907037337 -0.012212234857118006
leaf_weight=50154.471456278116 13652.349513053894 15350.259654462337 6526.4332925975323 26101.213739097118
leaf_count=3161966 27681 19530 9339 81749
internal_value=0 -0.0193204 -0.0171149 -0.0153907
internal_weight=0 61630.3 46280 39753.6
internal_count=3300265 138299 118769 109430
is_linear=0
shrinkage=0.025


Tree=36
num_leaves=5
num_cat=0
split_feature=3 3 4 3
split_gain=83755.2 1299.53 1109.5 851.013
threshold=0.013855457305908205 0.037493228912353523 6.0312500000000009 0.017136096954345707
decision_type=2 2 2 2
left_child=-1 2 -2 -4
right_child=1 -3 3 -5
leaf_value=0.025054693749509412 -0.021180856702472352 -0.025042779049328757 -0.0019354887443566423 -0.014843232737460715
leaf_weight=48958.646193724126 19032.334018452093 15576.002226740122 3964.7263923007995 23919.040502700955
leaf_count=3161729 36030 19567 26605 56149
internal_value=0 -0.0185922 -0.0163997 -0.0130594
internal_weight=0 62492.1 46916.1 27883.8
internal_count=3300080 138351 118784 82754
is_linear=0
shrinkage=0.025


Tree=37
num_leaves=5
num_cat=0
split_feature=3 3 2 1
split_gain=80710.9 1045.13 1737.8 645.757
threshold=0.013855457305908205 0.019406795501708988 0.013490200042724611 28825566.000000004
decision_type=2 2 2 2
left_child=-1 2 -2 -3
right_child=1 3 -4 -5
leaf_value=0.025050772162077073 -0.0050316050153147492 -0.023429467311243624 -0.022901015990328094 -0.017105733315836199
leaf_weight=47737.815479443409 9238.5403978442773 20515.098910816014 5608.2369711007923 27759.922296643257
leaf_count=3161809 47381 39399 11677 39930
internal_value=0 -0.0180081 -0.0119197 -0.0198404
internal_weight=0 63121.8 14846.8 48275
internal_count=3300196 138387 59058 79329
is_linear=0
shrinkage=0.025


Tree=38
num_leaves=5
num_cat=0
split_feature=3 2 3 4
split_gain=78148.3 1099.96 920.187 953.028
threshold=0.013855457305908205 0.0071363449096679696 0.019406795501708988 13.531250000000002
decision_type=2 2 2 2
left_child=-1 2 -2 -4
right_child=1 -3 3 -5
leaf_value=0.025046918185447683 3.5922767375801804e-05 -0.01905329664284075 -0.022236790927264907 -0.0030070307995213037
leaf_weight=46578.207169226371 3600.3151509379968 52887.748853521422 4452.3893981873989 2791.0559580810368
leaf_count=3162038 22630 97702 9583 8357
internal_value=0 -0.0175352 -0.00996265 -0.0150699
internal_weight=0 63731.5 10843.8 7243.45
internal_count=3300310 138272 40570 17940
is_linear=0
shrinkage=0.025


Tree=39
num_leaves=5
num_cat=0
split_feature=3 3 2 4
split_gain=74622.6 1189.43 1012.52 726.121
threshold=0.013855457305908205 0.017136096954345707 0.011529445648193361 5.4062500000000009
decision_type=2 2 2 2
left_child=-1 2 -2 -3
right_child=1 3 -4 -5
leaf_value=0.025043054339785556 0.0017069244344036104 -0.022669494403757227 -0.016442658132379408 -0.016054599768561103
leaf_weight=45413.900537639856 3805.5395708251745 16520.081570118666 3600.4140115641057 40570.806303687394
leaf_count=3161772 26093 22796 12867 76738
internal_value=0 -0.0167704 -0.00699996 -0.0180088
internal_weight=0 64496.8 7405.95 57090.9
internal_count=3300266 138494 38960 99534
is_linear=0
shrinkage=0.025


Tree=40
num_leaves=5
num_cat=0
split_feature=3 2 3 4
split_gain=71898.8 1055.52 1182.86 988.093
threshold=0.013855457305908205 0.021717548370361332 0.037493228912353523 14.156250000000002
decision_type=2 2 2 2
left_child=-1 2 3 -2
right_child=1 -3 -4 -5
leaf_value=0.025039272305614774 -0.014489954758956465 -0.022468061032224349 -0.023029837275930345 -0.0044812776318075972
leaf_weight=44320.513378450181 34321.478923154995 14087.822383210063 8704.6207402199507 8055.2839480778202
leaf_count=3161614 77818 18501 10322 31726
internal_value=0 -0.0162127 -0.0144428 -0.0126244
internal_weight=0 65169.2 51081.4 42376.8
internal_count=3299981 138367 119866 109544
is_linear=0
shrinkage=0.025


Tree=41
num_leaves=5
num_cat=0
split_feature=3 1 1 1
split_gain=69111.9 1186.85 968.644 1171.6
threshold=0.013855457305908205 18050562.000000004 28825566.000000004 26246568.000000004
decision_type=2 2 2 2
left_child=-1 -2 3 -3
right_child=1 2 -4 -5
leaf_value=0.025035480542277257 -0.0060813787022899147 -0.01292732783881222 -0.01435392630213919 -0.025963346769759855
leaf_weight=43226.921911588171 7621.807784483768 7359.7930415607989 37308.198974436149 13238.759472219273
leaf_count=3161984 29452 21315 64560 22871
internal_value=0 -0.0156675 -0.0169013 -0.0214087
internal_weight=0 65528.6 57906.8 20598.6
internal_count=3300182 138198 108746 44186
is_linear=0
shrinkage=0.025


Tree=42
num_leaves=5
num_cat=0
split_feature=3 3 1 4
split_gain=66668.6 1010.54 1044.66 926.605
threshold=0.013855457305908205 0.037493228912353523 24529922.000000004 17.156250000000004
decision_type=2 2 2 2
left_child=-1 2 -2 -3
right_child=1 3 -4 -5
leaf_value=0.025031705082950991 -0.0057204942441671834 -0.018131253507634192 -0.015092935524739212 -0.036785367456150929
leaf_weight=42152.879545779899 9787.0620309831575 14130.462818533182 40353.660347079858 2109.5312295556068
leaf_count=3161502 40465 17265 78527 2163
internal_value=0 -0.0151493 -0.0132959 -0.0207366
internal_weight=0 66380.7 50140.7 16240
internal_count=3299922 138420 118992 19428
is_linear=0
shrinkage=0.025


Tree=43
num_leaves=5
num_cat=0
split_feature=3 3 2 4
split_gain=64320.7 1035.89 1252.25 590.409
threshold=0.013855457305908205 0.022485733032226566 0.013490200042724611 10.156250000000002
decision_type=2 2 2 2
left_child=-1 2 3 -2
right_child=1 -3 -4 -5
leaf_value=0.025027969911777817 -0.009422251843707671 -0.017175760164850923 -0.016606282669564803 0.00097860206295529123
leaf_weight=41122.627259057481 8349.5791255794466 41481.092112861574 11648.983404496685 5389.9107033601031
leaf_count=3161110 28088 59750 20116 30605
internal_value=0 -0.0146844 -0.010539 -0.00526266
internal_weight=0 66869.6 25388.5 13739.5
internal_count=3299669 138559 78809 58693
is_linear=0
shrinkage=0.025


Tree=44
num_leaves=5
num_cat=0
split_feature=3 4 2 3
split_gain=61413.5 896.099 738.767 830.208
threshold=0.013855457305908205 22.343750000000004 0.021717548370361332 0.037493228912353523
decision_type=2 2 2 2
left_child=-1 2 3 -2
right_child=1 -3 -4 -5
leaf_value=0.025024249661200423 -0.011493095787814009 0.00096966957441414542 -0.019836578344044693 -0.020176251643755243
leaf_weight=40113.721787113696 41957.762072318234 2242.8074157126248 14133.297676771879 8972.7813485711813
leaf_count=3160797 101656 8630 18173 10186
internal_value=0 -0.0140331 -0.0145698 -0.0130657
internal_weight=0 67306.6 65063.8 50930.5
internal_count=3299442 138645 130015 111842
is_linear=0
shrinkage=0.025


Tree=45
num_leaves=5
num_cat=0
split_feature=3 2 3 4
split_gain=59980.9 960.634 1083.08 898.856
threshold=0.013855457305908205 0.021717548370361332 0.037493228912353523 13.843750000000002
decision_type=2 2 2 2
left_child=-1 2 3 -2
right_child=1 -3 -4 -5
leaf_value=0.02502053374020273 -0.012259854791202396 -0.019685540365136547 -0.020132733909304174 -0.0030677210669678942
leaf_weight=39122.322611454176 35317.879094746895 14559.485237210989 9225.3730796277523 8712.6486297510564
leaf_count=3161948 76610 18429 10430 32883
internal_value=0 -0.0138299 -0.0121886 -0.0104748
internal_weight=0 67815.4 53255.9 44030.5
internal_count=3300300 138352 119923 109493
is_linear=0
shrinkage=0.025


Tree=46
num_leaves=5
num_cat=0
split_feature=3 2 1 3
split_gain=57232.5 773.187 869.964 977.565
threshold=0.013855457305908205 0.021717548370361332 17792145.000000004 0.037493228912353523
decision_type=2 2 2 2
left_child=-1 2 -2 -4
right_child=1 -3 3 -5
leaf_value=0.025016827023995894 -0.0030787170685387718 -0.018428109883782726 -0.0112042679644698 -0.021153099534004419
leaf_weight=38151.911969649605 6800.7222193246707 14773.639126881957 38835.620118398219 7874.5835416167974
leaf_count=3160912 27005 18591 84569 8329
internal_value=0 -0.0131899 -0.0117045 -0.012929
internal_weight=0 68284.6 53510.9 46710.2
internal_count=3299406 138494 119903 92898
is_linear=0
shrinkage=0.025


Tree=47
num_leaves=5
num_cat=0
split_feature=3 3 2 4
split_gain=56799.3 863.335 1060.31 529.706
threshold=0.013855457305908205 0.022485733032226566 0.013490200042724611 14.781250000000002
decision_type=2 2 2 2
left_child=-1 2 -2 -4
right_child=1 -3 3 -5
leaf_value=0.025013192419947667 -0.0047647298272021736 -0.01554005707026257 -0.016907858044702778 0
leaf_weight=37240.997672448866 14154.176611178555 42670.758199080825 10669.864026332274 1333.0214796382934
leaf_count=3162056 58662 59667 17446 2799
internal_value=0 -0.0132927 -0.00955622 -0.0150596
internal_weight=0 68827.8 26157.1 12002.9
internal_count=3300630 138574 78907 20245
is_linear=0
shrinkage=0.025


Tree=48
num_leaves=5
num_cat=0
split_feature=3 3 2 4
split_gain=54042.2 904.857 900.405 887.182
threshold=0.013855457305908205 0.037493228912353523 0.021717548370361332 17.156250000000004
decision_type=2 2 2 2
left_child=-1 2 -2 -3
right_child=1 3 -4 -5
leaf_value=0.025009521179140098 -0.0095308408675864684 -0.015283786422824791 -0.019350477681783024 -0.032811537631999572
leaf_weight=36325.959340952104 44904.205635705031 14775.398338362575 7115.3924241662025 2261.9022889882326
leaf_count=3162495 109542 17325 9259 2241
internal_value=0 -0.012637 -0.0109153 -0.0177732
internal_weight=0 69056.9 52019.6 17037.3
internal_count=3300862 138367 118801 19566
is_linear=0
shrinkage=0.025


Tree=49
num_leaves=5
num_cat=0
split_feature=3 4 4 3
split_gain=51598.8 906.038 622.867 626.172
threshold=0.013855457305908205 22.343750000000004 5.4062500000000009 0.037493228912353523
decision_type=2 2 2 2
left_child=-1 2 -2 -4
right_child=1 -3 3 -5
leaf_value=0.025005852848832284 -0.016299275702712106 0.0029357077771780512 -0.0088182439136202662 -0.01540177230476273
leaf_weight=35430.914495188277 20906.103154236451 2287.3801173781976 32295.595569030382 13987.853892073035
leaf_count=3162014 33256 8619 79983 16370
internal_value=0 -0.0120442 -0.0125746 -0.0108494
internal_weight=0 69476.9 67189.6 46283.4
internal_count=3300242 138228 129609 96353
is_linear=0
shrinkage=0.025


Tree=50
num_leaves=5
num_cat=0
split_feature=3 4 3 1
split_gain=50405.8 734.469 730.461 858.252
threshold=0.013855457305908205 5.4062500000000009 0.022485733032226566 28825566.000000004
decision_type=2 2 2 2
left_child=-1 -2 -3 -4
right_child=1 2 3 -5
leaf_value=0.025002185178345151 -0.015891477130930781 -0.0056370825383055666 -0.016904272796859902 -0.0084402254902830858
leaf_weight=34556.857492918381 21195.121409207582 16396.226155641489 14575.49765881151 17716.568166568875
leaf_count=3161255 33448 57861 23994 23195
internal_value=0 -0.0118865 -0.0101029 -0.0123195
internal_weight=0 69883.4 48688.3 32292.1
internal_count=3299753 138498 105050 47189
is_linear=0
shrinkage=0.025


Tree=51
num_leaves=5
num_cat=0
split_feature=3 4 3 2
split_gain=48642 834.948 759.976 682.054
threshold=0.013855457305908205 5.4062500000000009 0.019406795501708988 0.011529445648193361
decision_type=2 2 2 2
left_child=-1 -2 3 -3
right_child=1 2 -4 -5
leaf_value=0.024998539781824071 -0.015713853182968029 0.0031171383711054179 -0.011202482031607994 -0.0097063668744697285
leaf_weight=33712.901859778911 21419.234562603757 4959.7702767895535 38977.426479447633 5122.2889275848866
leaf_count=3161483 33488 29881 61999 13294
internal_value=0 -0.0114904 -0.00960694 -0.00329035
internal_weight=0 70478.7 49059.5 10082.1
internal_count=3300145 138662 105174 43175
is_linear=0
shrinkage=0.025


Tree=52
num_leaves=5
num_cat=0
split_feature=3 3 2 1
split_gain=46879.1 845.995 989.707 586.538
threshold=0.013855457305908205 0.019406795501708988 0.013490200042724611 28825566.000000004
decision_type=2 2 2 2
left_child=-1 2 -2 -3
right_child=1 3 -4 -5
leaf_value=0.024994854077291184 -0.0011262606366661003 -0.015781997465025139 -0.013757652111413596 -0.010245993673677165
leaf_weight=32872.032266959548 10389.35601635091 23178.924551278353 6387.5506229754537 30811.159373007715
leaf_count=3161736 47463 39481 11524 39793
internal_value=0 -0.0111114 -0.00603635 -0.0126582
internal_weight=0 70767 16776.9 53990.1
internal_count=3299997 138261 58987 79274
is_linear=0
shrinkage=0.025


Tree=53
num_leaves=5
num_cat=0
split_feature=3 4 3 2
split_gain=46125.8 794.625 552.807 836.491
threshold=0.013855457305908205 22.343750000000004 0.017136096954345707 0.011529445648193361
decision_type=2 2 2 2
left_child=-1 2 3 -2
right_child=1 -3 -4 -5
leaf_value=0.024991200700681979 0.0027365119783639216 0.0027650796239245389 -0.012400674671270626 -0.013104623234613861
leaf_weight=32067.639358002227 4004.9440209846944 2341.3163780579343 60969.301065571606 4044.3235041815788
leaf_count=3160921 23945 8576 93424 12525
internal_value=0 -0.0110822 -0.0115717 -0.00510023
internal_weight=0 71359.9 69018.6 8049.27
internal_count=3299391 138470 129894 36470
is_linear=0
shrinkage=0.025


Tree=54
num_leaves=5
num_cat=0
split_feature=3 1 1 0
split_gain=44384.6 802.016 837.879 1129.2
threshold=0.013855457305908205 17792145.000000004 28825566.000000004 1527.5312500000002
decision_type=2 2 2 2
left_child=-1 -2 -3 -4
right_child=1 2 3 -5
leaf_value=0.024987569787207425 -0.0030782146371290575 -0.015549076770319635 -0.0072392256251673937 -0.017949028181482373
leaf_weight=31292.508546251804 8189.8534549195319 22904.371705283411 32690.704987853765 7897.2373951710761
leaf_count=3161642 28880 44888 51650 13066
internal_value=0 -0.0106744 -0.0116313 -0.00937332
internal_weight=0 71682.2 63492.3 40587.9
internal_count=3300126 138484 109604 64716
is_linear=0
shrinkage=0.025


Tree=55
num_leaves=5
num_cat=0
split_feature=3 3 2 4
split_gain=42495.9 769.735 960.207 527.503
threshold=0.013855457305908205 0.027338027954101566 0.013490200042724611 5.4062500000000009
decision_type=2 2 2 2
left_child=-1 2 -2 -3
right_child=1 3 -4 -5
leaf_value=0.024983847911258978 -0.0037741591066015471 -0.019518642497419365 -0.011599900171578912 -0.011295820314326381
leaf_weight=30504.152924540685 19740.118435516953 7039.0954142957926 20863.568835506216 24321.967656433582
leaf_count=3161599 68667 7309 30725 31725
internal_value=0 -0.0102022 -0.00783536 -0.0132094
internal_weight=0 71964.8 40603.7 31361.1
internal_count=3300025 138426 99392 39034
is_linear=0
shrinkage=0.025


Tree=56
num_leaves=5
num_cat=0
split_feature=3 3 4 1
split_gain=40499.1 751.447 807.629 1215.56
threshold=0.013855457305908205 0.037493228912353523 17.156250000000004 28825566.000000004
decision_type=2 2 2 2
left_child=-1 -2 3 -3
right_child=1 2 -4 -5
leaf_value=0.02498020910167096 -0.0081439719264797192 -0.020651825779530657 -0.02856317136728731 -0.0059222207331362216
leaf_weight=29769.696796191856 54751.073478470556 6103.1889843642712 2256.0261615216732 9055.1024761945009
leaf_count=3162455 118819 7551 2162 9788
internal_value=0 -0.00965048 -0.0142785 -0.0119834
internal_weight=0 72165.4 17414.3 15158.3
internal_count=3300775 138320 19501 17339
is_linear=0
shrinkage=0.025


Tree=57
num_leaves=5
num_cat=0
split_feature=3 3 0 4
split_gain=39456.3 699.454 782.998 752.749
threshold=0.013855457305908205 0.037493228912353523 1279.3125000000002 17.156250000000004
decision_type=2 2 2 2
left_child=-1 2 -2 -3
right_child=1 3 -4 -5
leaf_value=0.024976576092978365 -0.0062014737953761277 -0.011705064792560615 -0.01318226957018637 -0.027624681233191319
leaf_weight=29057.761861797189 40940.620876108296 15201.014721900225 14099.971420805901 2293.4366175383329
leaf_count=3162220 96277 17357 22497 2205
internal_value=0 -0.00947484 -0.0080228 -0.0139361
internal_weight=0 72535 55040.6 17494.5
internal_count=3300556 138336 118774 19562
is_linear=0
shrinkage=0.025


Tree=58
num_leaves=5
num_cat=0
split_feature=3 1 1 0
split_gain=38352.2 704.692 2436.56 675.58
threshold=0.013855457305908205 26246568.000000004 27328589.000000004 558.15625000000011
decision_type=2 2 2 2
left_child=-1 3 -3 -2
right_child=1 2 -4 -5
leaf_value=0.02497283848493094 -0.0032442507257303163 -0.031789735767307072 -0.0093059735071934404 -0.024100634283310024
leaf_weight=28332.671110510826 15835.125923312269 3216.3174614179879 52798.556654186919 1016.6778959529474
leaf_count=3161976 48331 5309 82452 2413
internal_value=0 -0.00927957 -0.0106465 -0.00464406
internal_weight=0 72866.7 56014.9 16851.8
internal_count=3300481 138505 87761 50744
is_linear=0
shrinkage=0.025


Tree=59
num_leaves=5
num_cat=0
split_feature=3 3 2 1
split_gain=36894.9 629.276 816.31 473.78
threshold=0.013855457305908205 0.022485733032226566 0.013490200042724611 28825566.000000004
decision_type=2 2 2 2
left_child=-1 2 -2 -3
right_child=1 3 -4 -5
leaf_value=0.024969066829479858 -0.001851291556526678 -0.01385291891647762 -0.010540442344576413 -0.0084053679501887319
leaf_weight=27620.862010714598 15283.832478622906 19340.098182603717 12738.420943332836 25801.887170307338
leaf_count=3161263 58831 28821 19998 30948
internal_value=0 -0.0089168 -0.00585749 -0.0107797
internal_weight=0 73164.2 28022.3 45142
internal_count=3299861 138598 78829 59769
is_linear=0
shrinkage=0.025


Tree=60
num_leaves=5
num_cat=0
split_feature=3 3 2 1
split_gain=35721.5 617.172 889.028 477.929
threshold=0.013855457305908205 0.019406795501708988 0.013490200042724611 28825566.000000004
decision_type=2 2 2 2
left_child=-1 2 -2 -3
right_child=1 3 -4 -5
leaf_value=0.024965436701113938 0 -0.012699208870935558 -0.011478014618573567 -0.0078087296985357504
leaf_weight=26973.636835545767 10795.984871190041 24131.951294984668 6772.9158040117472 31740.47955211252
leaf_count=3162365 47517 39537 11558 39730
internal_value=0 -0.00864865 -0.00441378 -0.0099528
internal_weight=0 73441.3 17568.9 55872.4
internal_count=3300707 138342 59075 79267
is_linear=0
shrinkage=0.025


Tree=61
num_leaves=5
num_cat=0
split_feature=3 3 2 1
split_gain=34580.3 643.806 991.702 424.46
threshold=0.013855457305908205 0.019406795501708988 0.011529445648193361 28825566.000000004
decision_type=2 2 2 2
left_child=-1 2 -2 -3
right_child=1 3 -4 -5
leaf_value=0.024961576802572494 0.0025524730365650873 -0.012342126028683143 -0.0093073021860559154 -0.0077183420688299691
leaf_weight=26282.186188827967 7616.1722166519612 24172.620299100876 9949.0654982570559 31847.856646701694
leaf_count=3160357 37290 39347 21822 39840
internal_value=0 -0.00841852 -0.00410137 -0.00974501
internal_weight=0 73585.7 17565.2 56020.5
internal_count=3298656 138299 59112 79187
is_linear=0
shrinkage=0.025


Tree=62
num_leaves=5
num_cat=0
split_feature=3 4 2 1
split_gain=33635.6 708.436 646.834 671.503
threshold=0.013855457305908205 5.4062500000000009 0.011529445648193361 31759506.000000004
decision_type=2 2 2 2
left_child=-1 -2 -3 -4
right_child=1 2 3 -5
leaf_value=0.024957854910152094 -0.012024556817228584 -0.0026107722925605304 -0.0074540138658349105 -0.020394340047063558
leaf_weight=25652.487442481797 22378.851068688557 17905.137861212716 30798.030774436891 2857.0296642296016
leaf_count=3162281 33291 55367 46201 3360
internal_value=0 -0.00823841 -0.00656082 -0.00861825
internal_weight=0 73939 51560.2 33655.1
internal_count=3300500 138219 104928 49561
is_linear=0
shrinkage=0.025


Tree=63
num_leaves=5
num_cat=0
split_feature=3 1 1 1
split_gain=32820.4 692.256 733.767 904.632
threshold=0.013855457305908205 18050562.000000004 28825566.000000004 26246568.000000004
decision_type=2 2 2 2
left_child=-1 -2 3 -3
right_child=1 2 -4 -5
leaf_value=0.024954065951441798 -0.0013359289732908621 -0.0058448050345199362 -0.0069515662680873424 -0.016373730293713213
leaf_weight=25026.780412830412 8724.4017275255173 8523.111311359331 41922.855521088466 14951.228204037994
leaf_count=3162234 29474 21291 64745 22793
internal_value=0 -0.00812957 -0.00901507 -0.0126246
internal_weight=0 74121.6 65397.2 23474.3
internal_count=3300537 138303 108829 44084
is_linear=0
shrinkage=0.025


Tree=64
num_leaves=5
num_cat=0
split_feature=3 3 2 4
split_gain=31501.4 636.542 711.754 710.951
threshold=0.013855457305908205 0.037493228912353523 0.021717548370361332 17.156250000000004
decision_type=2 2 2 2
left_child=-1 2 -2 -3
right_child=1 3 -4 -5
leaf_value=0.024950220083006375 -0.0052235005339096759 -0.0097945265923836244 -0.013554404607086285 -0.024932620670488723
leaf_weight=24408.927526415559 48932.158718883991 15551.881585016847 7669.1370409429073 2375.8711821436882
leaf_count=3162451 109421 17363 9350 2237
internal_value=0 -0.0077439 -0.00638532 -0.011934
internal_weight=0 74529 56601.3 17927.8
internal_count=3300822 138371 118771 19600
is_linear=0
shrinkage=0.025


Tree=65
num_leaves=5
num_cat=0
split_feature=3 1 1 0
split_gain=30714.9 667.412 2283.43 729.352
threshold=0.013855457305908205 26246568.000000004 27328589.000000004 558.15625000000011
decision_type=2 2 2 2
left_child=-1 3 -3 -2
right_child=1 2 -4 -5
leaf_value=0.024946329558121785 -0.001768683321712505 -0.028933389705924586 -0.0076568269298420144 -0.022813966173593731
leaf_weight=23803.388690032996 16205.911017579958 3363.6866431254894 53957.739490695298 1070.4744021212682
leaf_count=3162182 48385 5287 82321 2435
internal_value=0 -0.0076407 -0.00895128 -0.0032069
internal_weight=0 74597.8 57321.4 17276.4
internal_count=3300610 138428 87608 50820
is_linear=0
shrinkage=0.025


Tree=66
num_leaves=5
num_cat=0
split_feature=3 1 1 0
split_gain=29889.1 687.208 2237.43 756.611
threshold=0.013855457305908205 26246568.000000004 27328589.000000004 149.78125000000003
decision_type=2 2 2 2
left_child=-1 -2 3 -3
right_child=1 2 -4 -5
leaf_value=0.024942419908698613 -0.0030125468211315725 -0.0082952380610900652 -0.0075347825572941035 -0.036350763483720155
leaf_weight=23215.865305267274 17407.794261490926 1017.2259008828551 54242.028911214322 2368.6276317350566
leaf_count=3161441 50716 1603 82227 3656
internal_value=0 -0.00748735 -0.00881361 -0.0285291
internal_weight=0 75035.7 57627.9 3385.85
internal_count=3299643 138202 87486 5259
is_linear=0
shrinkage=0.025


Tree=67
num_leaves=5
num_cat=0
split_feature=3 2 3 1
split_gain=29073.4 599.836 635.763 644.637
threshold=0.013855457305908205 0.021717548370361332 0.037493228912353523 31546869.000000004
decision_type=2 2 2 2
left_child=-1 2 -2 -4
right_child=1 -3 3 -5
leaf_value=0.024938417226240635 -0.0049437117220936149 -0.011794536173172294 -0.0084599371220065289 -0.024863476329275498
leaf_weight=22630.678119423799 49464.21328086406 15695.322782173753 7911.6618332415819 2006.7220553457737
leaf_count=3159606 109421 18465 8743 1634
internal_value=0 -0.00735725 -0.00615447 -0.0120122
internal_weight=0 75077.9 59382.6 9918.38
internal_count=3297869 138263 119798 10377
is_linear=0
shrinkage=0.025


Tree=68
num_leaves=5
num_cat=0
split_feature=3 4 3 1
split_gain=27730.4 632.69 550.46 526.769
threshold=0.013855457305908205 5.4062500000000009 0.019406795501708988 18872928.000000004
decision_type=2 2 2 2
left_child=-1 3 -3 -2
right_child=1 2 -4 -5
leaf_value=0.024934511214704306 -0.02961551593869266 -0.00019594268848913024 -0.006629579827063946 -0.0095278488743267501
leaf_weight=22087.435355558642 881.36613776348531 10894.024932070635 41586.440296858549 21975.974444715306
leaf_count=3161614 2146 42981 61959 31232
internal_value=0 -0.0068893 -0.00531932 -0.0104199
internal_weight=0 75337.8 52480.5 22857.3
internal_count=3299932 138318 104940 33378
is_linear=0
shrinkage=0.025


Tree=69
num_leaves=5
num_cat=0
split_feature=3 1 1 4
split_gain=27194.2 683.589 1989.64 637.775
threshold=0.013855457305908205 26246568.000000004 27328589.000000004 16.406250000000004
decision_type=2 2 2 2
left_child=-1 -2 -3 -4
right_child=1 2 3 -5
leaf_value=0.024930549723042247 -0.0024424483383635788 -0.026649515819170279 -0.0061257555584001986 -0.016201938484615732
leaf_weight=21553.845994701143 17567.211714320816 3435.9007121510804 50101.666201623157 4440.5930852219462
leaf_count=3161758 50593 5212 74652 7742
internal_value=0 -0.0068741 -0.00819207 -0.0069831
internal_weight=0 75545.4 57978.2 54542.3
internal_count=3299957 138199 87606 82394
is_linear=0
shrinkage=0.025


Tree=70
num_leaves=5
num_cat=0
split_feature=3 4 3 4
split_gain=26055.6 547.627 429.041 979.752
threshold=0.013855457305908205 20.156250000000004 0.037493228912353523 17.156250000000004
decision_type=2 2 2 2
left_child=-1 2 -2 -4
right_child=1 -3 3 -5
leaf_value=0.024926491711549988 -0.0058375472283043045 0.0021870033607112819 -0.0082953753763203332 -0.027781673431727678
leaf_weight=21022.671725154039 54294.372014735825 4060.507166669704 15737.010302245617 1849.7721616178751
leaf_count=3162243 105999 13306 17403 1618
internal_value=0 -0.00649066 -0.00699941 -0.0104888
internal_weight=0 75941.7 71881.2 17586.8
internal_count=3300569 138326 125020 19021
is_linear=0
shrinkage=0.025


Tree=71
num_leaves=5
num_cat=0
split_feature=3 4 1 4
split_gain=24843.6 564.624 441.496 761.138
threshold=0.013855457305908205 20.156250000000004 18050562.000000004 16.406250000000004
decision_type=2 2 2 2
left_child=-1 2 -2 -4
right_child=1 -3 3 -5
leaf_value=0.024922418168398443 -0.0003796510039472226 0.0028222710600726598 -0.0064352217185016068 -0.017448519881871002
leaf_weight=20509.602245140821 6959.5500616366044 4025.7161471163854 60785.176943803206 4336.4791359454393
leaf_count=3161071 22449 13311 94791 7646
internal_value=0 -0.00604586 -0.00656008 -0.00720061
internal_weight=0 76106.9 72081.2 65121.7
internal_count=3299268 138197 124886 102437
is_linear=0
shrinkage=0.025


Tree=72
num_leaves=5
num_cat=0
split_feature=3 3 0 4
split_gain=25079.6 675.511 589.397 483.311
threshold=0.013855457305908205 0.037493228912353523 1279.3125000000002 17.156250000000004
decision_type=2 2 2 2
left_child=-1 2 -2 -3
right_child=1 3 -4 -5
leaf_value=0.024918282988594595 -0.0036082451809365474 -0.0089915749226154619 -0.0094850313911920715 -0.0215867728718597
leaf_weight=20006.65457115497 43370.94746584259 15739.883282065392 14816.517597800121 2384.5942998826504
leaf_count=3161830 96606 17365 22481 2190
internal_value=0 -0.00649491 -0.005133 -0.0107723
internal_weight=0 76311.9 58187.5 18124.5
internal_count=3300472 138642 119087 19555
is_linear=0
shrinkage=0.025


Tree=73
num_leaves=5
num_cat=0
split_feature=3 1 1 3
split_gain=24113.3 540.577 686.47 751.601
threshold=0.013855457305908205 18050562.000000004 28825566.000000004 0.037493228912353523
decision_type=2 2 2 2
left_child=-1 -2 3 -3
right_child=1 2 -4 -5
leaf_value=0.024914096696208966 -0.00028798857402934091 -0.0079533242026979135 -0.0049953868458011879 -0.019066133371801852
leaf_weight=19515.739977343823 9011.3519579097629 19229.047598952428 43108.259962560609 5086.7814188450575
leaf_count=3162850 29579 38758 64735 5348
internal_value=0 -0.0061871 -0.0069562 -0.0103637
internal_weight=0 76435.4 67424.1 24315.8
internal_count=3301270 138420 108841 44106
is_linear=0
shrinkage=0.025


Tree=74
num_leaves=5
num_cat=0
split_feature=3 4 2 1
split_gain=22977.9 561.769 542.124 889.166
threshold=0.013855457305908205 5.4062500000000009 0.021717548370361332 30755806.000000004
decision_type=2 2 2 2
left_child=-1 -2 -3 -4
right_child=1 2 3 -5
leaf_value=0.024909896539709986 -0.0090249201128250797 -0.0028606204582676048 -0.011901397582349206 0.0065411312485048881
leaf_weight=19042.543194511207 23335.220438359305 41244.290816464461 10184.605350837111 1817.8023115247488
leaf_count=3162208 33363 90548 12488 1757
internal_value=0 -0.00574194 -0.00427261 -0.00898896
internal_weight=0 76581.9 53246.7 12002.4
internal_count=3300364 138156 104793 14245
is_linear=0
shrinkage=0.025


Tree=75
num_leaves=5
num_cat=0
split_feature=3 3 2 4
split_gain=22467.9 515.573 782.811 526.633
threshold=0.013855457305908205 0.027338027954101566 0.013490200042724611 5.4062500000000009
decision_type=2 2 2 2
left_child=-1 2 -2 -3
right_child=1 3 -4 -5
leaf_value=0.024905600759147179 -0.00040132338752741926 -0.014082924200806521 -0.0071335975238391337 -0.006276332794739773
leaf_weight=18574.658016671892 21635.050904167816 7418.5383135676384 22368.460312215611 25611.281090863049
leaf_count=3162665 68869 7333 30590 31788
internal_value=0 -0.00569014 -0.00385615 -0.00808613
internal_weight=0 77033.3 44003.5 33029.8
internal_count=3301245 138580 99459 39121
is_linear=0
shrinkage=0.025


Tree=76
num_leaves=5
num_cat=0
split_feature=3 3 4 1
split_gain=21739.7 471.866 692.541 937.223
threshold=0.013855457305908205 0.037493228912353523 17.156250000000004 31653650.000000004
decision_type=2 2 2 2
left_child=-1 -2 -3 -4
right_child=1 2 3 -5
leaf_value=0.024901207837033677 -0.0043663462257314701 -0.0070232659180639451 -0.0062134950902791985 -0.03896610893904659
leaf_weight=18113.215165260248 58786.922330357134 15793.196562662721 1333.6447032094002 1062.7208904325962
leaf_count=3161113 118757 17302 1478 709
internal_value=0 -0.00550303 -0.00908611 -0.0217489
internal_weight=0 76976.5 18189.6 2396.37
internal_count=3299359 138246 19489 2187
is_linear=0
shrinkage=0.025


Tree=77
num_leaves=5
num_cat=0
split_feature=3 2 1 4
split_gain=21002.2 526.264 506.565 1394.89
threshold=0.013855457305908205 0.0079941749572753924 31759506.000000004 16.406250000000004
decision_type=2 2 2 2
left_child=-1 -2 -3 -4
right_child=1 2 3 -5
leaf_value=0.024896758950664566 -0.0010826862184355891 -0.0056763239624887784 -0.0053777249872989201 -0.038542042170847168
leaf_weight=17664.030172258848 15618.073909720406 57510.020608533174 2988.7025348208845 1103.33151768893
leaf_count=3161266 45876 87499 4193 840
internal_value=0 -0.00528323 -0.00632619 -0.0149789
internal_weight=0 77220.1 61602.1 4092.03
internal_count=3299674 138408 92532 5033
is_linear=0
shrinkage=0.025


Tree=78
num_leaves=5
num_cat=0
split_feature=3 4 3 0
split_gain=20626 491.927 438.582 458.222
threshold=0.013855457305908205 5.4062500000000009 0.027338027954101566 28.343750000000004
decision_type=2 2 2 2
left_child=-1 2 3 -2
right_child=1 -3 -4 -5
leaf_value=0.024892337709134182 -0.039514081600640051 -0.0039482082847692185 -0.013559082767272716 -0.005247838687746682
leaf_weight=17237.02518471051 212.06886402517557 53694.420894992538 7381.4102735370398 15857.788601975888
leaf_count=3161971 561 104775 7336 25409
internal_value=0 -0.00531823 -0.00838678 -0.00589874
internal_weight=0 77145.7 23451.3 16069.9
internal_count=3300052 138081 33306 25970
is_linear=0
shrinkage=0.025


Tree=79
num_leaves=5
num_cat=0
split_feature=3 0 3 1
split_gain=20023.5 515.275 596.077 501.658
threshold=0.013855457305908205 1174.1562500000002 0.027338027954101566 28825566.000000004
decision_type=2 2 2 2
left_child=-1 2 -2 -4
right_child=1 -3 3 -5
leaf_value=0.024887869190145934 -0.0014596332528670286 -0.0087516767317233589 -0.010246824792811755 -0.0033324193890823164
leaf_weight=16821.965547092259 30300.201816952787 19338.798850029707 12899.613020211458 14934.776790633798
leaf_count=3162646 77444 28354 16912 15611
internal_value=0 -0.00516441 -0.00394311 -0.0065943
internal_weight=0 77473.4 58134.6 27834.4
internal_count=3300967 138321 109967 32523
is_linear=0
shrinkage=0.025


Tree=80
num_leaves=5
num_cat=0
split_feature=3 2 0 1
split_gain=19269.2 469.224 549.308 1263.3
threshold=0.013855457305908205 0.021717548370361332 906.03125000000011 28825566.000000004
decision_type=2 2 2 2
left_child=-1 -2 3 -3
right_child=1 2 -4 -5
leaf_value=0.024883179797188876 -0.0038694112257382052 -0.014955682908637156 -0.013151786846014727 0.0054211269015095043
leaf_weight=16400.035118336673 61432.738366986625 3359.5962381511927 8539.2147601097822 4146.8600974828005
leaf_count=3161685 119887 4317 9883 4318
internal_value=0 -0.00490603 -0.00877283 -0.00357193
internal_weight=0 77478.4 16045.7 7506.46
internal_count=3300090 138405 18518 8635
is_linear=0
shrinkage=0.025


Tree=81
num_leaves=5
num_cat=0
split_feature=3 4 3 4
split_gain=18550.5 448.897 358.029 680.497
threshold=0.013855457305908205 22.343750000000004 0.037493228912353523 17.156250000000004
decision_type=2 2 2 2
left_child=-1 2 -2 -4
right_child=1 -3 3 -5
leaf_value=0.024878546840137048 -0.0039725873835178655 0.0053347955733347233 -0.0062007483002863399 -0.021472927335198025
leaf_weight=16002.125380792888 57129.720656668767 2569.041071774438 16032.935065120459 2135.4390057176352
leaf_count=3161880 110462 8604 17396 1915
internal_value=0 -0.0046342 -0.00499423 -0.0081184
internal_weight=0 77867.1 75298.1 18168.4
internal_count=3300257 138377 129773 19311
is_linear=0
shrinkage=0.025


Tree=82
num_leaves=5
num_cat=0
split_feature=3 4 1 1
split_gain=18243.8 480.081 425.786 692.638
threshold=0.013855457305908205 5.4062500000000009 18320751.000000004 28825566.000000004
decision_type=2 2 2 2
left_child=-1 -2 -3 -4
right_child=1 2 3 -5
leaf_value=0.024873765272639247 -0.007708984955033641 0.0015662676195400368 -0.0084195955746926739 -0.0019294398187453374
leaf_weight=15606.394826043397 23680.775704167783 8801.6318736337125 16604.039234073833 28778.369852134958
leaf_count=3162065 33298 28389 31832 44715
internal_value=0 -0.00469961 -0.00335544 -0.00433816
internal_weight=0 77864.8 54184 45382.4
internal_count=3300299 138234 104936 76547
is_linear=0
shrinkage=0.025


Tree=83
num_leaves=5
num_cat=0
split_feature=3 4 3 1
split_gain=17762.7 464.916 410.544 539.817
threshold=0.013855457305908205 22.343750000000004 0.017136096954345707 28825566.000000004
decision_type=2 2 2 2
left_child=-1 2 -2 -4
right_child=1 -3 3 -5
leaf_value=0.02486893384484672 0 0.0055298157484882171 -0.0083237629040185095 -0.0036547922408470819
leaf_weight=15223.181181802647 9087.9390869950876 2571.7357385084033 28190.229891166091 37941.940647356212
leaf_count=3162041 36182 8589 46755 46732
internal_value=0 -0.00461755 -0.00498453 -0.00566871
internal_weight=0 77791.8 75220.1 66132.2
internal_count=3300299 138258 129669 93487
is_linear=0
shrinkage=0.025


Tree=84
num_leaves=5
num_cat=0
split_feature=3 4 2 1
split_gain=17310.1 452.243 371.958 519.355
threshold=0.013855457305908205 22.343750000000004 0.021717548370361332 30866738.000000004
decision_type=2 2 2 2
left_child=-1 2 -2 -4
right_child=1 -3 3 -5
leaf_value=0.024863993755150911 -0.0039419607253011373 0.0055081893332409523 -0.010263687715649561 0.0018458434958182326
leaf_weight=14846.85359743773 59690.709219424985 2552.5748678408563 13575.867756515741 2425.1739247590303
leaf_count=3161878 111735 8671 16083 2169
internal_value=0 -0.00453664 -0.0048953 -0.00835042
internal_weight=0 78244.3 75691.8 16001
internal_count=3300536 138658 129987 18252
is_linear=0
shrinkage=0.025


Tree=85
num_leaves=5
num_cat=0
split_feature=3 2 1 4
split_gain=16853.4 461.893 525.996 1403.56
threshold=0.013855457305908205 0.0071363449096679696 31759506.000000004 16.406250000000004
decision_type=2 2 2 2
left_child=-1 -2 -3 -4
right_child=1 2 3 -5
leaf_value=0.024859077611994421 -0.00017100535083487602 -0.0046826270751137147 -0.0045250214481199723 -0.036764375329689326
leaf_weight=14488.795817732811 13663.617161278613 60430.296039811336 3164.4563910719007 1172.5582004506141
leaf_count=3161854 40638 92369 4450 936
internal_value=0 -0.00444431 -0.00532572 -0.0138459
internal_weight=0 78430.9 64767.3 4337.01
internal_count=3300247 138393 97755 5386
is_linear=0
shrinkage=0.025


Tree=86
num_leaves=5
num_cat=0
split_feature=3 3 4 1
split_gain=16330.1 538.1 599.703 862.427
threshold=0.013855457305908205 0.037493228912353523 17.156250000000004 28825566.000000004
decision_type=2 2 2 2
left_child=-1 -2 3 -3
right_child=1 2 -4 -5
leaf_value=0.024853998577983451 -0.0031097419919901398 -0.013195698108991497 -0.019653101639478223 -0.0011833548257204844
leaf_weight=14132.828480888624 60128.444613145664 6421.5764409452677 2475.2735543251038 9477.6498478204012
leaf_count=3161025 118932 7501 2210 9711
internal_value=0 -0.00429252 -0.00807626 -0.00613958
internal_weight=0 78502.9 18374.5 15899.2
internal_count=3299379 138354 19422 17212
is_linear=0
shrinkage=0.025


Tree=87
num_leaves=5
num_cat=0
split_feature=3 0 1 1
split_gain=15843.3 469.991 549.017 1880.88
threshold=0.013855457305908205 1527.5312500000002 28825566.000000004 26528120.000000004
decision_type=2 2 2 2
left_child=-1 2 3 -2
right_child=1 -3 -4 -5
leaf_value=0.024849015586033835 -0.00067512744338921117 -0.0089725553450874882 -0.00115147707212454 -0.013132750677022806
leaf_weight=13799.850454364554 19082.332641677 11105.60087069124 35659.537989517674 12772.031816277653
leaf_count=3162841 51701 16572 51663 18431
internal_value=0 -0.00414733 -0.00332906 -0.00572195
internal_weight=0 78619.5 67513.9 31854.4
internal_count=3301208 138367 121795 70132
is_linear=0
shrinkage=0.025


Tree=88
num_leaves=5
num_cat=0
split_feature=3 3 2 4
split_gain=15194.3 437.361 547.311 347.066
threshold=0.013855457305908205 0.022485733032226566 0.013490200042724611 5.4062500000000009
decision_type=2 2 2 2
left_child=-1 2 -2 -3
right_child=1 3 -4 -5
leaf_value=0.024843632578647513 0.0015164162837438292 -0.0090954676985602594 -0.0051381928838280331 -0.0040491949839075222
leaf_weight=13451.63741609198 16758.051829007454 12142.094412252307 13966.210137605667 35817.325503103435
leaf_count=3162352 58656 12342 20077 47227
internal_value=0 -0.00385993 -0.00147136 -0.00536096
internal_weight=0 78683.7 30724.3 47959.4
internal_count=3300654 138302 78733 59569
is_linear=0
shrinkage=0.025


Tree=89
num_leaves=5
num_cat=0
split_feature=3 4 3 0
split_gain=14886.1 442.361 484.611 381.842
threshold=0.013855457305908205 5.4062500000000009 0.027338027954101566 28.343750000000004
decision_type=2 2 2 2
left_child=-1 2 3 -2
right_child=1 -3 -4 -5
leaf_value=0.024838194683838948 -0.034651034778108686 -0.0025985757075502919 -0.012088259680221789 -0.0036224773872733534
leaf_weight=13115.443061525351 213.78241130150855 54835.30845480226 7495.7331962436438 16252.775730596855
leaf_count=3161680 558 105117 7298 25475
internal_value=0 -0.00387818 -0.00674286 -0.00420468
internal_weight=0 78797.6 23962.3 16466.6
internal_count=3300128 138448 33331 26033
is_linear=0
shrinkage=0.025


Tree=90
num_leaves=5
num_cat=0
split_feature=3 4 1 1
split_gain=14650.2 423.593 454.256 611.887
threshold=0.013855457305908205 5.4062500000000009 18872928.000000004 22640757.000000004
decision_type=2 2 2 2
left_child=-1 2 -2 -4
right_child=1 -3 3 -5
leaf_value=0.024832922186391219 -0.023600154625774319 -0.0026881055545975212 0.013241104579388957 -0.006802130560972142
leaf_weight=12805.349442767329 963.02427393198013 54934.421737799421 908.88367531076074 22226.118705941364
leaf_count=3162001 2175 105152 1431 29814
internal_value=0 -0.00394259 -0.0067391 -0.00593394
internal_weight=0 79032.4 24098 23135
internal_count=3300573 138572 33420 31245
is_linear=0
shrinkage=0.025


Tree=91
num_leaves=5
num_cat=0
split_feature=3 1 1 0
split_gain=13933.7 372.37 1773.06 751.922
threshold=0.013855457305908205 26246568.000000004 27328589.000000004 558.15625000000011
decision_type=2 2 2 2
left_child=-1 3 -3 -2
right_child=1 2 -4 -5
leaf_value=0.024827252184117216 0.00089187162618464724 -0.021410987822500362 -0.0033766866645278957 -0.019532712319512049
leaf_weight=12483.432076297933 17351.908657729626 3616.144235836342 56995.322550250217 1151.8346380945295
leaf_count=3162627 48361 5257 82325 2397
internal_value=0 -0.00354101 -0.00449 -0.000361373
internal_weight=0 79115.2 60611.5 18503.7
internal_count=3300967 138340 87582 50758
is_linear=0
shrinkage=0.025


Tree=92
num_leaves=5
num_cat=0
split_feature=3 4 1 1
split_gain=13723.6 359.04 430.643 590.54
threshold=0.013855457305908205 5.4062500000000009 18872928.000000004 22640757.000000004
decision_type=2 2 2 2
left_child=-1 2 -2 -4
right_child=1 -3 3 -5
leaf_value=0.024821763292969173 -0.022860326616903005 -0.0024657284667773229 0.013470185828507578 -0.0062755285675205443
leaf_weight=12187.020277591655 932.18692559935153 55048.328285125084 904.5574016366154 22333.960015160963
leaf_count=3163094 2116 104998 1439 29853
internal_value=0 -0.00362277 -0.00619578 -0.00542598
internal_weight=0 79219 24170.7 23238.5
internal_count=3301500 138406 33408 31292
is_linear=0
shrinkage=0.025


Tree=93
num_leaves=5
num_cat=0
split_feature=3 0 1 1
split_gain=13358.2 384.054 427.38 1530.18
threshold=0.013855457305908205 1527.5312500000002 28825566.000000004 26528120.000000004
decision_type=2 2 2 2
left_child=-1 2 3 -2
right_child=1 -3 -4 -5
leaf_value=0.024815935714622955 -0.00039652958223707817 -0.0078927249175020208 -0.00088988778663750059 -0.011585799918382444
leaf_weight=11884.042825980461 19346.986823490821 11227.96552959457 35807.545472223312 12845.31357759051
leaf_count=3162025 52001 16580 51565 18310
internal_value=0 -0.00355417 -0.00281416 -0.00491106
internal_weight=0 79227.8 67999.8 32192.3
internal_count=3300481 138456 121876 70311
is_linear=0
shrinkage=0.025


Tree=94
num_leaves=5
num_cat=0
split_feature=3 3 2 0
split_gain=12837.4 417.711 585.981 434.84
threshold=0.013855457305908205 0.027338027954101566 0.013490200042724611 299.09375000000006
decision_type=2 2 2 2
left_child=-1 2 -2 -3
right_child=1 3 -4 -5
leaf_value=0.024809905514096054 0.0011230698931368923 -0.008956545193777277 -0.0045055906471774959 -0.0030190626701502741
leaf_weight=11583.963261940167 22526.84914814122 13452.303374953568 23097.416176907718 20406.108361035585
leaf_count=3160138 68591 16997 30527 22237
internal_value=0 -0.0033053 -0.0017009 -0.00542468
internal_weight=0 79482.7 45624.3 33858.4
internal_count=3298490 138352 99118 39234
is_linear=0
shrinkage=0.025


Tree=95
num_leaves=5
num_cat=0
split_feature=3 2 0 1
split_gain=12480.7 375.581 483.318 1294.46
threshold=0.013855457305908205 0.021717548370361332 906.03125000000011 28825566.000000004
decision_type=2 2 2 2
left_child=-1 -2 3 -3
right_child=1 2 -4 -5
leaf_value=0.024804148829208592 -0.002306114132781048 -0.013411679817060432 -0.010680506366108809 0.0073211528041145467
leaf_weight=11311.779320441885 63146.71123301331 3327.8807102292776 8669.9282530546188 4148.1005234569311
leaf_count=3161595 120014 4267 9800 4273
internal_value=0 -0.00321 -0.00664991 -0.00176962
internal_weight=0 79292.6 16145.9 7475.98
internal_count=3299949 138354 18340 8540
is_linear=0
shrinkage=0.025


Tree=96
num_leaves=5
num_cat=0
split_feature=3 4 1 4
split_gain=12301.2 367.215 362.884 1260.73
threshold=0.013855457305908205 5.4062500000000009 31759506.000000004 16.781250000000004
decision_type=2 2 2 2
left_child=-1 -2 -3 -4
right_child=1 2 3 -5
leaf_value=0.024798123785782951 -0.0059036781674715252 -0.0014518922173079965 -0.0002220491739826874 -0.027394907485884974
leaf_weight=11038.120818640105 24248.654254576191 49839.400369315408 3738.6099052261561 1499.6176861934364
leaf_count=3162956 33354 96420 6519 1910
internal_value=0 -0.00331243 -0.0021446 -0.00842303
internal_weight=0 79326.3 55077.6 5238.23
internal_count=3301159 138203 104849 8429
is_linear=0
shrinkage=0.025


Tree=97
num_leaves=5
num_cat=0
split_feature=3 1 1 0
split_gain=11862.3 442.364 1580.46 638.387
threshold=0.013855457305908205 26246568.000000004 27328589.000000004 97.531250000000014
decision_type=2 2 2 2
left_child=-1 -2 3 -3
right_child=1 2 -4 -5
leaf_value=0.024791655822805639 0.00018148134596953028 0 -0.0031025994880546949 -0.025320395326146074
leaf_weight=10756.057475521928 18602.205666319467 771.96837380714715 57028.990295397118 2896.7758623231202
leaf_count=3160164 50920 1070 81979 4183
internal_value=0 -0.00312731 -0.00416126 -0.0200185
internal_weight=0 79299.9 60697.7 3668.74
internal_count=3298316 138152 87232 5253
is_linear=0
shrinkage=0.025


Tree=98
num_leaves=5
num_cat=0
split_feature=3 0 3 4
split_gain=11603.6 373.117 417.231 584.603
threshold=0.013855457305908205 1527.5312500000002 0.037493228912353523 17.156250000000004
decision_type=2 2 2 2
left_child=-1 2 -2 -4
right_child=1 -3 3 -5
leaf_value=0.024785513793767922 -0.0012103940086708367 -0.0073907237915942356 -0.0037647759820821935 -0.017157478209046305
leaf_weight=10501.684562634677 50807.496749542654 11197.350099014118 15068.980258584023 2423.0829159170389
leaf_count=3161675 103500 16488 16174 2118
internal_value=0 -0.00311496 -0.00239078 -0.00573487
internal_weight=0 79496.9 68299.6 17492.1
internal_count=3299955 138280 121792 18292
is_linear=0
shrinkage=0.025


Tree=99
num_leaves=5
num_cat=0
split_feature=3 4 3 1
split_gain=11302.2 339.163 305.921 340.985
threshold=0.013855457305908205 22.343750000000004 0.015351295471191408 28825566.000000004
decision_type=2 2 2 2
left_child=-1 2 -2 -4
right_child=1 -3 3 -5
leaf_value=0.0247788845421998 0.0060198917847227524 0.0055986240846392686 -0.0055934164207961171 -0.0021224500407919147
leaf_weight=10237.781009914645 1970.2276194486767 2584.1465660147369 32385.03235874325 42988.205565318465
leaf_count=3160804 17840 8514 57528 54615
internal_value=0 -0.00305848 -0.00336731 -0.00363309
internal_weight=0 79927.6 77343.5 75373.2
internal_count=3299301 138497 129983 112143
is_linear=0
shrinkage=0.025


Tree=100
num_leaves=5
num_cat=0
split_feature=3 3 2 0
split_gain=10813.8 352.958 545.379 422.702
threshold=0.013855457305908205 0.037493228912353523 0.021717548370361332 124.90625000000001
decision_type=2 2 2 2
left_child=-1 2 -2 -3
right_child=1 3 -4 -5
leaf_value=0.024772352287403144 -0.00086555875017097221 -0.012887007263748532 -0.0079167505099005005 -0.0036240691089650607
leaf_weight=9990.1598732346902 53281.416599065065 4170.3715491592884 7940.4143092036247 14396.55271242559
leaf_count=3160888 109424 4266 9320 15298
internal_value=0 -0.00275446 -0.00180621 -0.00580081
internal_weight=0 79788.8 61221.8 18566.9
internal_count=3299196 138308 118744 19564
is_linear=0
shrinkage=0.025


Tree=101
num_leaves=5
num_cat=0
split_feature=3 4 1 4
split_gain=10654.9 438.244 323.527 614.254
threshold=0.013855457305908205 20.156250000000004 17792145.000000004 16.406250000000004
decision_type=2 2 2 2
left_child=-1 2 -2 -4
right_child=1 -3 3 -5
leaf_value=0.024765708990294344 0.0015823029086276593 0.0048594737099984121 -0.0031703336150479427 -0.012689109511326031
leaf_weight=9749.391348161269 7270.0603993590921 4185.100862535648 63706.042136969045 4619.5119657255709
leaf_count=3161758 22083 13368 95097 7873
internal_value=0 -0.00285563 -0.0033022 -0.00384099
internal_weight=0 79780.7 75595.6 68325.6
internal_count=3300179 138421 125053 102970
is_linear=0
shrinkage=0.025


Tree=102
num_leaves=5
num_cat=0
split_feature=3 1 1 0
split_gain=10472.3 364.932 1571.2 668.428
threshold=0.013855457305908205 26246568.000000004 27328589.000000004 558.15625000000011
decision_type=2 2 2 2
left_child=-1 3 -3 -2
right_child=1 2 -4 -5
leaf_value=0.024758730775363544 0.0013848627210396114 -0.019641657026223482 -0.0028152116962447626 -0.017670612120819856
leaf_weight=9507.1391770356568 17464.078829113394 3681.8458930905908 57607.958152480423 1180.624504365027
leaf_count=3161966 48426 5278 82284 2422
internal_value=0 -0.00293007 -0.00386159 6.73296e-05
internal_weight=0 79934.5 61289.8 18644.7
internal_count=3300376 138410 87562 50848
is_linear=0
shrinkage=0.025


Tree=103
num_leaves=5
num_cat=0
split_feature=3 3 4 1
split_gain=10083.8 346.219 349.298 456.696
threshold=0.013855457305908205 0.015351295471191408 5.4062500000000009 18872928.000000004
decision_type=2 2 2 2
left_child=-1 -2 3 -3
right_child=1 2 -4 -5
leaf_value=0.024751846813731149 0.0071849444905572246 -0.02271941566041831 -0.0018372315660258301 -0.0047354353212643021
leaf_weight=9279.4105618229951 2034.7063176548108 918.69106662273407 54315.530703324825 23020.731414437294
leaf_count=3162027 19032 1730 90987 26628
internal_value=0 -0.00270616 -0.00298372 -0.0055236
internal_weight=0 80289.7 78255 23939.4
internal_count=3300404 138377 119345 28358
is_linear=0
shrinkage=0.025


Tree=104
num_leaves=5
num_cat=0
split_feature=3 2 0 1
split_gain=9759.74 412.046 477.656 1066.51
threshold=0.013855457305908205 0.021717548370361332 906.03125000000011 28825566.000000004
decision_type=2 2 2 2
left_child=-1 -2 3 -3
right_child=1 2 -4 -5
leaf_value=0.024744557220118493 -0.0016447902011706202 -0.011651190543321718 -0.010122077017068453 0.0071669749568941
leaf_weight=9048.4278270110372 63822.524009228684 3405.2420380264521 8764.0551037043333 4039.5939193069935
leaf_count=3161554 119938 4344 9891 4200
internal_value=0 -0.00257827 -0.00616058 -0.00129391
internal_weight=0 80031.4 16208.9 7444.84
internal_count=3299927 138373 18435 8544
is_linear=0
shrinkage=0.025


Tree=105
num_leaves=5
num_cat=0
split_feature=3 3 0 1
split_gain=9665.19 364.221 299.196 428.664
threshold=0.013855457305908205 0.015351295471191408 1174.1562500000002 28825566.000000004
decision_type=2 2 2 2
left_child=-1 -2 3 -3
right_child=1 2 -4 -5
leaf_value=0.024737295852307436 0.007399377934749621 -0.0042437165278341529 -0.0057488884626321303 0
leaf_weight=8829.1825773207238 2035.1480367779732 29276.157334454358 19542.268203672022 29384.244480520487
leaf_count=3162269 19142 56567 24413 38311
internal_value=0 -0.00275021 -0.00303488 -0.00210531
internal_weight=0 80237.8 78202.7 58660.4
internal_count=3300702 138433 119291 94878
is_linear=0
shrinkage=0.025


Tree=106
num_leaves=5
num_cat=0
split_feature=3 3 2 1
split_gain=9220.08 339.143 601.962 257.551
threshold=0.013855457305908205 0.019406795501708988 0.011529445648193361 28825566.000000004
decision_type=2 2 2 2
left_child=-1 2 -2 -3
right_child=1 3 -4 -5
leaf_value=0.024729877525263792 0.0053652254670030191 -0.0052308795284049412 -0.0033806125774577117 -0.0018512962753669663
leaf_weight=8615.117406701087 8637.6280664568767 26286.983160950243 11219.736233720556 34113.01137176156
leaf_count=3161964 37231 39464 21803 39903
internal_value=0 -0.00241259 0.000364813 -0.00334593
internal_weight=0 80257.4 19857.4 60400
internal_count=3300365 138401 59034 79367
is_linear=0
shrinkage=0.025


Tree=107
num_leaves=5
num_cat=0
split_feature=3 3 4 1
split_gain=9003.29 403.717 535.219 824.434
threshold=0.013855457305908205 0.037493228912353523 17.156250000000004 30518494.000000004
decision_type=2 2 2 2
left_child=-1 -2 -3 -4
right_child=1 2 3 -5
leaf_value=0.024722218226027853 -0.0013977657007468317 -0.0038500009651487414 -0.0020259956771321338 -0.031770121022580297
leaf_weight=8403.9498453773558 61697.177162551321 16087.984022080898 1349.1025855392218 1138.0552023351192
leaf_count=3161642 118975 17331 1443 782
internal_value=0 -0.00239994 -0.00564884 -0.0164867
internal_weight=0 80272.3 18575.1 2487.16
internal_count=3300173 138531 19556 2225
is_linear=0
shrinkage=0.025


Tree=108
num_leaves=5
num_cat=0
split_feature=3 4 4 1
split_gain=8810.46 324.477 252.46 1407.96
threshold=0.013855457305908205 20.156250000000004 17.593750000000004 30518494.000000004
decision_type=2 2 2 2
left_child=-1 2 -2 -4
right_child=1 -3 3 -5
leaf_value=0.024714595476569873 -0.0024026859419522114 0.0042076543168391911 5.9322224931285815e-05 -0.029879495433591169
leaf_weight=8203.4670142232208 71552.386098111048 4194.8682380057871 3207.8821205748245 1314.53370686993
leaf_count=3162484 115112 13400 8541 1428
internal_value=0 -0.00240919 -0.002793 -0.00860121
internal_weight=0 80269.7 76074.8 4522.42
internal_count=3300965 138481 125081 9969
is_linear=0
shrinkage=0.025


Tree=109
num_leaves=5
num_cat=0
split_feature=3 3 2 1
split_gain=8543.88 309.921 504.677 324.223
threshold=0.013855457305908205 0.019406795501708988 0.011529445648193361 31759506.000000004
decision_type=2 2 2 2
left_child=-1 2 -2 -3
right_child=1 3 -4 -5
leaf_value=0.024706489623646737 0.004946801000139305 -0.0026404695079335918 -0.0030519618700753899 -0.0097355005038957734
leaf_weight=7999.4596704331925 8611.2104572067037 56248.992785863578 11315.601028181612 4480.9443824142218
leaf_count=3162118 37145 74143 21855 5161
internal_value=0 -0.00230289 0.000345796 -0.00319212
internal_weight=0 80656.7 19926.8 60729.9
internal_count=3300422 138304 59000 79304
is_linear=0
shrinkage=0.025


Tree=110
num_leaves=5
num_cat=0
split_feature=3 1 1 0
split_gain=8249.5 385.553 1407.01 609.679
threshold=0.013855457305908205 26246568.000000004 27328589.000000004 149.78125000000003
decision_type=2 2 2 2
left_child=-1 -2 3 -3
right_child=1 2 -4 -5
leaf_value=0.024698278424741524 0.00094355915107433702 -0.0016714601814810963 -0.0021029508164612195 -0.024505522951410633
leaf_weight=7802.4537843017024 18768.814082508907 1187.8620858322829 58076.947731127962 2605.1556245423853
leaf_count=3160719 50764 1641 82390 3688
internal_value=0 -0.00214239 -0.00309873 -0.0177946
internal_weight=0 80638.8 61870 3793.02
internal_count=3299202 138483 87719 5329
is_linear=0
shrinkage=0.025


Tree=111
num_leaves=5
num_cat=0
split_feature=3 3 2 4
split_gain=8132.32 327.069 420.649 419.578
threshold=0.013855457305908205 0.037493228912353523 0.021717548370361332 16.781250000000004
decision_type=2 2 2 2
left_child=-1 2 -2 -3
right_child=1 3 -4 -5
leaf_value=0.024690206464614176 -0.00052346428693182418 -0.0035215330220788096 -0.0066720678315515848 -0.014468638825994126
leaf_weight=7617.9071354910266 53824.210541577078 15983.65022842586 8054.9157112836838 2643.9105401784182
leaf_count=3162148 109396 17124 9364 2453
internal_value=0 -0.00225267 -0.00134876 -0.00517681
internal_weight=0 80506.7 61879.1 18627.6
internal_count=3300485 138337 118760 19577
is_linear=0
shrinkage=0.025


Tree=112
num_leaves=5
num_cat=0
split_feature=3 0 1 1
split_gain=7905.51 322.303 381.127 1296.83
threshold=0.013855457305908205 1527.5312500000002 28825566.000000004 26528120.000000004
decision_type=2 2 2 2
left_child=-1 2 3 -2
right_child=1 -3 -4 -5
leaf_value=0.02468159559945594 0.00055552374891739754 -0.0061217629926910364 0.00021510139675211517 -0.0095253436375810647
leaf_weight=7429.4962394516915 19532.46681951452 11350.34813708812 36197.801780644804 13180.329634696245
leaf_count=3161982 51849 16453 51532 18332
internal_value=0 -0.00219009 -0.0015204 -0.00347635
internal_weight=0 80260.9 68910.6 32712.8
internal_count=3300148 138166 121713 70181
is_linear=0
shrinkage=0.025


Tree=113
num_leaves=5
num_cat=0
split_feature=3 3 4 1
split_gain=7802.76 328.122 405.891 768.698
threshold=0.013855457305908205 0.037493228912353523 17.156250000000004 31653650.000000004
decision_type=2 2 2 2
left_child=-1 -2 -3 -4
right_child=1 2 3 -5
leaf_value=0.024673062170758101 -0.0014072271495800318 -0.0036725226515697804 -0.0013338990643178093 -0.030257320703962011
leaf_weight=7251.5709271267988 62263.941044140607 16256.270077914 1387.967428445816 1070.1439869254827
leaf_count=3162363 119050 17417 1488 699
internal_value=0 -0.00230951 -0.0052331 -0.0147763
internal_weight=0 80978.3 18714.4 2458.11
internal_count=3301017 138654 19604 2187
is_linear=0
shrinkage=0.025


Tree=114
num_leaves=5
num_cat=0
split_feature=3 4 1 1
split_gain=7459.48 377.159 358.127 582.746
threshold=0.013855457305908205 5.4062500000000009 19147059.000000004 22640757.000000004
decision_type=2 2 2 2
left_child=-1 2 -2 -4
right_child=1 -3 3 -5
leaf_value=0.024663892480395338 -0.018807397724288136 -0.0008672515043278439 0.016182865902288145 -0.0046765684871929569
leaf_weight=7068.8136583301239 1061.5487442146987 55944.715091395192 796.59524154476821 22801.104610739276
leaf_count=3160870 2192 105191 1371 29811
internal_value=0 -0.00203191 -0.00461648 -0.00388682
internal_weight=0 80604 24659.2 23597.7
internal_count=3299435 138565 33374 31182
is_linear=0
shrinkage=0.025


Tree=115
num_leaves=5
num_cat=0
split_feature=3 3 4 1
split_gain=7231.21 287.567 441.279 814.667
threshold=0.013855457305908205 0.037493228912353523 17.156250000000004 31653650.000000004
decision_type=2 2 2 2
left_child=-1 -2 -3 -4
right_child=1 2 3 -5
leaf_value=0.024655038808218011 -0.0010698218617837972 -0.0030416629313797529 -0.00096863509985594179 -0.030822480595000604
leaf_weight=6900.9193099798285 62088.181767356582 16257.30888313055 1396.190446600318 1042.8424475640059
leaf_count=3162854 118683 17414 1504 709
internal_value=0 -0.00191642 -0.00465084 -0.014598
internal_weight=0 80784.5 18696.3 2439.03
internal_count=3301164 138310 19627 2213
is_linear=0
shrinkage=0.025


Tree=116
num_leaves=5
num_cat=0
split_feature=3 4 1 1
split_gain=7102.19 383.644 377.147 502.353
threshold=0.013855457305908205 5.4062500000000009 18872928.000000004 22944990.000000004
decision_type=2 2 2 2
left_child=-1 2 -2 -4
right_child=1 -3 3 -5
leaf_value=0.024645512485551361 -0.019622173554146461 -0.00081756519982239184 0.013308277105823175 -0.0046488094913777747
leaf_weight=6728.1630810092902 993.19357130676508 56023.281338447705 936.39344711042941 22976.766309851781
leaf_count=3160515 2166 104960 1522 29783
internal_value=0 -0.00199412 -0.00458359 -0.00386718
internal_weight=0 80929.6 24906.4 23913.2
internal_count=3298946 138431 33471 31305
is_linear=0
shrinkage=0.025


Tree=117
num_leaves=5
num_cat=0
split_feature=3 4 3 2
split_gain=6928.76 308.416 232.785 413.318
threshold=0.013855457305908205 22.343750000000004 0.017136096954345707 0.011529445648193361
decision_type=2 2 2 2
left_child=-1 2 3 -2
right_child=1 -3 -4 -5
leaf_value=0.024636115133508232 0.0066929307844623186 0.0063068215074209887 -0.0027859522942150425 -0.0035213937617806137
leaf_weight=6565.9345794607652 4656.5441277455539 2593.491125096567 68564.993785426021 5038.500297928229
leaf_count=3160947 23885 8637 93608 12495
internal_value=0 -0.00197339 -0.0022676 0.00126546
internal_weight=0 80853.5 78260 9695.04
internal_count=3299572 138625 129988 36380
is_linear=0
shrinkage=0.025


Tree=118
num_leaves=5
num_cat=0
split_feature=3 0 3 0
split_gain=6684.51 287.559 435.815 446.144
threshold=0.013855457305908205 1174.1562500000002 0.027338027954101566 299.09375000000006
decision_type=2 2 2 2
left_child=-1 2 -2 -4
right_child=1 -3 3 -5
leaf_value=0.02462653749418978 0.0010511232324747965 -0.0043927196512868801 -0.0064621300977136288 -0.00010187013989235196
leaf_weight=6408.0760218883515 32150.498916765675 20275.938417149708 13500.935959435999 14865.194216623902
leaf_count=3160201 77703 28290 16953 15491
internal_value=0 -0.00180322 -0.000912064 -0.00317909
internal_weight=0 80792.6 60516.6 28366.1
internal_count=3298638 138437 110147 32444
is_linear=0
shrinkage=0.025


Tree=119
num_leaves=5
num_cat=0
split_feature=3 2 0 1
split_gain=6495.88 295.897 417.039 853.61
threshold=0.013855457305908205 0.021717548370361332 906.03125000000011 28825566.000000004
decision_type=2 2 2 2
left_child=-1 -2 3 -3
right_child=1 2 -4 -5
leaf_value=0.0246165448166638 -0.00094621717557080004 -0.0095925147696021163 -0.0084374406433925814 0.0071040582869369359
leaf_weight=6250.8790512408596 64362.700223322026 3435.5288280248642 8815.620056271553 4178.1139257848263
leaf_count=3162060 119777 4306 9900 4307
internal_value=0 -0.00173672 -0.00474544 -0.000280313
internal_weight=0 80792 16429.3 7613.64
internal_count=3300350 138290 18513 8613
is_linear=0
shrinkage=0.025


Tree=120
num_leaves=5
num_cat=0
split_feature=3 4 0 1
split_gain=6417.64 297.306 399.323 368.238
threshold=0.013855457305908205 5.4062500000000009 23.968750000000004 18872928.000000004
decision_type=2 2 2 2
left_child=-1 2 -2 -4
right_child=1 -3 3 -5
leaf_value=0.024606684443442606 -0.035208050589069777 -0.00084587216070111854 -0.018729370638521665 -0.0030703379744800746
leaf_weight=6103.0554697346524 217.00350400619209 56136.170769520104 972.45015625841916 23405.55798673071
leaf_count=3162067 468 104986 2120 30754
internal_value=0 -0.00187969 -0.00418206 -0.00378321
internal_weight=0 80731.2 24595 24378
internal_count=3300395 138328 33342 32874
is_linear=0
shrinkage=0.025


Tree=121
num_leaves=5
num_cat=0
split_feature=3 4 0 2
split_gain=6229.83 348.529 408.613 362.837
threshold=0.013855457305908205 5.4062500000000009 22.656250000000004 0.021717548370361332
decision_type=2 2 2 2
left_child=-1 2 -2 -3
right_child=1 3 -4 -5
leaf_value=0.02459643455364826 -0.036519209209811936 0.0003657030046449616 -0.0038770276348007839 -0.0044704324854277265
leaf_weight=5956.202977534791 203.04137772135437 43821.322597765364 24583.888564698398 12278.33345092833
leaf_count=3162195 425 90587 32940 14218
internal_value=0 -0.00179234 -0.00426772 -0.000673541
internal_weight=0 80886.6 24786.9 56099.7
internal_count=3300365 138170 33365 104805
is_linear=0
shrinkage=0.025


Tree=122
num_leaves=5
num_cat=0
split_feature=3 1 1 0
split_gain=6020.45 304.484 430.08 728.31
threshold=0.013855457305908205 18320751.000000004 28825566.000000004 165.15625000000003
decision_type=2 2 2 2
left_child=-1 -2 -3 -4
right_child=1 2 3 -5
leaf_value=0.024585759038826396 0.0023964681032448069 -0.0048273475816823248 -0.010217079948722072 0.00028381527450901852
leaf_weight=5810.3010728179943 9858.8396207792684 25636.89103675168 4518.0379432849586 41060.9174839966
leaf_count=3162193 30186 43483 9137 55579
internal_value=0 -0.00165187 -0.00223113 -0.000739752
internal_weight=0 81074.7 71215.8 45579
internal_count=3300578 138385 108199 64716
is_linear=0
shrinkage=0.025


Tree=123
num_leaves=5
num_cat=0
split_feature=3 4 0 1
split_gain=5893.29 303.37 344.931 342.381
threshold=0.013855457305908205 5.5312500000000009 21.406250000000004 18872928.000000004
decision_type=2 2 2 2
left_child=-1 2 -2 -4
right_child=1 -3 3 -5
leaf_value=0.024574711365627458 -0.032886593610552232 -0.00060874820993446445 -0.017637330763023481 -0.0028987081433181363
leaf_weight=5666.3150306869647 215.61650688014925 55175.422164160758 1023.086985738948 24800.780957361683
leaf_count=3161015 407 103386 2150 32348
internal_value=0 -0.00168665 -0.00391716 -0.00356389
internal_weight=0 81214.9 26039.5 25823.9
internal_count=3299306 138291 34905 34498
is_linear=0
shrinkage=0.025


Tree=124
num_leaves=5
num_cat=0
split_feature=3 4 2 0
split_gain=5731.64 303.762 239.466 461.754
threshold=0.013855457305908205 22.343750000000004 0.021717548370361332 906.03125000000011
decision_type=2 2 2 2
left_child=-1 2 -2 -4
right_child=1 -3 3 -5
leaf_value=0.024564041428702946 -0.0011825782773071895 0.0066320282269050615 0 -0.0085016784150118863
leaf_weight=5533.8528196547995 62064.861069761217 2579.2067149067298 7334.1612211465836 8789.055506631732
leaf_count=3163134 111290 8527 8312 9881
internal_value=0 -0.00162448 -0.00191688 -0.00465381
internal_weight=0 80767.3 78188.1 16123.2
internal_count=3301144 138010 129483 18193
is_linear=0
shrinkage=0.025


Tree=125
num_leaves=5
num_cat=0
split_feature=3 3 2 4
split_gain=5646.7 295.64 264.978 253.481
threshold=0.013855457305908205 0.015351295471191408 0.011529445648193361 5.4062500000000009
decision_type=2 2 2 2
left_child=-1 2 -2 -3
right_child=1 3 -4 -5
leaf_value=0.024552583401189699 0.014140598053928935 -0.0041363095527759243 -0.0031456131806546967 -0.0010221458334457908
leaf_weight=5397.9212470042985 1314.0515123000368 24279.618450500071 740.1541651673615 54951.153604272753
leaf_count=3162396 13792 28216 5367 90899
internal_value=0 -0.00173727 0.00739138 -0.00199423
internal_weight=0 81285 2054.21 79230.8
internal_count=3300670 138274 19159 119115
is_linear=0
shrinkage=0.025


Tree=126
num_leaves=5
num_cat=0
split_feature=3 4 4 1
split_gain=5434.91 265.202 256.994 1265
threshold=0.013855457305908205 20.156250000000004 17.593750000000004 30518494.000000004
decision_type=2 2 2 2
left_child=-1 2 -2 -4
right_child=1 -3 3 -5
leaf_value=0.024540989285667406 -0.0015068522045628841 0.0044345619992385166 0.00064363458314173599 -0.027239591126636653
leaf_weight=5266.8579957108013 72309.205282369629 4215.7759008165449 3221.4703892925754 1381.6531201917678
leaf_count=3162118 114986 13377 8516 1477
internal_value=0 -0.00154918 -0.00189608 -0.0076598
internal_weight=0 81128.1 76912.3 4603.12
internal_count=3300474 138356 124979 9993
is_linear=0
shrinkage=0.025


Tree=127
num_leaves=5
num_cat=0
split_feature=3 0 1 1
split_gain=5264.13 285.854 326.271 1103.38
threshold=0.013855457305908205 1527.5312500000002 28825566.000000004 26528120.000000004
decision_type=2 2 2 2
left_child=-1 2 3 -2
right_child=1 -3 -4 -5
leaf_value=0.024528950837055651 0.0010622641520880729 -0.0051026063189165954 0.00077765790689221753 -0.0081896314060001113
leaf_weight=5137.0533234805334 19794.806602731347 11539.710184110329 36690.032046137378 13306.493644433096
leaf_count=3160899 51798 16522 51585 18458
internal_value=0 -0.00144531 -0.000819474 -0.00262597
internal_weight=0 81331 69791.3 33101.3
internal_count=3299262 138363 121841 70256
is_linear=0
shrinkage=0.025


Tree=128
num_leaves=5
num_cat=0
split_feature=3 3 2 1
split_gain=5134.58 285.318 457.91 274.901
threshold=0.013855457305908205 0.019406795501708988 0.013490200042724611 28825566.000000004
decision_type=2 2 2 2
left_child=-1 2 -2 -3
right_child=1 3 -4 -5
leaf_value=0.024516942350024103 0.0041212186440185939 -0.0042024525457967634 -0.0035578465243148896 -0.00076296656212417415
leaf_weight=5013.7162049048347 12421.275473896414 26645.164240445942 7770.4912235755473 34327.87826128304
leaf_count=3162213 47384 39537 11533 39867
internal_value=0 -0.00142944 0.00110281 -0.00228871
internal_weight=0 81164.8 20191.8 60973
internal_count=3300534 138321 58917 79404
is_linear=0
shrinkage=0.025


Tree=129
num_leaves=5
num_cat=0
split_feature=3 4 2 0
split_gain=5120.46 310.387 328.215 346.508
threshold=0.013855457305908205 5.4062500000000009 0.0041003227233886727 28.343750000000004
decision_type=2 2 2 2
left_child=-1 2 -2 -4
right_child=1 -3 3 -5
leaf_value=0.024504376675493503 0.007508379989884348 -0.00064997096643863814 -0.033062549636885499 -0.0043485538892531041
leaf_weight=4890.5619866903289 1328.4922013282776 56251.264413143508 231.68003211915493 23379.546397712082
leaf_count=3161292 2602 105220 400 30368
internal_value=0 -0.00170716 -0.00403556 -0.0047524
internal_weight=0 81191 24939.7 23611.2
internal_count=3299882 138590 33370 30768
is_linear=0
shrinkage=0.025


Tree=130
num_leaves=5
num_cat=0
split_feature=3 3 4 1
split_gain=4877.24 235.153 446.527 728.407
threshold=0.013855457305908205 0.037493228912353523 16.781250000000004 31653650.000000004
decision_type=2 2 2 2
left_child=-1 -2 -3 -4
right_child=1 2 3 -5
leaf_value=0.024492034114549015 -0.00061902006754642491 -0.0021438563945379795 -0.0013396079176756831 -0.028344892773619693
leaf_weight=4775.291537068435 62671.660169372335 15886.361903086305 1585.0484936535358 1113.9554322510958
leaf_count=3162380 118687 17040 1723 778
internal_value=0 -0.00137656 -0.00385545 -0.013253
internal_weight=0 81257 18585.4 2699
internal_count=3300608 138228 19541 2501
is_linear=0
shrinkage=0.025


Tree=131
num_leaves=5
num_cat=0
split_feature=3 2 1 1
split_gain=4740.33 238.753 443.234 337.688
threshold=0.013855457305908205 0.005310535430908204 12544036.500000002 31759506.000000004
decision_type=2 2 2 2
left_child=-1 2 -2 -3
right_child=1 3 -4 -5
leaf_value=0.024478921626795502 -0.017816446275245906 -0.0013207723483383354 0.0039303574527049766 -0.0080703228681357157
leaf_weight=4658.3847373145982 563.58435042854398 67069.852849368937 8718.6518309116364 5044.9919044543058
leaf_count=3161261 2346 103044 26384 6479
internal_value=0 -0.00131971 0.00238764 -0.00181554
internal_weight=0 81397.1 9282.24 72114.8
internal_count=3299514 138253 28730 109523
is_linear=0
shrinkage=0.025


Tree=132
num_leaves=5
num_cat=0
split_feature=3 0 3 4
split_gain=4617.87 288.2 346.014 363.546
threshold=0.013855457305908205 1279.3125000000002 0.037493228912353523 17.156250000000004
decision_type=2 2 2 2
left_child=-1 2 -2 -4
right_child=1 -3 3 -5
leaf_value=0.024465452958332273 0.00060131287362263116 -0.0041230679889162859 -0.0019496364849872602 -0.012611663073250215
leaf_weight=4543.9488167781383 46575.901366416365 17707.242112468928 14476.363004714251 2379.7927507609129
leaf_count=3161529 96368 24577 15355 2072
internal_value=0 -0.00129811 -0.000487194 -0.00356171
internal_weight=0 81139.3 63432.1 16856.2
internal_count=3299901 138372 113795 17427
is_linear=0
shrinkage=0.025


Tree=133
num_leaves=5
num_cat=0
split_feature=3 3 2 1
split_gain=4460.43 263.541 394.703 304.253
threshold=0.013855457305908205 0.017136096954345707 0.011529445648193361 28825566.000000004
decision_type=2 2 2 2
left_child=-1 2 -2 -3
right_child=1 3 -4 -5
leaf_value=0.024451715956880241 0.0076535728028199121 -0.0035660644832989697 -0.0020581273542256352 -0.00023545523463131142
leaf_weight=4432.7365960544266 4917.0536543689668 31091.062095019966 5189.8003098275512 40100.782639667392
leaf_count=3158692 26150 50609 12981 48488
internal_value=0 -0.00116195 0.00255803 -0.00170903
internal_weight=0 81298.7 10106.9 71191.8
internal_count=3296920 138228 39131 99097
is_linear=0
shrinkage=0.025


Tree=134
num_leaves=5
num_cat=0
split_feature=3 0 3 0
split_gain=4425.99 208.648 379.522 465.505
threshold=0.013855457305908205 1174.1562500000002 0.022485733032226566 269.53125000000006
decision_type=2 2 2 2
left_child=-1 2 -2 -4
right_child=1 -3 3 -5
leaf_value=0.024438429083254755 0.0020032858492221133 -0.0035551979281963908 -0.0051158233718089641 0.00032093132445773574
leaf_weight=4330.1720753319096 21885.054548873566 20425.927675260231 17518.61136058718 21469.346499085426
leaf_count=3162888 61940 28407 24849 23173
internal_value=0 -0.00135927 -0.000599601 -0.00209339
internal_weight=0 81298.9 60873 38988
internal_count=3301257 138369 109962 48022
is_linear=0
shrinkage=0.025


Tree=135
num_leaves=5
num_cat=0
split_feature=3 0 1 4
split_gain=4160.68 249.028 354.044 1038.72
threshold=0.013855457305908205 1077.4375000000002 31440600.000000004 16.406250000000004
decision_type=2 2 2 2
left_child=-1 2 -2 -4
right_child=1 -3 3 -5
leaf_value=0.024424142177212258 0.00079584169506663807 -0.0030258364852975787 0 -0.021668420123231637
leaf_weight=4224.8531836176408 49847.026446937583 23741.81797904335 6211.8041585423052 1736.6661698762327
leaf_count=3160497 93689 32352 9723 2557
internal_value=0 -0.000873053 0 -0.00486969
internal_weight=0 81537.3 57795.5 7948.47
internal_count=3298818 138321 105969 12280
is_linear=0
shrinkage=0.025


Tree=136
num_leaves=5
num_cat=0
split_feature=3 4 1 0
split_gain=4177.98 235.115 243.909 1062.55
threshold=0.013855457305908205 20.156250000000004 28825566.000000004 165.15625000000003
decision_type=2 2 2 2
left_child=-1 2 -2 -4
right_child=1 -3 3 -5
leaf_value=0.024409864886083491 -0.0032044214083792226 0.0044082270411762419 -0.01304686024468267 0.00081888572225936201
leaf_weight=4124.5030430497136 32648.130996397696 4213.0736798169091 3717.9958082009107 40801.29599564895
leaf_count=3162081 63889 13263 6479 54680
internal_value=0 -0.00123349 -0.00156035 -0.000324393
internal_weight=0 81380.5 77167.4 44519.3
internal_count=3300392 138311 125048 61159
is_linear=0
shrinkage=0.025


Tree=137
num_leaves=5
num_cat=0
split_feature=3 0 1 4
split_gain=4057.66 284.249 366.795 811.561
threshold=0.013855457305908205 1527.5312500000002 31440600.000000004 16.781250000000004
decision_type=2 2 2 2
left_child=-1 2 -2 -4
right_child=1 -3 3 -5
leaf_value=0.024395188290745259 0.00014155866701945826 -0.004798086301291366 -0.0013643856927383464 -0.020414567052683415
leaf_weight=4026.0676680603647 60821.261570809409 11571.640642747283 7392.7192818261683 1730.1790236867964
leaf_count=3161539 108119 16505 11200 2500
internal_value=0 -0.00116337 -0.00054118 -0.00520515
internal_weight=0 81515.8 69944.2 9122.9
internal_count=3299863 138324 121819 13700
is_linear=0
shrinkage=0.025


Tree=138
num_leaves=5
num_cat=0
split_feature=3 0 1 1
split_gain=3942.19 252.064 372.32 1025.43
threshold=0.013855457305908205 1527.5312500000002 28825566.000000004 26528120.000000004
decision_type=2 2 2 2
left_child=-1 2 3 -2
right_child=1 -3 -4 -5
leaf_value=0.024379741536266569 0.0011284112150334554 -0.0045243271303950401 0.0011922229453020011 -0.0077534276625020023
leaf_weight=3927.2391551849432 19764.602957742289 11617.110375402495 36714.595928931609 13508.099905606359
leaf_count=3162199 51784 16543 51580 18538
internal_value=0 -0.00110792 -0.000520168 -0.00244616
internal_weight=0 81604.4 69987.3 33272.7
internal_count=3300644 138445 121902 70322
is_linear=0
shrinkage=0.025


Tree=139
num_leaves=5
num_cat=0
split_feature=3 2 0 1
split_gain=3849.1 250.426 400.758 772.932
threshold=0.013855457305908205 0.021717548370361332 906.03125000000011 28825566.000000004
decision_type=2 2 2 2
left_child=-1 -2 3 -3
right_child=1 2 -4 -5
leaf_value=0.024364312409917065 -0.00039662976845970658 -0.0083401873484041898 -0.007507343917509169 0.0076953048940585529
leaf_weight=3833.1775697971461 65030.180317688733 3402.9178040921688 8769.7413286268711 4057.3068219423294
leaf_count=3162266 119871 4263 9776 4208
internal_value=0 -0.00111261 -0.00389459 0.000207583
internal_weight=0 81260.1 16230 7460.22
internal_count=3300384 138118 18247 8471
is_linear=0
shrinkage=0.025


Tree=140
num_leaves=5
num_cat=0
split_feature=3 2 0 1
split_gain=3700.69 285.513 443.155 884.758
threshold=0.013855457305908205 0.021717548370361332 906.03125000000011 28825566.000000004
decision_type=2 2 2 2
left_child=-1 -2 3 -3
right_child=1 2 -4 -5
leaf_value=0.024348075085684602 -0.000155600060164331 -0.0087047588912910045 -0.0076196562107288856 0.0082427618871301189
leaf_weight=3738.7808839902282 65057.898901985958 3458.0270095020533 8943.6662566810846 4196.2195653766394
leaf_count=3161504 119858 4288 9935 4294
internal_value=0 -0.000923379 -0.00384821 0.000417179
internal_weight=0 81655.8 16597.9 7654.25
internal_count=3299879 138375 18517 8582
is_linear=0
shrinkage=0.025


Tree=141
num_leaves=5
num_cat=0
split_feature=3 1 1 0
split_gain=3694.59 282.711 1253.21 511.345
threshold=0.013855457305908205 26246568.000000004 27328589.000000004 124.90625000000001
decision_type=2 2 2 2
left_child=-1 -2 -3 -4
right_child=1 2 3 -5
leaf_value=0.024332014269305143 0.001415930059488629 -0.015683926723743215 -0.0090979665232748634 -0.00038053151200289351
leaf_weight=3649.8143594658177 19040.525571236387 3900.3324541263282 4553.0140933319926 53979.070711469278
leaf_count=3161931 50781 5401 8970 73181
internal_value=0 -0.00120964 -0.00203088 -0.00108716
internal_weight=0 81472.9 62432.4 58532.1
internal_count=3300264 138333 87552 82151
is_linear=0
shrinkage=0.025


Tree=142
num_leaves=5
num_cat=0
split_feature=3 1 1 0
split_gain=3542.01 263.268 392.003 544.48
threshold=0.013855457305908205 17792145.000000004 28825566.000000004 165.15625000000003
decision_type=2 2 2 2
left_child=-1 -2 -3 -4
right_child=1 2 3 -5
leaf_value=0.024315496144674056 0.0028729422231501046 -0.0039304341129351317 -0.0082815101001614943 0.00080523508792667393
leaf_weight=3562.5021986659849 9517.9472433365881 26406.364007166587 4526.5085794907063 41120.540911901742
leaf_count=3162470 28994 44840 9090 55523
internal_value=0 -0.000980078 -0.00150802 -7.65572e-05
