tree
version=v3
num_class=1
num_tree_per_iteration=1
label_index=0
max_feature_idx=4
objective=binary sigmoid:1
feature_names=cape integral_of_surface_downwelling_shortwave_flux_in_air_assuming_clear_sky_wrt_time lwe_thickness_of_convective_precipitation_amount lwe_thickness_of_precipitation_amount wind_speed
feature_infos=[0:8146.375] [6005744.5:32446586] [0:0.11367034912109375] [0:0.21045303344726562] [0.4375:38.5625]
tree_sizes=684 686 685 683 683 686 681 684 683 688 686 684 685 689 688 689 690 688 686 683 692 690 695 692 691 689 691 690 690 690 690 695 695 688 685 694 693 692 695 694 694 693 694 693 693 695 695 696 697 694 694 694 698 693 696 691 693 691 698 696 694 693 696 694 695 697 699 697 699 695 699 700 698 698 701 697 695 698 697 695 699 698 692 699 700 700 698 699 698 699 698 699 695 698 694 700 691 697 698 700 700 689 693 700 699 693 701 697 698 693 692 697 699 697 704 696 698 698 697 703 700 700 700 699 688 690 695 696 696 698 691 698 703 700 694 691 701 700 695 700 692 701 698 699 700 699 679 698 699 690 697 700 699 693 702 698 701 693 700 697 699 700 697 701 694 701 694 686 698 694 680 700 693 693 693 698 692 695 698 691 696 697 692 700 689 702 695 698 698 702 700 692 687 694 688 693 687 701 677 693 693 694 700 691 694 698 698 683 693 697 698 673 693 701 691 697 693 695 689 697 693 701 701 670 700 695 697 687 691 694 699 694 690 698 696 693 691 693 701 693 698 695 672 676 698 693 698 696 686 691 694 695 697 697 694 687 694 695 698 694 698 668 692 700 696 692 701 688 687 693 691 694 684 695 692 699 695 699 704 692 700 690 689 687 697 695 708 706 696 696 696 690 694 691 708 698 691 694 694 688 702 694 695 687 692 668 697 692 696 689 698 702 702 692 685 699 697 688 695 696 696 697 696 695 691 695 696 685 688 687 693 691 691 692 692 679 673 693 670 703 689 662 691 674 688 702 702 696 698 686 686 703 701 693 693 690 688 686 695 686 692 692 699 686 695 691 689 692 701 701 694 700 688 679 686 693 684 694 698 694 697 700 693 697 685 690 690 696 688 673 696 701 693 688 695 696 687 665 694 693

Tree=0
num_leaves=5
num_cat=0
split_feature=3 0 3 3
split_gain=1.17724e+06 118346 103070 38388.4
threshold=0.0030856132507324223 97.531250000000014 0.0082106590270996111 0.00057172775268554698
decision_type=2 2 2 2
left_child=1 -1 -2 -3
right_child=2 3 -4 -5
leaf_value=-2.8968795698324303 -2.8240316709630848 -2.879614984792108 -2.7753363700659457 -2.8481579780372237
leaf_weight=408983.27051599324 56879.995600927621 58005.807003892958 52629.548076756299 41532.719041731209
leaf_count=2213462 281640 339171 256956 210684
internal_value=-2.87482 -2.89093 -2.80058 -2.8665
internal_weight=0 508522 109510 99538.5
internal_count=3301913 2763317 538596 549855
is_linear=0
shrinkage=1


Tree=1
num_leaves=5
num_cat=0
split_feature=3 3 0 0
split_gain=1.07744e+06 108681 98084 35307.2
threshold=0.0025525093078613286 0.006527423858642579 199.53125000000003 619.46875000000011
decision_type=2 2 2 2
left_child=2 3 -1 -2
right_child=1 -3 -4 -5
leaf_value=-0.021621524889014247 0.027875767563711101 0.085223137564605644 0.010118298186956705 0.073090877663609707
leaf_weight=417702.63730287924 44295.892623815686 70258.204508244991 71138.072472106665 14364.896975547075
leaf_count=2301447 213946 316911 400659 67312
internal_value=0 0.0642337 -0.0169995 0.0390222
internal_weight=0 128919 488841 58660.8
internal_count=3300275 598169 2702106 281258
is_linear=0
shrinkage=0.025


Tree=2
num_leaves=5
num_cat=0
split_feature=3 0 3 0
split_gain=987874 95420.9 85726.5 32412.5
threshold=0.0025525093078613286 199.53125000000003 0.007023334503173829 502.71875000000006
decision_type=2 2 2 2
left_child=1 -1 3 -2
right_child=2 -3 -4 -5
leaf_value=-0.021505398610338618 0.027281631671602774 0.0097127201737668926 0.078281352299752804 0.066382043337210692
leaf_weight=409452.14175753295 46599.384272973984 71855.771021921188 71342.267671480775 18675.460403591394
leaf_count=2301117 219855 400530 297344 81184
internal_value=0 -0.0168416 0.0593185 0.0385298
internal_weight=0 481308 136617 65274.8
internal_count=3300030 2701647 598383 301039
is_linear=0
shrinkage=0.025


Tree=3
num_leaves=5
num_cat=0
split_feature=3 0 3 0
split_gain=901890 90556.8 79035 25586.9
threshold=0.0024027824401855473 409.46875000000006 0.0060791969299316415 685.84375000000011
decision_type=2 2 2 2
left_child=1 -1 3 -2
right_child=2 -3 -4 -5
leaf_value=-0.020724874918969502 0.023306589962080439 0.014765562429592347 0.069403581788990948 0.061199865720645577
leaf_weight=420542.96338789538 47548.609921943396 50231.279038812965 85721.805914647877 14646.921973537654
leaf_count=2395751 219933 286206 337034 61841
internal_value=0 -0.0169342 0.0538239 0.0322925
internal_weight=0 470774 147917 62195.5
internal_count=3300765 2681957 618808 281774
is_linear=0
shrinkage=0.025


Tree=4
num_leaves=5
num_cat=0
split_feature=3 0 3 0
split_gain=834662 80472.9 76656.9 25681
threshold=0.0021252632141113286 333.12500000000006 0.0060791969299316415 105.40625000000001
decision_type=2 2 2 2
left_child=1 -1 3 -2
right_child=2 -3 -4 -5
leaf_value=-0.021256326127985933 0.013789204300078585 0.011124400188390343 0.063872289570515675 0.04379796623100022
leaf_weight=400989.07996153831 34941.060684554279 54400.701820474118 90792.718399770558 36816.145821422338
leaf_count=2334253 170464 305578 336969 152059
internal_value=0 -0.0173846 0.0485978 0.0292228
internal_weight=0 455390 162550 71757.2
internal_count=3299323 2639831 659492 322523
is_linear=0
shrinkage=0.025


Tree=5
num_leaves=5
num_cat=0
split_feature=3 0 3 0
split_gain=770814 75238.9 67455.9 24333.5
threshold=0.0019984245300292973 97.531250000000014 0.005642414093017579 124.90625000000001
decision_type=2 2 2 2
left_child=1 -1 3 -2
right_child=2 -3 -4 -5
leaf_value=-0.022598069646983077 0.012174669500132167 0.0032874296622594648 0.057805684742575081 0.041182671477528417
leaf_weight=357399.20757767931 37767.428455669433 87208.263635367155 100986.16106839478 35005.440716836601
leaf_count=2133334 183111 486375 357440 140400
internal_value=0 -0.0175181 0.0445722 0.0261641
internal_weight=0 444607 173759 72772.9
internal_count=3300660 2619709 680951 323511
is_linear=0
shrinkage=0.025


Tree=6
num_leaves=5
num_cat=0
split_feature=3 0 3 0
split_gain=717308 67336.6 66272 24490.4
threshold=0.0017704963684082033 409.46875000000006 0.005642414093017579 89.906250000000014
decision_type=2 2 2 2
left_child=1 -1 3 -2
right_child=2 -3 -4 -5
leaf_value=-0.021380451441628593 0.0089310174583798162 0.010497751020997217 0.053676446532349369 0.036396067915380408
leaf_weight=383530.93486380577 38030.748858816922 46340.546766642481 105948.8492141813 43920.213591046631
leaf_count=2316243 187951 262062 357434 176382
internal_value=0 -0.0179402 0.0406097 0.0236789
internal_weight=0 429871 187900 81951
internal_count=3300072 2578305 721767 364333
is_linear=0
shrinkage=0.025


Tree=7
num_leaves=5
num_cat=0
split_feature=3 0 3 0
split_gain=670213 66646.2 57282.2 28964.6
threshold=0.0017704963684082033 97.531250000000014 0.0082106590270996111 827.37500000000011
decision_type=2 2 2 2
left_child=1 -1 3 -2
right_child=2 -3 -4 -5
leaf_value=-0.02266264861455889 0.020003046621293014 0.0022317827984733992 0.054262160131157158 0.050736833870959432
leaf_weight=339272.10281994194 88306.534265942872 83692.804221257567 81780.873581789434 24601.150406658649
leaf_count=2108224 374744 469684 257019 90534
internal_value=0 -0.0177341 0.0383126 0.0267301
internal_weight=0 422965 194689 112908
internal_count=3300205 2577908 722297 465278
is_linear=0
shrinkage=0.025


Tree=8
num_leaves=5
num_cat=0
split_feature=3 0 3 0
split_gain=623151 65694.6 50336.5 21197
threshold=0.0017704963684082033 97.531250000000014 0.005642414093017579 89.906250000000014
decision_type=2 2 2 2
left_child=1 -1 3 -2
right_child=2 -3 -4 -5
leaf_value=-0.022564126299042701 0.007798950052468512 0.0021722897778182807 0.046848961954077513 0.032850520531243071
leaf_weight=332365.84137922525 38921.448889143765 83950.18451564014 115174.61136230081 46594.301360473037
leaf_count=2108153 187681 470181 357116 176311
internal_value=0 -0.0175734 0.0360509 0.0214744
internal_weight=0 416316 200690 85515.8
internal_count=3299442 2578334 721108 363992
is_linear=0
shrinkage=0.025


Tree=9
num_leaves=5
num_cat=0
split_feature=3 0 3 0
split_gain=587349 61881.4 48026.3 19257.8
threshold=0.0016713142395019533 333.12500000000006 0.0049185752868652352 83.031250000000014
decision_type=2 2 2 2
left_child=1 -1 3 -2
right_child=2 -3 -4 -5
leaf_value=-0.021377056307739381 0.0049469172209431278 0.0080180444299330338 0.043178217555980225 0.029599736707110552
leaf_weight=354949.12304028124 36116.678433470428 51124.553777657449 130088.26559837162 44237.162625268102
leaf_count=2274259 177157 284692 396949 167496
internal_value=0 -0.0176726 0.0337848 0.0185445
internal_weight=0 406074 210442 80353.8
internal_count=3300553 2558951 741602 344653
is_linear=0
shrinkage=0.025


Tree=10
num_leaves=5
num_cat=0
split_feature=3 0 3 0
split_gain=553749 61184.7 43034.1 17704.3
threshold=0.0016713142395019533 97.531250000000014 0.004288196563720704 124.90625000000001
decision_type=2 2 2 2
left_child=1 -1 -2 -4
right_child=2 -3 3 -5
leaf_value=-0.022453497541574177 0.016163073130210426 0.0017301957207103156 0.028551800284166956 0.046716757248898871
leaf_weight=317272.83010002971 70992.274164266884 82227.071355264634 54339.179083172232 91209.541796438396
leaf_count=2096114 304157 462256 180169 257290
internal_value=0 -0.0174732 0.0321667 0.0399558
internal_weight=0 399500 216541 145549
internal_count=3299986 2558370 741616 437459
is_linear=0
shrinkage=0.025


Tree=11
num_leaves=5
num_cat=0
split_feature=3 0 0 3
split_gain=522904 60410.2 40646.5 16433.7
threshold=0.0016713142395019533 97.531250000000014 71.531250000000014 0.01049470901489258
decision_type=2 2 2 2
left_child=1 -1 -2 -4
right_child=2 -3 3 -5
leaf_value=-0.022390234302688855 0.014829537988411254 0.0016777804443697834 0.031373663525411322 0.048426945299771006
leaf_weight=310972.48558526486 70001.667148139328 82331.744639802724 94013.075717121363 57984.43177267164
leaf_count=2097131 281331 461649 305888 154047
internal_value=0 -0.0173492 0.0306368 0.0379012
internal_weight=0 393304 221999 151998
internal_count=3300046 2558780 741266 459935
is_linear=0
shrinkage=0.025


Tree=12
num_leaves=5
num_cat=0
split_feature=3 0 2 0
split_gain=489413 52959.3 42347 13916.6
threshold=0.0014014244079589846 333.12500000000006 0.0024132728576660161 71.531250000000014
decision_type=2 2 2 2
left_child=1 -1 3 -2
right_child=2 -3 -4 -5
leaf_value=-0.021442575142249495 0.0062179907063929264 0.0065053642164819535 0.036984809260143713 0.024844831170518996
leaf_weight=327963.3318112269 50075.550462968647 48564.654565934092 137403.71606677026 50693.439013503492
leaf_count=2227114 229660 269992 389390 183752
internal_value=0 -0.0178341 0.0279511 0.0156086
internal_weight=0 376528 238173 100769
internal_count=3299908 2497106 802802 413412
is_linear=0
shrinkage=0.025


Tree=13
num_leaves=5
num_cat=0
split_feature=3 0 3 0
split_gain=461946 51463.1 39270.3 14882.9
threshold=0.0014014244079589846 333.12500000000006 0.004002094268798829 71.531250000000014
decision_type=2 2 2 2
left_child=1 -1 3 -2
right_child=2 -3 -4 -5
leaf_value=-0.021347286220722385 -0.00014639542562193194 0.0061919778978603984 0.033558629139724315 0.02159372112055918
leaf_weight=321628.92925956473 34646.638876877725 48750.732859559357 164388.47216426581 45167.125472340733
leaf_count=2226364 176589 269774 457869 169278
internal_value=0 -0.0177187 0.0265695 0.0121466
internal_weight=0 370380 244202 79813.8
internal_count=3299874 2496138 803736 345867
is_linear=0
shrinkage=0.025


Tree=14
num_leaves=5
num_cat=0
split_feature=3 0 3 0
split_gain=437675 51529 35940.5 14374.5
threshold=0.0014014244079589846 83.031250000000014 0.004288196563720704 71.531250000000014
decision_type=2 2 2 2
left_child=1 -1 3 -2
right_child=2 -3 -4 -5
leaf_value=-0.022545843392158559 0.00053386017789614859 4.0992531050955235e-05 0.032377598877682011 0.021159598856695452
leaf_weight=283398.63546483219 36841.244290310889 81073.378693956882 162851.48403204232 49842.886357720941
leaf_count=2032185 185743 464313 437158 181342
internal_value=0 -0.0175189 0.0254513 0.0124133
internal_weight=0 364472 249536 86684.1
internal_count=3300741 2496498 804243 367085
is_linear=0
shrinkage=0.025


Tree=15
num_leaves=5
num_cat=0
split_feature=3 0 0 3
split_gain=413027 47889.1 36784.4 13929.8
threshold=0.0012440681457519533 409.46875000000006 71.531250000000014 0.0037388801574707036
decision_type=2 2 2 2
left_child=1 -1 3 -2
right_child=2 -3 -4 -5
leaf_value=-0.021152637539039017 -0.0017096651750214257 0.0071750676709474567 0.030155519528382232 0.01892111467715164
leaf_weight=309662.42913120613 35962.098628625274 42309.49645799771 178151.63579734042 47048.080748923123
leaf_count=2220505 191765 235853 503701 149410
internal_value=0 -0.0177434 0.0237483 0.00997264
internal_weight=0 351972 261162 83010.2
internal_count=3301234 2456358 844876 341175
is_linear=0
shrinkage=0.025


Tree=16
num_leaves=5
num_cat=0
split_feature=3 0 3 0
split_gain=388386 45918.4 33471.8 13780.2
threshold=0.0012440681457519533 105.40625000000001 0.004288196563720704 71.531250000000014
decision_type=2 2 2 2
left_child=1 -1 3 -2
right_child=2 -3 -4 -5
leaf_value=-0.022337695793243365 -0.00047605095836852169 7.1868204349082466e-05 0.02914196388126964 0.018734547007051038
leaf_weight=274203.52233556658 40260.063030343503 72049.996769245714 170459.90507569164 55058.398943349719
leaf_count=2044593 209882 412038 437206 197472
internal_value=0 -0.0176717 0.0225041 0.0106114
internal_weight=0 346254 265778 95318.5
internal_count=3301191 2456631 844560 407354
is_linear=0
shrinkage=0.025


Tree=17
num_leaves=5
num_cat=0
split_feature=3 0 3 0
split_gain=369554 43909.7 32176.5 19043.6
threshold=0.0011754035949707033 83.031250000000014 0.007023334503173829 619.46875000000011
decision_type=2 2 2 2
left_child=1 -1 3 -2
right_child=2 -3 -4 -5
leaf_value=-0.022530108917415758 0.007966281476235508 -0.00090111913962513017 0.030649515979145031 0.028261334127454674
leaf_weight=261502.45778203011 107738.42257350683 75788.131629634649 126719.30824461579 39624.577610526234
leaf_count=1994156 445992 440756 297631 120993
internal_value=0 -0.0176747 0.0214052 0.0134397
internal_weight=0 337291 274082 147363
internal_count=3299528 2434912 864616 566985
is_linear=0
shrinkage=0.025


Tree=18
num_leaves=5
num_cat=0
split_feature=3 0 3 0
split_gain=351863 37366.5 37142.1 16228.4
threshold=0.00093126296997070323 97.531250000000014 0.0037388801574707036 558.15625000000011
decision_type=2 2 2 2
left_child=1 -1 3 -2
right_child=2 -3 -4 -5
leaf_value=-0.022629676491459652 0.0015772770289970029 -0.00161571647780847 0.026295305336097141 0.02451445402573153
leaf_weight=252552.96321039647 74954.780329134315 67066.983611058444 189806.87707407773 25972.42356326431
leaf_count=1964760 376266 389637 477562 91873
internal_value=0 -0.0182251 0.0197778 0.00750148
internal_weight=0 319620 290734 100927
internal_count=3300098 2354397 945701 468139
is_linear=0
shrinkage=0.025


Tree=19
num_leaves=5
num_cat=0
split_feature=3 0 0 3
split_gain=334549 36631 34755.4 13274
threshold=0.00093126296997070323 83.031250000000014 61.593750000000007 0.01049470901489258
decision_type=2 2 2 2
left_child=1 -1 -2 -4
right_child=2 -3 3 -5
leaf_value=-0.02268930079752858 0.0057088451566817177 -0.0021515269799293555 0.019764019628701959 0.033021177591945061
leaf_weight=244005.51693568006 87842.835409753025 69993.711484868079 134373.12327204645 73941.359596677125
leaf_count=1941461 377290 411999 410171 160089
internal_value=0 -0.0181163 0.0189202 0.0244825
internal_weight=0 313999 296157 208314
internal_count=3301010 2353460 947550 570260
is_linear=0
shrinkage=0.025


Tree=20
num_leaves=5
num_cat=0
split_feature=2 0 0 3
split_gain=318048 37404.5 24945.1 11953.9
threshold=0.00058984756469726573 53.843750000000007 71.531250000000014 0.0028986930847167973
decision_type=2 2 2 2
left_child=1 -1 3 -2
right_child=2 -3 -4 -5
leaf_value=-0.021655622551328895 -0.0059232836114725389 -0.0025568713701830253 0.024395725249837883 0.014598930635552157
leaf_weight=244860.21764257178 26386.025633629411 87036.23104243353 197318.88342682645 53515.110424857587
leaf_count=1940144 166460 511089 518208 164291
internal_value=0 -0.0166521 0.0196212 0.00780671
internal_weight=0 331896 277220 79901.1
internal_count=3300192 2451233 848959 330751
is_linear=0
shrinkage=0.025


Tree=21
num_leaves=5
num_cat=0
split_feature=3 3 0 0
split_gain=306569 33749.3 30424 17118.5
threshold=0.00078153610229492198 0.0037388801574707036 181.53125000000003 453.90625000000006
decision_type=2 2 2 2
left_child=2 3 -1 -2
right_child=1 -3 -4 -5
leaf_value=-0.022095797293117374 -6.5155848720505437e-05 0.023262071608735602 -0.00086823840752429785 0.021414280008605742
leaf_weight=243822.6795046106 80081.00364356488 200240.11222612113 51182.674810692668 32526.502624828368
leaf_count=1996078 417641 478032 295506 112430
internal_value=0 0.0171032 -0.0184179 0.0061348
internal_weight=0 312848 295005 112608
internal_count=3299687 1008103 2291584 530071
is_linear=0
shrinkage=0.025


Tree=22
num_leaves=5
num_cat=0
split_feature=3 0 0 3
split_gain=288506 31631.8 31542.5 12865.2
threshold=0.00078153610229492198 181.53125000000003 61.593750000000007 0.0025525093078613286
decision_type=2 2 2 2
left_child=1 -1 3 -2
right_child=2 -3 -4 -5
leaf_value=-0.021953921935688708 -0.0078811183064391565 -0.00025731386436099647 0.021466449532226678 0.011267428916122025
leaf_weight=238845.27397125959 34690.668732710183 51098.289836995304 223514.33300484717 59223.783847298473
leaf_count=1996435 227201 295637 592320 188484
internal_value=0 -0.0181352 0.0163576 0.00418049
internal_weight=0 289944 317429 93914.5
internal_count=3300077 2292072 1008005 415685
is_linear=0
shrinkage=0.025


Tree=23
num_leaves=5
num_cat=0
split_feature=3 0 0 3
split_gain=277914 31074.4 30604.4 11627.8
threshold=0.00078153610229492198 61.593750000000007 53.843750000000007 0.0030856132507324223
decision_type=2 2 2 2
left_child=1 -1 3 -2
right_child=2 -3 -4 -5
leaf_value=-0.022797724600970886 -0.0070597435834562463 -0.0036297540247648939 0.020536197424033752 0.01133764641733659
leaf_weight=214573.71900819242 38604.259201467037 70378.875382322818 234508.48823685199 48142.468483030796
leaf_count=1856275 242667 434858 620020 146017
internal_value=0 -0.0180694 0.015843 0.00313664
internal_weight=0 284953 321255 86746.7
internal_count=3299837 2291133 1008704 388684
is_linear=0
shrinkage=0.025


Tree=24
num_leaves=5
num_cat=0
split_feature=3 0 3 0
split_gain=263302 30769.5 28113.6 14627.2
threshold=0.00078153610229492198 299.09375000000006 0.0037388801574707036 558.15625000000011
decision_type=2 2 2 2
left_child=1 -1 3 -2
right_child=2 -3 -4 -5
leaf_value=-0.021365227758495902 -0.0001368614648840885 0.0018512349214447957 0.020601358725623346 0.019922555803028579
leaf_weight=238535.70990874618 84621.737403299659 41828.571657154709 210033.56129352748 30947.499411456287
leaf_count=2052502 429329 239173 478627 101647
internal_value=0 -0.0178973 0.015151 0.00523019
internal_weight=0 280364 325603 115569
internal_count=3301278 2291675 1009603 530976
is_linear=0
shrinkage=0.025


Tree=25
num_leaves=5
num_cat=0
split_feature=3 0 0 3
split_gain=252081 29017 27638.8 15810.3
threshold=0.00073480606079101573 61.593750000000007 124.90625000000001 0.0028986930847167973
decision_type=2 2 2 2
left_child=1 -1 3 -2
right_child=2 -3 -4 -5
leaf_value=-0.022645169454647736 -0.0051778052786817961 -0.0038049351498260944 0.020646130172258456 0.012338863611917142
leaf_weight=204528.08075735159 50284.108578512445 68355.897338133305 192419.07222802565 89029.26378962025
leaf_count=1844041 310622 427026 470909 247249
internal_value=0 -0.0179319 0.0145043 0.0060078
internal_weight=0 272884 331732 139313
internal_count=3299847 2271067 1028780 557871
is_linear=0
shrinkage=0.025


Tree=26
num_leaves=5
num_cat=0
split_feature=3 0 0 3
split_gain=240940 27613.9 27128 11417.8
threshold=0.00068998336791992198 299.09375000000006 53.843750000000007 0.0022587776184082036
decision_type=2 2 2 2
left_child=1 -1 3 -2
right_child=2 -3 -4 -5
leaf_value=-0.021389036029667644 -0.0099013275617408757 0.0011060250893424951 0.018116160821331693 0.0086477978533874358
leaf_weight=225211.81672680564 31861.395458327606 40062.482878319919 247655.9177702833 59075.039449758828
leaf_count=2017978 224915 230722 636336 190201
internal_value=0 -0.0179875 0.0138282 0.00213313
internal_weight=0 265274 338592 90936.4
internal_count=3300152 2248700 1051452 415116
is_linear=0
shrinkage=0.025


Tree=27
num_leaves=5
num_cat=0
split_feature=3 0 3 0
split_gain=232237 30102.4 23995.6 17545.4
threshold=0.00078153610229492198 61.593750000000007 0.0082106590270996111 827.37500000000011
decision_type=2 2 2 2
left_child=1 -1 3 -2
right_child=2 -3 -4 -5
leaf_value=-0.022479388542403056 0.0044005704035988873 -0.0032962065902826972 0.02212696291820377 0.021739463449579013
leaf_weight=197788.8195988629 158875.70674279705 69184.167945547029 130037.11502646655 47428.075381603092
leaf_count=1857367 624562 435026 256834 127823
internal_value=0 -0.0175144 0.0137116 0.00839704
internal_weight=0 266973 336341 206304
internal_count=3301612 2292393 1009219 752385
is_linear=0
shrinkage=0.025


Tree=28
num_leaves=5
num_cat=0
split_feature=3 0 3 0
split_gain=220659 27027.3 24295 12743.4
threshold=0.00068998336791992198 83.031250000000014 0.0037388801574707036 53.843750000000007
decision_type=2 2 2 2
left_child=1 -1 3 -2
right_child=2 -3 -4 -5
leaf_value=-0.022234964321175051 -0.0062093954817438969 -0.0031778879992193361 0.017885701152616507 0.010283630055239197
leaf_weight=195397.47604541481 46889.361401863396 61272.654345922172 220964.74378754199 77533.395110240206
leaf_count=1872038 292995 378478 478002 280195
internal_value=0 -0.017692 0.0129094 0.00405811
internal_weight=0 256670 345388 124423
internal_count=3301708 2250516 1051192 573190
is_linear=0
shrinkage=0.025


Tree=29
num_leaves=5
num_cat=0
split_feature=3 0 2 0
split_gain=211306 26053.9 23883.3 9964.05
threshold=0.00064897537231445323 61.593750000000007 0.0019698143005371098 53.843750000000007
decision_type=2 2 2 2
left_child=1 -1 3 -2
right_child=2 -3 -4 -5
leaf_value=-0.022453025885982459 -0.0030202706604224006 -0.003975506151926717 0.017818774075749746 0.01026150672669654
leaf_weight=185189.58729212172 61770.229229932651 64500.643272304907 207528.2853971757 81931.442830743268
leaf_count=1816275 340422 412054 445287 286413
internal_value=0 -0.0176866 0.0123928 0.00454457
internal_weight=0 249690 351230 143702
internal_count=3300451 2228329 1072122 626835
is_linear=0
shrinkage=0.025


Tree=30
num_leaves=5
num_cat=0
split_feature=3 0 3 0
split_gain=200786 25723 22450.2 11951.3
threshold=0.00064897537231445323 83.031250000000014 0.004002094268798829 453.90625000000006
decision_type=2 2 2 2
left_child=1 -1 3 -2
right_child=2 -3 -4 -5
leaf_value=-0.022135222113661569 -0.0011296134775629111 -0.0032323076036131467 0.016808374455946348 0.014926432752017146
leaf_weight=185992.31676735915 93354.359169373289 59583.948586218059 218871.16994668543 41882.373377326876
leaf_count=1857354 485232 371521 457453 128810
internal_value=0 -0.0175555 0.0118594 0.00383733
internal_weight=0 245576 354108 135237
internal_count=3300370 2228875 1071495 614042
is_linear=0
shrinkage=0.025


Tree=31
num_leaves=5
num_cat=0
split_feature=3 0 0 3
split_gain=195112 25661.2 21511.3 9613.49
threshold=0.00064897537231445323 61.593750000000007 53.843750000000007 0.0022587776184082036
decision_type=2 2 2 2
left_child=1 -1 3 -2
right_child=2 -3 -4 -5
leaf_value=-0.022289287274829865 -0.0095307917613192822 -0.0037972704851143057 0.015341527091091373 0.0072373119004060446
leaf_weight=177643.82489334606 32665.279717395082 63987.308148119599 263541.66174213216 61466.815010271966
leaf_count=1816708 237617 412395 643761 190070
internal_value=0 -0.0173993 0.0116775 0.00140328
internal_weight=0 241631 357674 94132.1
internal_count=3300551 2229103 1071448 427687
is_linear=0
shrinkage=0.025


Tree=32
num_leaves=5
num_cat=0
split_feature=3 0 0 3
split_gain=185544 24953.3 20031.6 9028.78
threshold=0.00064897537231445323 61.593750000000007 53.843750000000007 0.0022587776184082036
decision_type=2 2 2 2
left_child=1 -1 3 -2
right_child=2 -3 -4 -5
leaf_value=-0.022191488623103293 -0.0094229228186295949 -0.0038815266935715918 0.014668638500602491 0.0068519216530030028
leaf_weight=173982.53165142797 32402.374079588801 63763.959916859865 266166.47668130882 61873.482165507972
leaf_count=1816434 238038 412421 643290 190123
internal_value=0 -0.0172878 0.0111612 0.00124302
internal_weight=0 237746 360442 94275.9
internal_count=3300306 2228855 1071451 428161
is_linear=0
shrinkage=0.025


Tree=33
num_leaves=5
num_cat=0
split_feature=3 0 2 0
split_gain=176574 22454 20798.5 8792.63
threshold=0.00057172775268554698 83.031250000000014 0.0014367103576660158 502.71875000000006
decision_type=2 2 2 2
left_child=1 -1 3 -2
right_child=2 -3 -4 -5
leaf_value=-0.0219478164552235 -0.0014349735341041663 -0.0037671699587322445 0.014661276232788491 0.015122856651155613
leaf_weight=171785.75790891424 95902.200463466346 56654.898185897619 248093.33175633103 25259.102850712836
leaf_count=1826400 490101 358264 539767 85820
internal_value=0 -0.0174462 0.0105148 0.00201142
internal_weight=0 228441 369255 121161
internal_count=3300352 2184664 1115688 575921
is_linear=0
shrinkage=0.025


Tree=34
num_leaves=5
num_cat=0
split_feature=3 0 3 0
split_gain=169508 24720 18971.4 15103
threshold=0.00064897537231445323 83.031250000000014 0.01049470901489258 827.37500000000011
decision_type=2 2 2 2
left_child=1 -1 3 -2
right_child=2 -3 -4 -5
leaf_value=-0.021709640265630898 0.0033289262779404674 -0.0029121999617807816 0.019229385777978225 0.017480423228328833
leaf_weight=171253.49325852655 194960.2674397137 58949.856173757464 108806.75821159035 62274.779782105237
leaf_count=1856633 722091 371754 197789 151381
internal_value=0 -0.0169031 0.0104738 0.00676249
internal_weight=0 230203 366042 257235
internal_count=3299648 2228387 1071261 873472
is_linear=0
shrinkage=0.025


Tree=35
num_leaves=5
num_cat=0
split_feature=3 0 0 3
split_gain=162756 22792.3 18470.8 12152.5
threshold=0.00057172775268554698 61.593750000000007 124.90625000000001 0.0022587776184082036
decision_type=2 2 2 2
left_child=1 -1 3 -2
right_child=2 -3 -4 -5
leaf_value=-0.022009260122743457 -0.0075396543090915091 -0.0039704308925696671 0.014609092820571122 0.0078502597576390002
leaf_weight=160725.41568135098 45360.140102360398 60441.022302245721 220132.62656684592 108716.90695123002
leaf_count=1787488 324906 397563 493856 296452
internal_value=0 -0.0170872 0.00996137 0.0033104
internal_weight=0 221166 374210 154077
internal_count=3300265 2185051 1115214 621358
is_linear=0
shrinkage=0.025


Tree=36
num_leaves=5
num_cat=0
split_feature=3 0 0 3
split_gain=156037 22339.6 18297.5 9149.32
threshold=0.00057172775268554698 61.593750000000007 53.843750000000007 0.0022587776184082036
decision_type=2 2 2 2
left_child=1 -1 3 -2
right_child=2 -3 -4 -5
leaf_value=-0.02191875484489602 -0.010044497648008251 -0.0039822132831999896 0.012866853145002247 0.0059418614859879934
leaf_weight=157521.95968499035 34496.366549033672 60182.098818603903 279387.78789218888 63436.665894068778
leaf_count=1787781 265120 396945 660091 190143
internal_value=0 -0.0169682 0.00960783 0.000295746
internal_weight=0 217704 377321 97933
internal_count=3300080 2184726 1115354 455263
is_linear=0
shrinkage=0.025


Tree=37
num_leaves=5
num_cat=0
split_feature=3 0 3 0
split_gain=150428 22062.9 17968.9 12444.6
threshold=0.00057172775268554698 61.593750000000007 0.006527423858642579 827.37500000000011
decision_type=2 2 2 2
left_child=1 -1 3 -2
right_child=2 -3 -4 -5
leaf_value=-0.021872646239800623 0.00091989584229417104 -0.0039754944948543081 0.015227992847942849 0.015535060056451147
leaf_weight=154168.07433824986 157736.17066927254 60010.866998780519 174658.55313553661 47379.180619098246
leaf_count=1787317 673880 397287 317331 124381
internal_value=0 -0.016866 0.00933307 0.00430488
internal_weight=0 214179 379774 205115
internal_count=3300196 2184604 1115592 798261
is_linear=0
shrinkage=0.025


Tree=38
num_leaves=5
num_cat=0
split_feature=3 0 0 3
split_gain=144494 20555.2 16188.1 11939.9
threshold=0.00038194656372070318 61.593750000000007 97.531250000000014 0.0017704963684082033
decision_type=2 2 2 2
left_child=2 3 -1 -2
right_child=1 -3 -4 -5
leaf_value=-0.021710881595452106 -0.012293092195269997 0.012165360339515036 -0.0049114544568595805 0.0050793385310849764
leaf_weight=149263.60833763331 36055.715544598177 281996.74959121086 47494.189402066171 78370.833170149475
leaf_count=1753892 322134 670456 304777 249051
internal_value=0 0.00853948 -0.0176644 -0.00038676
internal_weight=0 396423 196758 114427
internal_count=3300310 1241641 2058669 571185
is_linear=0
shrinkage=0.025


Tree=39
num_leaves=5
num_cat=0
split_feature=3 0 0 3
split_gain=138002 19026.5 16461.2 10903.3
threshold=0.00038194656372070318 53.843750000000007 61.593750000000007 0.0022587776184082036
decision_type=2 2 2 2
left_child=2 3 -1 -2
right_child=1 -3 -4 -5
leaf_value=-0.021936343078770591 -0.010878123659711102 0.011546011970650983 -0.0055163763280755935 0.0055886631764417256
leaf_weight=140598.0015193373 41143.008453913033 293129.29106455855 52728.765141554177 64356.71381207183
leaf_count=1702274 348655 702640 356578 190119
internal_value=0 0.00826955 -0.0174669 -0.000823358
internal_weight=0 398629 193327 105500
internal_count=3300266 1241414 2058852 538774
is_linear=0
shrinkage=0.025


Tree=40
num_leaves=5
num_cat=0
split_feature=3 0 0 3
split_gain=134314 18565.6 16080.1 10773.7
threshold=0.00038194656372070318 61.593750000000007 61.593750000000007 0.0017704963684082033
decision_type=2 2 2 2
left_child=2 3 -1 -2
right_child=1 -3 -4 -5
leaf_value=-0.021863466359783212 -0.011849028717253808 0.01152604630063437 -0.0055665595753665057 0.004742421684531763
leaf_weight=137729.65189299546 35344.054666738957 286720.30083430186 52538.054696001112 79103.266747038811
leaf_count=1701589 322054 670155 356858 249325
internal_value=0 0.00812856 -0.0173727 -0.000373432
internal_weight=0 401168 190268 114447
internal_count=3299981 1241534 2058447 571379
is_linear=0
shrinkage=0.025


Tree=41
num_leaves=5
num_cat=0
split_feature=3 3 0 0
split_gain=127636 19161.8 14616.6 12992.2
threshold=0.00032854080200195318 0.0037388801574707036 44.656250000000007 558.15625000000011
decision_type=2 2 2 2
left_child=2 3 -1 -2
right_child=1 -3 -4 -5
leaf_value=-0.022043707039478635 -0.0035909929265238189 0.012008069639381631 -0.0064290242147216547 0.012218512992766606
leaf_weight=129006.27806342021 114173.6810962148 248556.27880875766 53227.358464159071 45334.349157437682
leaf_count=1630206 668482 477937 383387 140170
internal_value=0 0.00766852 -0.0174928 0.00089687
internal_weight=0 408064 182234 159508
internal_count=3300182 1286589 2013593 808652
is_linear=0
shrinkage=0.025


Tree=42
num_leaves=5
num_cat=0
split_feature=3 0 0 3
split_gain=122048 17645.1 14534.4 10120.2
threshold=0.00032854080200195318 53.843750000000007 66.218750000000014 0.0017704963684082033
decision_type=2 2 2 2
left_child=2 3 -1 -2
right_child=1 -3 -4 -5
leaf_value=-0.021736881166703539 -0.012192274000339468 0.010443707894957978 -0.0057000261436455863 0.004060185845734368
leaf_weight=130365.52694988251 35775.012143747881 302604.49487126805 48820.230859236792 72053.585265692323
leaf_count=1678903 340248 717506 334464 228801
internal_value=0 0.00734939 -0.0173773 -0.00132357
internal_weight=0 410433 179186 107829
internal_count=3299922 1286555 2013367 569049
is_linear=0
shrinkage=0.025


Tree=43
num_leaves=5
num_cat=0
split_feature=3 3 0 0
split_gain=116465 16750.5 14764.9 14331.3
threshold=0.00032854080200195318 0.01049470901489258 827.37500000000011 50.531250000000007
decision_type=2 2 2 2
left_child=3 2 -2 -1
right_child=1 -3 -4 -5
leaf_value=-0.021782797764476221 0.00069168835348994671 0.015046663415708657 0.013727458517332446 -0.0060468184987577224
leaf_weight=125017.18441655114 223059.84073865414 117428.44331136346 71831.692926552147 51305.171279218048
leaf_count=1646503 915389 197942 173452 366383
internal_value=0 0.00705976 0.00387306 -0.0172141
internal_weight=0 412320 294892 176322
internal_count=3299669 1286783 1088841 2012886
is_linear=0
shrinkage=0.025


Tree=44
num_leaves=5
num_cat=0
split_feature=3 3 0 0
split_gain=111817 15944.5 15863.9 12895.6
threshold=0.00038194656372070318 0.006527423858642579 44.656250000000007 754.53125000000011
decision_type=2 2 2 2
left_child=2 3 -1 -2
right_child=1 -3 -4 -5
leaf_value=-0.021690066448976336 -0.00094852470642652401 0.012450645035168221 -0.0054930187796435508 0.01278692296036716
leaf_weight=123424.55978543498 168262.87685939483 184427.86266879737 54856.750483810902 57144.531079154462
leaf_count=1658169 776628 317772 399556 147317
internal_value=0 0.00699845 -0.0167162 0.00253016
internal_weight=0 409835 178281 225407
internal_count=3299442 1241717 2057725 923945
is_linear=0
shrinkage=0.025


Tree=45
num_leaves=5
num_cat=0
split_feature=3 0 0 3
split_gain=107658 15387.9 14750.1 9543.59
threshold=0.00032854080200195318 53.843750000000007 44.656250000000007 0.0017704963684082033
decision_type=2 2 2 2
left_child=2 3 -1 -2
right_child=1 -3 -4 -5
leaf_value=-0.021733369035403769 -0.012071556954751324 0.0095541289255226328 -0.0057229034339579005 0.0037622863604028682
leaf_weight=118612.33333411813 35267.609240289778 308535.42939268611 52008.004673402756 72721.273261480033
leaf_count=1629854 340124 718272 383167 228883
internal_value=0 0.0067112 -0.0168635 -0.00140044
internal_weight=0 416524 170620 107989
internal_count=3300300 1287279 2013021 569007
is_linear=0
shrinkage=0.025


Tree=46
num_leaves=5
num_cat=0
split_feature=3 0 3 0
split_gain=103705 15882.3 14623.3 9262.77
threshold=0.00038194656372070318 50.531250000000007 0.0037388801574707036 502.71875000000006
decision_type=2 2 2 2
left_child=1 -1 3 -2
right_child=2 -3 -4 -5
leaf_value=-0.021414356062170903 -0.0034268047055989979 -0.0049375017305770255 0.010361318880115477 0.0097059259170880346
leaf_weight=119716.9411698021 107660.82442361489 52996.120546404272 257080.83366400003 48693.503050878644
leaf_count=1676107 621630 382131 477859 141679
internal_value=0 -0.0163686 0.00669483 0.000656931
internal_weight=0 172713 413435 156354
internal_count=3299406 2058238 1241168 763309
is_linear=0
shrinkage=0.025


Tree=47
num_leaves=5
num_cat=0
split_feature=3 0 0 3
split_gain=99147.4 15337.8 12498.4 8916.01
threshold=0.00025987625122070318 42.093750000000007 44.656250000000007 0.0017704963684082033
decision_type=2 2 2 2
left_child=2 3 -1 -2
right_child=1 -3 -4 -5
leaf_value=-0.021593758830184835 -0.012760768865637206 0.0086940271273416407 -0.0062882446904489065 0.0031191488913123672
leaf_weight=110856.813917391 34800.678157374263 331564.97448317707 48128.865098720416 60151.552603948861
leaf_count=1588729 353251 807241 359446 191963
internal_value=0 0.00615642 -0.0169717 -0.00269145
internal_weight=0 426517 158986 94952.2
internal_count=3300630 1352455 1948175 545214
is_linear=0
shrinkage=0.025


Tree=48
num_leaves=5
num_cat=0
split_feature=3 0 3 0
split_gain=95051.3 14242.2 13894.2 9175.62
threshold=0.00032854080200195318 47.406250000000007 0.0037388801574707036 453.90625000000006
decision_type=2 2 2 2
left_child=1 -1 3 -2
right_child=2 -3 -4 -5
leaf_value=-0.02137210309820111 -0.0038429445287938534 -0.0053563088388348685 0.0096563957565313913 0.0088428876538441895
leaf_weight=112209.96295274794 108506.69171581231 50625.382503477857 260177.67919289321 52988.230640094727
leaf_count=1639277 652915 375251 477741 155678
internal_value=0 -0.0164037 0.00608147 0.000313125
internal_weight=0 162835 421673 161495
internal_count=3300862 2014528 1286334 808593
is_linear=0
shrinkage=0.025


Tree=49
num_leaves=5
num_cat=0
split_feature=3 0 0 3
split_gain=93768.1 14887.4 11393.1 8595.55
threshold=0.0002398490905761719 42.093750000000007 47.406250000000007 0.0018773078918457033
decision_type=2 2 2 2
left_child=2 3 -1 -2
right_child=1 -3 -4 -5
leaf_value=-0.021479063029099844 -0.012297725112769525 0.0083552982773126058 -0.0065138287756596192 0.0030856334551235876
leaf_weight=105811.09977499582 36742.873517623171 336405.27995062433 45913.12474571541 59032.125759623945
leaf_count=1581027 375955 816218 344354 182688
internal_value=0 0.00587886 -0.0169623 -0.00280629
internal_weight=0 432180 151724 95775
internal_count=3300242 1374861 1925381 558643
is_linear=0
shrinkage=0.025


Tree=50
num_leaves=5
num_cat=0
split_feature=3 3 0 0
split_gain=88944.1 14171.2 12773.6 11521.1
threshold=0.0002398490905761719 0.011475563049316408 827.37500000000011 44.656250000000007
decision_type=2 2 2 2
left_child=3 2 -2 -1
right_child=1 -3 -4 -5
leaf_value=-0.02135704538663781 0.00012553954864418304 0.013395069080791992 0.011572375276114426 -0.0062673562532378482
leaf_weight=103163.26845806278 241941.04971215688 110417.55415672064 81490.748267944902 46053.405700998381
leaf_count=1573320 1008269 178183 188667 351314
internal_value=0 0.00566081 0.00301485 -0.0167119
internal_weight=0 433849 323432 149217
internal_count=3299753 1375119 1196936 1924634
is_linear=0
shrinkage=0.025


Tree=51
num_leaves=5
num_cat=0
split_feature=3 0 0 3
split_gain=85814 13539.1 12511.2 12365.4
threshold=0.00032854080200195318 149.78125000000003 453.90625000000006 0.0021252632141113286
decision_type=2 2 2 2
left_child=1 -1 3 -2
right_child=2 -3 -4 -5
leaf_value=-0.020162541854171861 -0.0068252217705995323 -0.0028135423704026509 0.011019676097391471 0.0055040089641241593
leaf_weight=118333.39312685281 69033.211107583717 37122.630001492798 166269.18568892404 191986.60023777932
leaf_count=1762436 515767 250608 334538 436796
internal_value=0 -0.0160299 0.00565885 0.00223777
internal_weight=0 155456 427289 261020
internal_count=3300145 2013044 1287101 952563
is_linear=0
shrinkage=0.025


Tree=52
num_leaves=5
num_cat=0
split_feature=3 0 0 3
split_gain=82433.6 12841.8 11707.8 7746.48
threshold=0.00025987625122070318 42.093750000000007 39.593750000000007 0.0017704963684082033
decision_type=2 2 2 2
left_child=2 3 -1 -2
right_child=1 -3 -4 -5
leaf_value=-0.021229859444454987 -0.012469192082404186 0.0076044439685789347 -0.0061019874175432497 0.0024795938684511638
leaf_weight=99080.055214112625 33453.000346785411 340198.77133040875 47664.565759286284 61033.130878802389
leaf_count=1572871 352609 807818 375194 191505
internal_value=0 0.00533914 -0.0163284 -0.00280363
internal_weight=0 434685 146745 94486.1
internal_count=3299997 1351932 1948065 544114
is_linear=0
shrinkage=0.025


Tree=53
num_leaves=5
num_cat=0
split_feature=3 3 0 0
split_gain=79172.9 12372.3 11883.8 9464.57
threshold=0.00025987625122070318 0.005264759063720704 44.656250000000007 502.71875000000006
decision_type=2 2 2 2
left_child=2 3 -1 -2
right_child=1 -3 -4 -5
leaf_value=-0.021029081243940685 -0.0027252248774237587 0.009352833915530278 -0.0056237143148863029 0.008527481619245738
leaf_weight=98129.64260243997 143656.56704660133 223753.25984916091 46374.835147138685 69127.782775178552
leaf_count=1587784 790424 377240 359332 184611
internal_value=0 0.0052486 -0.0160974 0.000925741
internal_weight=0 436538 144504 212784
internal_count=3299391 1352275 1947116 975035
is_linear=0
shrinkage=0.025


Tree=54
num_leaves=5
num_cat=0
split_feature=3 0 0 3
split_gain=76537.8 12145.1 11090.3 7289.14
threshold=0.0002398490905761719 42.093750000000007 44.656250000000007 0.0017704963684082033
decision_type=2 2 2 2
left_child=2 3 -1 -2
right_child=1 -3 -4 -5
leaf_value=-0.021003221033819002 -0.012123942933729568 0.0072300827027259214 -0.0059063586619907283 0.0022974856308915791
leaf_weight=95145.170434556901 34017.150758335367 344615.04566719383 45147.463490877301 61052.688136570156
leaf_count=1573449 367455 816005 351947 191270
internal_value=0 0.00504693 -0.0161577 -0.0028532
internal_weight=0 439685 140293 95069.8
internal_count=3300126 1374730 1925396 558725
is_linear=0
shrinkage=0.025


Tree=55
num_leaves=5
num_cat=0
split_feature=3 3 0 0
split_gain=73098.4 11300 10796.6 10763.7
threshold=0.0002398490905761719 0.01049470901489258 44.656250000000007 827.37500000000011
decision_type=2 2 2 2
left_child=2 3 -1 -2
right_child=1 -3 -4 -5
leaf_value=-0.02090301673431573 -0.00043697111698286369 0.011116452227429807 -0.0059196608541336841 0.010169303209488305
leaf_weight=93164.104357216507 234868.95044597797 126246.51154346764 44827.707669585943 80087.877758648247
leaf_count=1573314 994291 197983 351532 182905
internal_value=0 0.00479603 -0.0160485 0.00225723
internal_weight=0 441203 137992 314957
internal_count=3300025 1375179 1924846 1177196
is_linear=0
shrinkage=0.025


Tree=56
num_leaves=5
num_cat=0
split_feature=3 0 3 0
split_gain=70636.8 13247.3 8669.59 7802.91
threshold=0.00013017654418945315 42.093750000000007 0.0017704963684082033 39.593750000000007
decision_type=2 2 2 2
left_child=3 2 -2 -1
right_child=1 -3 -4 -5
leaf_value=-0.021146848293818798 -0.012649653628245367 0.0067305826248119293 0.00233012618387701 -0.0074812094830210094
leaf_weight=84561.05775873363 39547.001618448645 354668.85527475923 61599.151758749038 38358.174863323569
leaf_count=1459926 466993 868913 192143 312800
internal_value=0 0.00445357 -0.0035178 -0.0168973
internal_weight=0 455815 101146 122919
internal_count=3300775 1528049 659136 1772726
is_linear=0
shrinkage=0.025


Tree=57
num_leaves=5
num_cat=0
split_feature=3 0 3 0
split_gain=67705.9 11298 10620.6 9856.32
threshold=0.0002398490905761719 44.656250000000007 0.01049470901489258 827.37500000000011
decision_type=2 2 2 2
left_child=1 -1 3 -2
right_child=2 -3 -4 -5
leaf_value=-0.02076924771377546 -0.00042152288112959531 -0.0052970755196656699 0.010707399133632875 0.009676126340003862
leaf_weight=89580.914938522503 235902.93774805404 44394.220870470628 127572.45268373191 81068.958641394973
leaf_count=1573328 994738 351702 197806 182982
internal_value=0 -0.0156556 0.00461536 0.00215823
internal_weight=0 133975 444544 316972
internal_count=3300556 1925030 1375526 1177720
is_linear=0
shrinkage=0.025


Tree=58
num_leaves=5
num_cat=0
split_feature=3 3 0 0
split_gain=64962.4 11894.4 11077.5 7931.22
threshold=0.00013017654418945315 0.0025525093078613286 502.71875000000006 39.593750000000007
decision_type=2 2 2 2
left_child=3 2 -2 -1
right_child=1 -3 -4 -5
leaf_value=-0.020979791437446424 -0.0065450161785867407 0.0068473376531902512 0.0085600600921122618 -0.0070609983030646573
leaf_weight=81258.517932320945 97896.773273551837 316270.59527899697 43873.398070689291 37894.860185641795
leaf_count=1460371 778467 598213 150679 312751
internal_value=0 0.00414957 -0.00186029 -0.0165684
internal_weight=0 458041 141770 119153
internal_count=3300481 1527359 929146 1773122
is_linear=0
shrinkage=0.025


Tree=59
num_leaves=5
num_cat=0
split_feature=3 0 3 0
split_gain=62349.3 12481.8 9262.93 7435.94
threshold=0.00011873245239257814 53.843750000000007 0.0013203620910644533 28.343750000000004
decision_type=2 2 2 2
left_child=3 2 -2 -1
right_child=1 -3 -4 -5
leaf_value=-0.021024994970171532 -0.013412831429901914 0.0064678677167450448 0.0017029895854972004 -0.0075190512953454101
leaf_weight=76624.615059107542 36475.76750732027 342008.12188826129 82347.345730418339 38785.422993611544
leaf_count=1407225 466952 800512 281811 343361
internal_value=0 0.00404181 -0.00293037 -0.0165022
internal_weight=0 460831 118823 115410
internal_count=3299861 1549275 748763 1750586
is_linear=0
shrinkage=0.025


Tree=60
num_leaves=5
num_cat=0
split_feature=3 0 3 0
split_gain=60667.3 12149.2 9628.32 6780.4
threshold=0.00010728836059570314 61.593750000000007 0.0014014244079589846 37.406250000000007
decision_type=2 2 2 2
left_child=3 2 -2 -1
right_child=1 -3 -4 -5
leaf_value=-0.020863683133992585 -0.01285216525863727 0.0063791095433189775 0.0019008929008886147 -0.0076079767242873339
leaf_weight=76130.957060646266 39852.675759430043 334560.65105153807 89673.677426479757 35917.95650270395
leaf_count=1425455 508089 769838 292796 304529
internal_value=0 0.00386144 -0.00263189 -0.0166309
internal_weight=0 464087 129526 112049
internal_count=3300707 1570723 800885 1729984
is_linear=0
shrinkage=0.025


Tree=61
num_leaves=5
num_cat=0
split_feature=3 0 3 0
split_gain=57725.1 11297 10508.8 7697.51
threshold=0.00013017654418945315 124.90625000000001 0.0015788078308105471 39.593750000000007
decision_type=2 2 2 2
left_child=3 2 -2 -1
right_child=1 -3 -4 -5
leaf_value=-0.020616209364110957 -0.010762130576322974 0.007029066020001082 0.0026566439615118773 -0.0066848098596637142
leaf_weight=76427.835277062841 49837.152816182002 275608.24451741576 135454.89307821542 37226.58611868415
leaf_count=1459129 561022 591933 373623 312949
internal_value=0 0.00381975 -0.000947728 -0.016069
internal_weight=0 460900 185292 113654
internal_count=3298656 1526578 934645 1772078
is_linear=0
shrinkage=0.025


Tree=62
num_leaves=5
num_cat=0
split_feature=3 3 0 0
split_gain=55882.8 11128.6 9464.82 6811.35
threshold=0.00010728836059570314 0.0030856132507324223 502.71875000000006 44.656250000000007
decision_type=2 2 2 2
left_child=3 2 -2 -1
right_child=1 -3 -4 -5
leaf_value=-0.020529029945444893 -0.0056072431661470289 0.0065395147750333229 0.0071869635503607164 -0.0069912616572539946
leaf_weight=74102.665975929238 113197.25338567048 299860.94839479774 52976.040492523462 34399.808221384883
leaf_count=1443364 862598 538282 169861 286395
internal_value=0 0.00366321 -0.00152 -0.0162537
internal_weight=0 466034 166173 108502
internal_count=3300500 1570741 1032459 1729759
is_linear=0
shrinkage=0.025


Tree=63
num_leaves=5
num_cat=0
split_feature=3 0 0 3
split_gain=53991.4 10505 7493.31 6368.59
threshold=0.00013017654418945315 37.406250000000007 39.593750000000007 0.0013203620910644533
decision_type=2 2 2 2
left_child=2 3 -1 -2
right_child=1 -3 -4 -5
leaf_value=-0.020444607805217813 -0.013282978413573763 0.0055067371481757228 -0.0065471046063668636 0.00068262627685622716
leaf_weight=73466.546265723184 30373.2923996998 371860.92973972578 36735.890508982353 61518.172396186739
leaf_count=1459704 404292 905717 312718 218106
internal_value=0 0.00363502 -0.0158283 -0.0039246
internal_weight=0 463752 110202 91891.5
internal_count=3300537 1528115 1772422 622398
is_linear=0
shrinkage=0.025


Tree=64
num_leaves=5
num_cat=0
split_feature=3 0 3 0
split_gain=51830.2 10457.4 8493.17 6150.94
threshold=9.6797943115234389e-05 61.593750000000007 0.0014014244079589846 39.593750000000007
decision_type=2 2 2 2
left_child=3 2 -2 -1
right_child=1 -3 -4 -5
leaf_value=-0.020409528778911518 -0.01237663777209809 0.0056823191237085312 0.0015445812154677285 -0.0073002246916568127
leaf_weight=69803.386119892821 39170.988815859891 340116.94123389199 90396.755327928811 33536.156472226605
leaf_count=1415468 524851 776646 293304 290553
internal_value=0 0.00337896 -0.0026576 -0.0161729
internal_weight=0 469685 129568 103340
internal_count=3300822 1594801 818155 1706021
is_linear=0
shrinkage=0.025


Tree=65
num_leaves=5
num_cat=0
split_feature=3 3 0 0
split_gain=50333.6 9978.74 9010.86 6614.39
threshold=0.00010728836059570314 0.0025525093078613286 502.71875000000006 33.343750000000007
decision_type=2 2 2 2
left_child=3 2 -2 -1
right_child=1 -3 -4 -5
leaf_value=-0.020375152642032768 -0.0063100796682554515 0.005873076872287929 0.0070395580376322242 -0.0069791329193428361
leaf_weight=68208.377635588869 98289.558407964185 324039.61233901232 46456.218899365515 35386.363443238661
leaf_count=1412080 816857 598492 156112 317069
internal_value=0 0.00343459 -0.00201592 -0.0158169
internal_weight=0 468785 144746 103595
internal_count=3300610 1571461 972969 1729149
is_linear=0
shrinkage=0.025


Tree=66
num_leaves=5
num_cat=0
split_feature=3 0 3 0
split_gain=48194.7 9916.36 10896.4 5980.62
threshold=9.6797943115234389e-05 370.40625000000006 0.0015788078308105471 37.406250000000007
decision_type=2 2 2 2
left_child=3 2 -2 -1
right_child=1 -3 -4 -5
leaf_value=-0.020170777285072976 -0.0087663606580924199 0.0074464432036895727 0.0029525999522773678 -0.0071253516777388393
leaf_weight=66804.371664207429 65365.398209280334 201276.21600981429 204879.01285503805 33344.392702950165
leaf_count=1410804 687379 410111 495590 295759
internal_value=0 0.00324614 0.000112353 -0.0158455
internal_weight=0 471521 270244 100149
internal_count=3299643 1593080 1182969 1706563
is_linear=0
shrinkage=0.025


Tree=67
num_leaves=5
num_cat=0
split_feature=3 3 0 3
split_gain=46725.5 9452.09 9127.5 6038.3
threshold=9.6797943115234389e-05 0.011475563049316408 827.37500000000011 0.0014014244079589846
decision_type=2 2 2 2
left_child=-1 2 3 -2
right_child=1 -3 -4 -5
leaf_value=-0.015782286178597883 -0.0074555718113165212 0.0092439509481469766 0.0078368022896823358 0.0010415514925349568
leaf_weight=98560.017935771495 72108.453963649459 118643.61458517611 92411.938202403486 189013.89215807617
leaf_count=1704680 704518 177804 209160 501707
internal_value=0 0.0031383 0.00108473 -0.00130111
internal_weight=0 472178 353534 261122
internal_count=3297869 1593189 1415385 1206225
is_linear=0
shrinkage=0.025


Tree=68
num_leaves=5
num_cat=0
split_feature=3 0 3 0
split_gain=44789.5 8873.67 8883.74 7152.68
threshold=0.00013017654418945315 370.40625000000006 0.0013203620910644533 39.593750000000007
decision_type=2 2 2 2
left_child=3 2 -2 -1
right_child=1 -3 -4 -5
leaf_value=-0.019943526801198503 -0.0089730379529409376 0.0070939371666891519 0.0024213216539867933 -0.0059804540325511324
leaf_weight=66912.766172632575 53428.773621405475 200959.34859710932 213368.74609195814 35405.932029427961
leaf_count=1459629 583091 400294 543872 313046
internal_value=0 0.00312701 0.000133553 -0.0151293
internal_weight=0 467757 266798 102319
internal_count=3299932 1527257 1126963 1772675
is_linear=0
shrinkage=0.025


Tree=69
num_leaves=5
num_cat=0
split_feature=3 0 3 0
split_gain=43450.1 8828.75 6414.42 6328.53
threshold=9.6797943115234389e-05 42.093750000000007 0.0012440681457519533 39.593750000000007
decision_type=2 2 2 2
left_child=3 2 -2 -1
right_child=1 -3 -4 -5
leaf_value=-0.019919530792584923 -0.012902141039827604 0.0048952795212982691 0.00075206698643562916 -0.0062509654475361338
leaf_weight=63535.868553965352 30962.342096407898 373137.55187112 69623.79760623537 32293.598013725132
leaf_count=1416028 454337 890474 248541 290577
internal_value=0 0.00312202 -0.00344286 -0.0153321
internal_weight=0 473724 100586 95829.5
internal_count=3299957 1593352 702878 1706605
is_linear=0
shrinkage=0.025


Tree=70
num_leaves=5
num_cat=0
split_feature=3 0 0 3
split_gain=41742.4 8546.62 5880.58 5841.78
threshold=9.6797943115234389e-05 37.406250000000007 25.281250000000004 0.0012440681457519533
decision_type=2 2 2 2
left_child=2 3 -1 -2
right_child=1 -3 -4 -5
leaf_value=-0.020059298376090225 -0.013114874049278656 0.0045244986134525978 -0.0070102178312856454 0.00033986786189825913
leaf_weight=60014.76137897931 29470.301309189759 382172.67230108473 34362.826272996143 63118.554886713624
leaf_count=1366230 437717 928654 340040 227928
internal_value=0 0.00287204 -0.0153276 -0.00393394
internal_weight=0 474762 94377.6 92588.9
internal_count=3300569 1594299 1706270 665645
is_linear=0
shrinkage=0.025


Tree=71
num_leaves=5
num_cat=0
split_feature=3 3 0 0
split_gain=40411.7 8549.88 7528.37 6320.21
threshold=0.00010728836059570314 0.011475563049316408 827.37500000000011 28.343750000000004
decision_type=2 2 2 2
left_child=3 2 -2 -1
right_child=1 -3 -4 -5
leaf_value=-0.019858876246589878 -0.0012154936473671716 0.0086873172975269908 0.0070484257226065888 -0.0063672322702966553
leaf_weight=60133.860970769078 260175.56006555632 120306.01277764142 93594.763565905392 34545.341868963093
leaf_count=1393742 1186163 177707 206868 334788
internal_value=0 0.00293027 0.000967993 -0.0149554
internal_weight=0 474076 353770 94679.2
internal_count=3299268 1570738 1393031 1728530
is_linear=0
shrinkage=0.025


Tree=72
num_leaves=5
num_cat=0
split_feature=3 0 3 0
split_gain=38487.1 8203.17 8918.41 5962.9
threshold=9.6797943115234389e-05 453.90625000000006 0.0021252632141113286 37.406250000000007
decision_type=2 2 2 2
left_child=3 2 -2 -1
right_child=1 -3 -4 -5
leaf_value=-0.019588794200645809 -0.0068129160706190562 0.0067986536559435417 0.0029084665166230631 -0.0061340330148627591
leaf_weight=59722.062521997839 82913.245879312977 189668.87909160554 203954.86449314281 31978.130579323508
leaf_count=1410370 781176 375469 437155 296302
internal_value=0 0.0027654 9.36493e-05 -0.0149163
internal_weight=0 476537 286868 91700.2
internal_count=3300472 1593800 1218331 1706672
is_linear=0
shrinkage=0.025


Tree=73
num_leaves=5
num_cat=0
split_feature=3 3 0 0
split_gain=37449.9 7903.89 7496.23 5853.58
threshold=9.6797943115234389e-05 0.0088629722595214861 827.37500000000011 19.156250000000004
decision_type=2 2 2 2
left_child=3 2 -2 -1
right_child=1 -3 -4 -5
leaf_value=-0.019879722873035705 -0.001813845617576973 0.0072766825725875013 0.0069460907942466392 -0.0067549973245823363
leaf_weight=55134.877849962562 234044.00166473538 160813.36294128001 82519.921464137733 35216.113317908719
leaf_count=1331079 1164738 237998 191997 375458
internal_value=0 0.00276373 0.000466429 -0.0147845
internal_weight=0 477377 316564 90351
internal_count=3301270 1594733 1356735 1706537
is_linear=0
shrinkage=0.025


Tree=74
num_leaves=5
num_cat=0
split_feature=3 3 0 3
split_gain=36087.6 7740.54 6723.17 5930.58
threshold=9.6797943115234389e-05 0.012617588043212892 502.71875000000006 0.0011105537414550783
decision_type=2 2 2 2
left_child=-1 2 3 -2
right_child=1 -3 -4 -5
leaf_value=-0.014619053014641933 -0.0089210680765464002 0.0086107671307316773 0.0054638899047111953 0.00057383802126384942
leaf_weight=89136.970595669933 52853.818865650333 107471.08191379905 133854.27291782573 183616.41596057266
leaf_count=1706270 608160 157052 290250 538632
internal_value=0 0.00270414 0.00098569 -0.00154454
internal_weight=0 477796 370325 236470
internal_count=3300364 1594094 1437042 1146792
is_linear=0
shrinkage=0.025


Tree=75
num_leaves=5
num_cat=0
split_feature=0 3 0 3
split_gain=33822.6 8195.44 6796.91 6793.32
threshold=11.031250000000002 0.007023334503173829 827.37500000000011 0.00087785720825195323
decision_type=2 2 2 2
left_child=3 2 -2 -1
right_child=1 -3 -4 -5
leaf_value=-0.019052396797573968 -0.0026452774810433489 0.0063527411232493503 0.0058789906568681386 -0.0019831825281499409
leaf_weight=62102.307881155983 210095.43868007138 194625.11563833058 80927.52557118237 19272.666610151529
leaf_count=1446790 1220364 289398 251106 93587
internal_value=0 0.00238192 -0.000269956 -0.0150288
internal_weight=0 485648 291023 81375
internal_count=3301245 1760868 1471470 1540377
is_linear=0
shrinkage=0.025


Tree=76
num_leaves=5
num_cat=0
split_feature=3 0 3 1
split_gain=33188.8 7658.97 5568.04 4883.5
threshold=6.9141387939453139e-05 37.406250000000007 0.0012440681457519533 27571538.000000004
decision_type=2 2 2 2
left_child=3 2 -2 -1
right_child=1 -3 -4 -5
leaf_value=-0.01975848576362519 -0.012903081597155613 0.0038983719317378443 0.00012647074253500888 -0.0072561008133055277
leaf_weight=49618.966509611346 30122.989011766389 389549.86060039885 63349.111985744908 32966.05781219434
leaf_count=1100778 481778 950239 227505 539059
internal_value=0 0.00235472 -0.00406381 -0.0147904
internal_weight=0 483022 93472.1 82585
internal_count=3299359 1659522 709283 1639837
is_linear=0
shrinkage=0.025


Tree=77
num_leaves=5
num_cat=0
split_feature=3 3 0 0
split_gain=31658.4 6616.43 6218.76 5881.37
threshold=9.6797943115234389e-05 0.012617588043212892 827.37500000000011 39.593750000000007
decision_type=2 2 2 2
left_child=3 2 -2 -1
right_child=1 -3 -4 -5
leaf_value=-0.019040454098477478 -0.0012200539580908038 0.0077649965580621448 0.0060510271209041457 -0.005288836393203579
leaf_weight=55040.534734119661 270236.68529732712 108923.5862609148 100867.51107562333 30562.083483666182
leaf_count=1415323 1221212 157528 215414 290197
internal_value=0 0.00234768 0.000753434 -0.0141514
internal_weight=0 480028 371104 85602.6
internal_count=3299674 1594154 1436626 1705520
is_linear=0
shrinkage=0.025


Tree=78
num_leaves=5
num_cat=0
split_feature=3 0 3 0
split_gain=31160.6 6487.36 6893.59 5840.88
threshold=9.6797943115234389e-05 105.40625000000001 0.0010457038879394533 165.15625000000003
decision_type=2 2 2 2
left_child=3 2 -2 -1
right_child=1 -3 -4 -5
leaf_value=-0.017865101340067253 -0.011445829348266255 0.0046065233874395027 0.0010439248409456336 -0.0027003941132166874
leaf_weight=63030.275455689989 34438.572160374373 307715.59016818553 138059.57555931248 21511.88551207073
leaf_count=1528214 506134 644717 443611 177376
internal_value=0 0.00243024 -0.00144495 -0.0140251
internal_weight=0 480214 172498 84542.2
internal_count=3300052 1594462 949745 1705590
is_linear=0
shrinkage=0.025


Tree=79
num_leaves=5
num_cat=0
split_feature=3 3 0 0
split_gain=29840.1 6625.98 5884.06 4914.38
threshold=6.9141387939453139e-05 0.012617588043212892 827.37500000000011 19.156250000000004
decision_type=2 2 2 2
left_child=3 2 -2 -1
right_child=1 -3 -4 -5
leaf_value=-0.019260295005092198 -0.0012129058119068068 0.0076900866466049576 0.0058129856417822069 -0.0064111398406404806
leaf_weight=48299.116225104779 273596.262107227 109408.8890889287 102253.82536268234 30928.836716541089
leaf_count=1294521 1282713 157387 220656 345690
internal_value=0 0.00227594 0.000695753 -0.0142672
internal_weight=0 485259 375850 79228
internal_count=3300967 1660756 1503369 1640211
is_linear=0
shrinkage=0.025


Tree=80
num_leaves=5
num_cat=0
split_feature=3 3 0 0
split_gain=29022.1 6306.23 5538.7 5515.53
threshold=9.6797943115234389e-05 0.012617588043212892 25.281250000000004 827.37500000000011
decision_type=2 2 2 2
left_child=2 3 -1 -2
right_child=1 -3 -4 -5
leaf_value=-0.018997462929707568 -0.0011699775311147394 0.0075237110845199065 -0.0056299722864010665 0.0056502839674726479
leaf_weight=50177.192718765698 269635.24856295716 109764.12652948499 32143.407670652494 102068.30438729003
leaf_count=1365793 1221295 157442 340040 215520
internal_value=0 0.00225886 -0.0137997 0.000699985
internal_weight=0 481468 82320.6 371704
internal_count=3300090 1594257 1705833 1436815
is_linear=0
shrinkage=0.025


Tree=81
num_leaves=5
num_cat=0
split_feature=0 3 3 1
split_gain=28250.1 6250.31 6112.21 5113.06
threshold=11.031250000000002 0.00087785720825195323 0.0037388801574707036 27077478.000000004
decision_type=2 2 2 2
left_child=1 -1 3 -2
right_child=2 -3 -4 -5
leaf_value=-0.018451430804200693 -0.0057018820274594706 -0.0018814163957089052 0.0045443380170854357 0.0022693391069495391
leaf_weight=56415.942427630536 87456.041597872041 19269.181701602414 282475.17911010981 117977.3886110317
leaf_count=1446348 707219 93512 456818 596360
internal_value=0 -0.0142533 0.00215753 -0.00111861
internal_weight=0 75685.1 487909 205433
internal_count=3300257 1539860 1760397 1303579
is_linear=0
shrinkage=0.025


Tree=82
num_leaves=5
num_cat=0
split_feature=0 3 1 3
split_gain=26612.9 6378.7 7192 5131.97
threshold=9.5937500000000018 0.0025525093078613286 27077478.000000004 0.00087785720825195323
decision_type=2 2 2 2
left_child=3 2 -2 -1
right_child=1 -3 -4 -5
leaf_value=-0.018235696770640734 -0.0081618695071824822 0.004000167977515289 0.0024099485078256785 -0.0021734233379652416
leaf_weight=53552.272548498586 69220.716717727482 328144.1655446291 95600.373620809987 16444.306850513443
leaf_count=1406561 681580 570083 560927 81148
internal_value=0 0.00198364 -0.0020235 -0.0144843
internal_weight=0 492965 164821 69996.6
internal_count=3300299 1812590 1242507 1487709
is_linear=0
shrinkage=0.025


Tree=83
num_leaves=5
num_cat=0
split_feature=3 3 0 0
split_gain=25885.8 5322.38 5006.38 4922.27
threshold=8.7261199951171889e-05 0.012617588043212892 21.406250000000004 502.71875000000006
decision_type=2 2 2 2
left_child=2 3 -1 -2
right_child=1 -3 -4 -5
leaf_value=-0.018721500512778808 -0.0015859215706198423 0.0068478682969142961 -0.0057537225022132495 0.0043651407076052114
leaf_weight=46385.085492944345 236231.29801789857 110474.07885448635 31712.021446488798 137216.34849298745
leaf_count=1332999 1166830 157276 350577 292617
internal_value=0 0.00202763 -0.0134789 0.00059763
internal_weight=0 483922 78097.1 373448
internal_count=3300299 1616723 1683576 1459447
is_linear=0
shrinkage=0.025


Tree=84
num_leaves=5
num_cat=0
split_feature=3 0 3 1
split_gain=25275.1 5521.33 5064.91 4898.72
threshold=6.9141387939453139e-05 37.406250000000007 0.00087785720825195323 27571538.000000004
decision_type=2 2 2 2
left_child=3 2 -2 -1
right_child=1 -3 -4 -5
leaf_value=-0.01901787194414677 -0.013598438061619644 0.0032884680193832859 -7.4240589183742749e-05 -0.0058982756742446841
leaf_weight=43714.471991685219 23188.093288186006 396030.58001895715 68556.842613810673 30639.764513740316
leaf_count=1101031 421602 950905 288105 538893
internal_value=0 0.00200667 -0.00351158 -0.013636
internal_weight=0 487776 91744.9 74354.2
internal_count=3300536 1660612 709707 1639924
is_linear=0
shrinkage=0.025


Tree=85
num_leaves=5
num_cat=0
split_feature=0 3 0 3
split_gain=24398.8 5474.38 5189.27 4726.86
threshold=9.5937500000000018 0.0037388801574707036 754.53125000000011 0.00087785720825195323
decision_type=2 2 2 2
left_child=3 2 -2 -1
right_child=1 -3 -4 -5
leaf_value=-0.017884973505017134 -0.0037541652793891957 0.0041380602342779424 0.0048812867582262737 -0.0023386800738153975
leaf_weight=51026.937001176178 146376.15478940774 286393.21111445874 61741.106022983789 16344.587693858892
leaf_count=1406185 1126157 460407 226268 81230
internal_value=0 0.00189508 -0.00118577 -0.0141365
internal_weight=0 494510 208117 67371.5
internal_count=3300247 1812832 1352425 1487415
is_linear=0
shrinkage=0.025


Tree=86
num_leaves=5
num_cat=0
split_feature=3 0 3 1
split_gain=23254.2 5329.61 5364.26 4371.7
threshold=5.3882598876953132e-05 42.093750000000007 0.0012440681457519533 27571538.000000004
decision_type=2 2 2 2
left_child=3 2 -2 -1
right_child=1 -3 -4 -5
leaf_value=-0.018928948297383792 -0.012129130758874028 0.0030600323207746853 0.00040599724688723468 -0.0061502424719917142
leaf_weight=40989.772993991151 30510.158031716943 390662.43844118062 70098.246527045965 28967.022147975862
leaf_count=1069567 533751 925114 248677 522270
internal_value=0 0.00173696 -0.00338708 -0.0136637
internal_weight=0 491271 100608 69956.8
internal_count=3299379 1707542 782428 1591837
is_linear=0
shrinkage=0.025


Tree=87
num_leaves=5
num_cat=0
split_feature=3 0 3 1
split_gain=22699.2 5178.24 4540.33 4346.12
threshold=5.3882598876953132e-05 31.593750000000004 0.00087785720825195323 27571538.000000004
decision_type=2 2 2 2
left_child=3 2 -2 -1
right_child=1 -3 -4 -5
leaf_value=-0.018685552719764072 -0.013476457130854855 0.0030621911352103869 -0.00019001343223345527 -0.0058752917368053272
leaf_weight=40308.540833619423 22164.854837472551 411144.24147164635 58884.266450366005 28761.463375064544
leaf_count=1071109 428767 1026694 252624 522014
internal_value=0 0.00192198 -0.003845 -0.0133774
internal_weight=0 492193 81049.1 69070
internal_count=3301208 1708085 681391 1593123
is_linear=0
shrinkage=0.025


Tree=88
num_leaves=5
num_cat=0
split_feature=0 3 0 3
split_gain=22246.7 5190.31 4567.61 4420.17
threshold=9.5937500000000018 0.005642414093017579 754.53125000000011 0.00053453445434570323
decision_type=2 2 2 2
left_child=3 2 -2 -1
right_child=1 -3 -4 -5
leaf_value=-0.017958145171371103 -0.0028327022194897205 0.0044603379479451121 0.0043583589775560557 -0.003491494462109486
leaf_weight=46229.768683555536 183166.75913451612 233292.25020819157 78898.318493336439 18831.465782603249
leaf_count=1370429 1212260 347571 252788 117606
internal_value=0 0.0017478 -0.000662546 -0.013796
internal_weight=0 495357 262065 65061.2
internal_count=3300654 1812619 1465048 1488035
is_linear=0
shrinkage=0.025


Tree=89
num_leaves=5
num_cat=0
split_feature=3 0 3 1
split_gain=21057.9 5068.97 5955.3 4168.11
threshold=5.3882598876953132e-05 124.90625000000001 0.00098848342895507834 27571538.000000004
decision_type=2 2 2 2
left_child=3 2 -2 -1
right_child=1 -3 -4 -5
leaf_value=-0.018521636643288025 -0.010653344663981294 0.0036965318040646923 0.00062734681864104751 -0.005840652021199935
leaf_weight=39013.355344193056 36040.600084145553 302577.24383200146 153444.50587227009 28393.853264519013
leaf_count=1070651 592278 631649 483790 521760
internal_value=0 0.00168758 -0.00151392 -0.0132069
internal_weight=0 492062 189485 67407.2
internal_count=3300128 1707717 1076068 1592411
is_linear=0
shrinkage=0.025


Tree=90
num_leaves=5
num_cat=0
split_feature=0 3 3 0
split_gain=20582.6 5056.33 4368.29 4584.73
threshold=11.031250000000002 0.00087785720825195323 0.006527423858642579 827.37500000000011
decision_type=2 2 2 2
left_child=1 -1 3 -2
right_child=2 -3 -4 -5
leaf_value=-0.017215776742731597 -0.0023924298303698664 -0.0020092805908517421 0.0044034787843532722 0.0046748451104772458
leaf_weight=49019.140343860723 199173.18949446548 19232.16823303327 211560.6446402669 80488.610048525035
leaf_count=1446705 1206451 93870 307768 245779
internal_value=0 -0.0129537 0.00169295 -0.000353478
internal_weight=0 68251.3 491222 279662
internal_count=3300573 1540575 1759998 1452230
is_linear=0
shrinkage=0.025


Tree=91
num_leaves=5
num_cat=0
split_feature=0 3 0 3
split_gain=19535.5 4429.19 4485.65 4338.31
threshold=9.5937500000000018 0.012617588043212892 827.37500000000011 0.00053453445434570323
decision_type=2 2 2 2
left_child=3 2 -2 -1
right_child=1 -3 -4 -5
leaf_value=-0.017498679512786136 -0.0014179391144809629 0.0059797910765459561 0.0045054323328511418 -0.003050548924406643
leaf_weight=43998.074372932315 271899.06150296424 111529.71628980339 113053.76767969504 18775.161171158776
leaf_count=1370002 1368458 154913 289654 117940
internal_value=0 0.00159345 0.000318762 -0.0132031
internal_weight=0 496483 384953 62773.2
internal_count=3300967 1813025 1658112 1487942
is_linear=0
shrinkage=0.025


Tree=92
num_leaves=5
num_cat=0
split_feature=0 3 3 0
split_gain=18819.4 4404.4 4223.22 4279
threshold=9.5937500000000018 0.00073480606079101573 0.007023334503173829 827.37500000000011
decision_type=2 2 2 2
left_child=1 -1 3 -2
right_child=2 -3 -4 -5
leaf_value=-0.017131424643910428 -0.0022246698110842361 -0.0021515333247509216 0.0043793189939065743 0.0044375056712931907
leaf_weight=44813.643927763216 209907.58908143826 17181.286617510021 202256.24425999075 84422.410288318992
leaf_count=1394537 1272074 93829 290255 250805
internal_value=0 -0.0130051 0.0015982 -0.000309089
internal_weight=0 61994.9 496586 294330
internal_count=3301500 1488366 1813134 1522879
is_linear=0
shrinkage=0.025


Tree=93
num_leaves=5
num_cat=0
split_feature=3 1 3 0
split_gain=18475.1 4328.88 3915.24 4543.43
threshold=5.3882598876953132e-05 27571538.000000004 0.0025525093078613286 42.093750000000007
decision_type=2 2 2 2
left_child=1 -1 3 -2
right_child=2 -3 -4 -5
leaf_value=-0.018215082092347106 -0.0084649183627679581 -0.0050630952278203547 0.0030622713664538344 0.0010487776425328822
leaf_weight=36995.0598963378 44564.539826590568 27711.631990334019 343893.16126709431 105125.87706310488
leaf_count=1071205 640576 521768 598373 468559
internal_value=0 -0.0126101 0.00159206 -0.00177709
internal_weight=0 64706.7 493584 149690
internal_count=3300481 1592973 1707508 1109135
is_linear=0
shrinkage=0.025


Tree=94
num_leaves=5
num_cat=0
split_feature=0 3 3 0
split_gain=17934.4 4264.62 3935.23 4021.31
threshold=9.5937500000000018 0.00087785720825195323 0.012617588043212892 827.37500000000011
decision_type=2 2 2 2
left_child=1 -1 3 -2
right_child=2 -3 -4 -5
leaf_value=-0.01685210697016962 -0.0012945346994555395 -0.0017384459246791762 0.0056818020611427 0.0043003375145625805
leaf_weight=44350.200350201689 270990.10421407968 16105.11345977895 112270.99772855639 113979.70707951859
leaf_count=1405532 1367656 81052 155023 289227
internal_value=0 -0.0128513 0.00156384 0.000359061
internal_weight=0 60455.3 497241 384970
internal_count=3298490 1486584 1811906 1656883
is_linear=0
shrinkage=0.025


Tree=95
num_leaves=5
num_cat=0
split_feature=3 3 0 3
split_gain=17246.3 3852.5 3684.18 4011.35
threshold=4.2438507080078132e-05 0.012617588043212892 502.71875000000006 0.0011105537414550783
decision_type=2 2 2 2
left_child=-1 2 3 -2
right_child=1 -3 -4 -5
leaf_value=-0.012611532532111275 -0.0075677149293965438 0.0055067995286221545 0.0034440266565040956 0.00012813459795061994
leaf_weight=60975.036719449796 54716.85710410215 113914.86060678959 143052.42996999249 185090.67666443065
leaf_count=1548932 747012 157439 307810 538756
internal_value=0 0.00147123 0.000266672 -0.00162383
internal_weight=0 496775 382860 239808
internal_count=3299949 1751017 1593578 1285768
is_linear=0
shrinkage=0.025


Tree=96
num_leaves=5
num_cat=0
split_feature=0 3 1 1
split_gain=16313.7 4815.43 6071.91 2960.96
threshold=4.3437500000000009 0.0025525093078613286 27077478.000000004 13498850.000000002
decision_type=2 2 2 2
left_child=-1 2 -2 -3
right_child=1 3 -4 -5
leaf_value=-0.014972712147195569 -0.0076925002353875008 0.0098717600181280341 0.0017620492783681028 0.0020505308266740006
leaf_weight=42681.562567809131 74246.596752021927 33652.44303670153 98675.469978798181 307564.84301012009
leaf_count=1244986 845811 79754 623635 506973
internal_value=0 0.00110302 -0.00229122 0.00282689
internal_weight=0 514139 172922 341217
internal_count=3301159 2056173 1469446 586727
is_linear=0
shrinkage=0.025


Tree=97
num_leaves=5
num_cat=0
split_feature=3 1 0 3
split_gain=16449.2 3998.4 3514.93 4737.81
threshold=5.3882598876953132e-05 27328589.000000004 124.90625000000001 0.0010457038879394533
decision_type=2 2 2 2
left_child=1 -1 3 -2
right_child=2 -3 -4 -5
leaf_value=-0.017845029038025182 -0.0093847928225285343 -0.004988054979984829 0.0031698100349548093 0.00074055666102087493
leaf_weight=34346.105150080752 35538.604383942671 27656.855727615766 306190.96989121102 152448.41685341112
leaf_count=1055270 606137 535413 631161 470335
internal_value=0 -0.0121389 0.00151685 -0.00116896
internal_weight=0 62003 494178 187987
internal_count=3298316 1590683 1707633 1076472
is_linear=0
shrinkage=0.025


Tree=98
num_leaves=5
num_cat=0
split_feature=0 3 1 3
split_gain=15671.6 4305.03 5851.94 2731.31
threshold=4.3437500000000009 0.0025525093078613286 27077478.000000004 0.00064897537231445323
decision_type=2 2 2 2
left_child=-1 2 3 -2
right_child=1 -3 -4 -5
leaf_value=-0.014838720276587745 -0.012812445308251258 0.0027278604061444596 0.0018498567023695622 -0.0030614140401779804
leaf_weight=41592.517832795624 32955.17811232619 342590.41945237294 98662.647546900436 40417.409153327346
leaf_count=1245197 587313 586598 622536 258311
internal_value=0 0.00110607 -0.00211616 -0.00746384
internal_weight=0 514626 172035 73372.6
internal_count=3299955 2054758 1468160 845624
is_linear=0
shrinkage=0.025


Tree=99
num_leaves=5
num_cat=0
split_feature=3 1 3 0
split_gain=14983.6 3868.73 3650.41 3101.78
threshold=5.3882598876953132e-05 27571538.000000004 0.012617588043212892 906.03125000000011
decision_type=2 2 2 2
left_child=1 -1 3 -2
right_child=2 -3 -4 -5
leaf_value=-0.017451905670098324 -0.0012257981832529564 -0.0046622247260548148 0.0052066708091690426 0.0039078841140663496
leaf_weight=34008.121601835825 280469.77157435659 26773.502587608993 114791.65719032288 99632.418151918799
leaf_count=1070028 1340440 521883 157500 209450
internal_value=0 -0.0118472 0.00130041 0.000116892
internal_weight=0 60781.6 494894 380102
internal_count=3299301 1591911 1707390 1549890
is_linear=0
shrinkage=0.025


Tree=100
num_leaves=5
num_cat=0
split_feature=0 3 1 3
split_gain=14670.8 3876.09 4865.33 3371.51
threshold=4.3437500000000009 0.0030856132507324223 27077478.000000004 0.0011105537414550783
decision_type=2 2 2 2
left_child=-1 2 3 -2
right_child=1 -3 -4 -5
leaf_value=-0.014464894880275593 -0.011033451009024402 0.0028154997094202417 0.0017604318611653587 -0.00088425594613527985
leaf_weight=40615.738789301366 43555.937827185262 321578.10345195234 110508.03835543757 39094.128379805014
leaf_count=1244402 688981 529132 647116 189565
internal_value=0 0.00113287 -0.00166198 -0.00625135
internal_weight=0 514736 193158 82650.1
internal_count=3299196 2054794 1525662 878546
is_linear=0
shrinkage=0.025


Tree=101
num_leaves=5
num_cat=0
split_feature=0 3 1 1
split_gain=14549 3634.19 5181.13 2927.32
threshold=4.3437500000000009 0.0025525093078613286 27077478.000000004 13498850.000000002
decision_type=2 2 2 2
left_child=-1 2 -2 -3
right_child=1 3 -4 -5
leaf_value=-0.014561634931526455 -0.0069912204360913742 0.0094969060317732622 0.001803396475345052 0.001782527478583201
leaf_weight=40053.651041900739 72241.473489525262 34222.752380993217 99096.242354747374 309455.50158338249
leaf_count=1244626 845613 79662 623160 507118
internal_value=0 0.00107138 -0.00189836 0.00255562
internal_weight=0 515016 171338 343678
internal_count=3300179 2055553 1468773 586780
is_linear=0
shrinkage=0.025


Tree=102
num_leaves=5
num_cat=0
split_feature=3 1 3 0
split_gain=13567 3324.52 2932 2572.46
threshold=4.2438507080078132e-05 22035030.000000004 0.013855457305908205 827.37500000000011
decision_type=2 2 2 2
left_child=1 -1 3 -2
right_child=2 -3 -4 -5
leaf_value=-0.019650498973394076 -0.0010400568471959253 -0.0070145845138435206 0.005009046301290042 0.003407545663576983
leaf_weight=20835.600424070843 283166.31199019635 36107.652696112171 100858.51927261055 113884.92415415868
leaf_count=740347 1378719 808516 138410 234384
internal_value=0 -0.0116732 0.00120318 0.000232755
internal_weight=0 56943.3 497910 397051
internal_count=3300376 1548863 1751513 1613103
is_linear=0
shrinkage=0.025


Tree=103
num_leaves=5
num_cat=0
split_feature=0 3 3 0
split_gain=13447.8 4720.29 2961.48 2755.31
threshold=11.031250000000002 0.00073480606079101573 0.022485733032226566 827.37500000000011
decision_type=2 2 2 2
left_child=1 -1 3 -2
right_child=2 -3 -4 -5
leaf_value=-0.01615751594362997 -0.00061564731833363721 -0.0011375209432358477 0.0075844039319578165 0.0036053831965621903
leaf_weight=40234.920562196989 312308.99063004274 19648.639341371134 42595.463151425123 139710.53698181361
leaf_count=1432107 1381010 108041 58939 320307
internal_value=0 -0.0112552 0.00128375 0.000686481
internal_weight=0 59883.6 494615 452020
internal_count=3300404 1540148 1760256 1701317
is_linear=0
shrinkage=0.025


Tree=104
num_leaves=5
num_cat=0
split_feature=3 1 3 0
split_gain=12520.2 3529.57 2944.15 2556.92
threshold=4.2438507080078132e-05 27571538.000000004 0.022485733032226566 53.843750000000007
decision_type=2 2 2 2
left_child=1 -1 3 -2
right_child=2 -3 -4 -5
leaf_value=-0.016990696695192795 -0.0027044729644975221 -0.0042670436038723019 0.0074297357001359325 0.0016420565639489748
leaf_weight=30802.735788354184 112068.52288055094 25049.694949856028 42793.023415878415 343210.11619778257
leaf_count=1042916 886856 506221 59455 804479
internal_value=0 -0.0113154 0.00116185 0.000569217
internal_weight=0 55852.4 498072 455279
internal_count=3299927 1549137 1750790 1691335
is_linear=0
shrinkage=0.025


Tree=105
num_leaves=5
num_cat=0
split_feature=0 0 3 1
split_gain=12304.2 3042.5 5403.12 4356.19
threshold=4.3437500000000009 370.40625000000006 0.0011105537414550783 27077478.000000004
decision_type=2 2 2 2
left_child=-1 2 -2 -3
right_child=1 3 -4 -5
leaf_value=-0.013773993690366774 -0.007504980547119385 -0.0059592042840628271 0.0009584030884858259 0.0043079090846385509
leaf_weight=38254.295501608867 59811.424268796109 29408.399894116446 221244.27940292284 205179.75440369174
leaf_count=1245067 959902 90747 563886 441100
internal_value=0 0.00091167 -0.000839256 0.00301448
internal_weight=0 515644 281056 234588
internal_count=3300702 2055635 1523788 531847
is_linear=0
shrinkage=0.025


Tree=106
num_leaves=5
num_cat=0
split_feature=0 3 0 3
split_gain=11969.6 3235.16 2828.98 3049.09
threshold=4.3437500000000009 0.007023334503173829 754.53125000000011 0.00057172775268554698
decision_type=2 2 2 2
left_child=-1 2 3 -2
right_child=1 -3 -4 -5
leaf_value=-0.013653797396870268 -0.0074674493945866977 0.0033161178330542262 0.002931618049070348 -0.00056678388543370364
leaf_weight=37773.259849176276 53445.711357230786 208956.63201838732 92532.316022261977 160810.07325065602
leaf_count=1245597 863558 294800 268468 627942
internal_value=0 0.00091627 -0.000714492 -0.00229532
internal_weight=0 515745 306788 214256
internal_count=3300365 2054768 1759968 1491500
is_linear=0
shrinkage=0.025


Tree=107
num_leaves=5
num_cat=0
split_feature=3 1 0 1
split_gain=11655.2 3778.67 2545.06 3799.31
threshold=5.3882598876953132e-05 27571538.000000004 370.40625000000006 27077478.000000004
decision_type=2 2 2 2
left_child=1 -1 -2 -4
right_child=2 -3 3 -5
leaf_value=-0.01672485410077788 -0.00041950748256524553 -0.0036622465894133489 -0.0055310303243752204 0.0043956520671061894
leaf_weight=30668.670264775865 273481.10599761922 25783.731258959975 27327.811082981527 195948.99439560249
leaf_count=1070590 1282989 521546 65453 359595
internal_value=0 -0.0107894 0.00119335 0.00317412
internal_weight=0 56452.4 496758 223277
internal_count=3300173 1592136 1708037 425048
is_linear=0
shrinkage=0.025


Tree=108
num_leaves=5
num_cat=0
split_feature=0 3 0 3
split_gain=11567.3 3010.75 2294.95 4592.38
threshold=4.3437500000000009 0.022485733032226566 502.71875000000006 0.0011105537414550783
decision_type=2 2 2 2
left_child=-1 2 3 -2
right_child=1 -3 -4 -5
leaf_value=-0.013519004036422297 -0.0068586365802865484 0.0072868857325554259 0.0025311976094630297 0.00069691001668412459
leaf_weight=36870.555321242195 65067.025066737551 43132.343818992376 188067.90110274404 219752.15002952516
leaf_count=1245280 996424 59376 433920 565965
internal_value=0 0.00096624 0.000386377 -0.00102567
internal_weight=0 516019 472887 284819
internal_count=3300965 2055685 1996309 1562389
is_linear=0
shrinkage=0.025


Tree=109
num_leaves=5
num_cat=0
split_feature=0 0 3 1
split_gain=11212 2808.36 5120.34 4374.29
threshold=4.3437500000000009 409.46875000000006 0.0011105537414550783 14666486.500000002
decision_type=2 2 2 2
left_child=-1 2 -2 -4
right_child=1 -3 3 -5
leaf_value=-0.013371350370356919 -0.0071535743018279543 0.003033635875267894 0.0072018960954069004 -0.00090620781060931808
leaf_weight=36497.88622490596 60335.772805193905 227662.03236641362 54594.026573836803 173305.48823409155
leaf_count=1245613 971687 509164 155615 418343
internal_value=0 0.000957493 -0.00067825 0.00103178
internal_weight=0 515897 288235 227900
internal_count=3300422 2054809 1545645 573958
is_linear=0
shrinkage=0.025


Tree=110
num_leaves=5
num_cat=0
split_feature=3 1 3 0
split_gain=10914.2 3288.6 2604.39 2192.39
threshold=4.2438507080078132e-05 22035030.000000004 0.022485733032226566 53.843750000000007
decision_type=2 2 2 2
left_child=1 -1 3 -2
right_child=2 -3 -4 -5
leaf_value=-0.019323528544690757 -0.0025281099049573332 -0.0061812968283326587 0.006921409239189347 0.0015101893236803806
leaf_weight=18647.83371277526 110906.5803240044 34169.424463629723 43611.74424931407 344753.7023227755
leaf_count=740260 885858 808506 59737 804841
internal_value=0 -0.0108589 0.00108629 0.000524365
internal_weight=0 52817.3 499272 455660
internal_count=3299202 1548766 1750436 1690699
is_linear=0
shrinkage=0.025


Tree=111
num_leaves=5
num_cat=0
split_feature=3 1 3 0
split_gain=10002.5 3306.65 2392.26 1909.92
threshold=4.2438507080078132e-05 22035030.000000004 0.022485733032226566 29.906250000000004
decision_type=2 2 2 2
left_child=1 -1 3 -2
right_child=2 -3 -4 -5
leaf_value=-0.019031388439388702 -0.0032235128138414825 -0.0057687110565968333 0.006629633220912725 0.0012025250170801193
leaf_weight=18310.11494858982 72292.044709547888 34000.483344098087 43601.272302791476 383858.87206473481
leaf_count=741006 687040 808548 59661 1004230
internal_value=0 -0.0104486 0.00103612 0.000498058
internal_weight=0 52310.6 499752 456151
internal_count=3300485 1549554 1750931 1691270
is_linear=0
shrinkage=0.025


Tree=112
num_leaves=5
num_cat=0
split_feature=0 3 0 3
split_gain=9723.28 2405.38 2127.77 4033.55
threshold=4.3437500000000009 0.022485733032226566 502.71875000000006 0.0011105537414550783
decision_type=2 2 2 2
left_child=-1 2 3 -2
right_child=1 -3 -4 -5
leaf_value=-0.012726810830765026 -0.0065998646516868256 0.0064429915893539566 0.0023621528200125815 0.00053569969189726392
leaf_weight=35317.104186463635 63730.182167560793 43550.104476779699 188579.18492600694 220256.85463471897
leaf_count=1245706 995586 59407 432874 566575
internal_value=0 0.000823017 0.000301828 -0.00106209
internal_weight=0 516116 472566 283987
internal_count=3300148 2054442 1995035 1562161
is_linear=0
shrinkage=0.025


Tree=113
num_leaves=5
num_cat=0
split_feature=0 3 0 3
split_gain=9549 2425.63 2724.72 2431.89
threshold=4.3437500000000009 0.01049470901489258 906.03125000000011 0.00057172775268554698
decision_type=2 2 2 2
left_child=-1 2 3 -2
right_child=1 -3 -4 -5
leaf_value=-0.012726487906445047 -0.0063093034085354924 0.0035095701549388222 0.0032537942470448906 -0.0003948239135455621
leaf_weight=34847.457972472999 54457.863526601344 146388.94044524431 99131.638405222446 216998.83440618403
leaf_count=1244317 880808 197114 258426 720352
internal_value=0 0.000784875 -0.000288384 -0.0015869
internal_weight=0 516977 370588 271457
internal_count=3301017 2056700 1859586 1601160
is_linear=0
shrinkage=0.025


Tree=114
num_leaves=5
num_cat=0
split_feature=3 1 0 3
split_gain=9101.25 3370.42 1875.14 3077.62
threshold=5.3882598876953132e-05 22035030.000000004 124.90625000000001 0.00098848342895507834
decision_type=2 2 2 2
left_child=1 -1 3 -2
right_child=2 -3 -4 -5
leaf_value=-0.018688303026581803 -0.0081658764087776132 -0.0053290507796016108 0.0021396217942940029 0.00041443547731235706
leaf_weight=18130.527011505794 31348.760114790872 34986.610963890795 312328.46114280261 154350.29864390381
leaf_count=758211 592462 833375 631160 484227
internal_value=0 -0.00992578 0.000955599 -0.00102913
internal_weight=0 53117.1 498028 185699
internal_count=3299435 1591586 1707849 1076689
is_linear=0
shrinkage=0.025


Tree=115
num_leaves=5
num_cat=0
split_feature=0 3 0 3
split_gain=8989.33 2264.48 2053.48 3595.47
threshold=4.3437500000000009 0.022485733032226566 453.90625000000006 0.0011105537414550783
decision_type=2 2 2 2
left_child=-1 2 3 -2
right_child=1 -3 -4 -5
leaf_value=-0.012422479577175211 -0.0064649896047394018 0.0062263128399511931 0.002244348159810651 0.00042644812764261101
leaf_weight=34143.646271131467 60642.812586227432 44143.641784593463 198227.22906485014 213489.65424585529
leaf_count=1245232 983941 59544 456467 555980
internal_value=0 0.000813279 0.00030416 -0.0010944
internal_weight=0 516503 472360 274132
internal_count=3301164 2055932 1996388 1539921
is_linear=0
shrinkage=0.025


Tree=116
num_leaves=5
num_cat=0
split_feature=0 3 1 3
split_gain=8659.66 2185.19 2737.91 3062.08
threshold=4.3437500000000009 0.004002094268798829 26528120.000000004 0.00060701370239257823
decision_type=2 2 2 2
left_child=-1 2 3 -2
right_child=1 -3 -4 -5
leaf_value=-0.012284047266071633 -0.011519163608299668 0.0022131392284485264 0.001210031071068419 -0.0014115750498706469
leaf_weight=33646.387210236862 26761.996141236741 293887.60705526918 132725.36317715514 63433.10577602312
leaf_count=1244167 547737 451285 719028 336729
internal_value=0 0.000796107 -0.00106651 -0.00442919
internal_weight=0 516808 222920 90195.1
internal_count=3298946 2054779 1603494 884466
is_linear=0
shrinkage=0.025


Tree=117
num_leaves=5
num_cat=0
split_feature=3 1 3 0
split_gain=8267.99 3193.7 1953.84 1612.31
threshold=4.2438507080078132e-05 22035030.000000004 0.022485733032226566 50.531250000000007
decision_type=2 2 2 2
left_child=1 -1 3 -2
right_child=2 -3 -4 -5
leaf_value=-0.018665379306196585 -0.002336472301163938 -0.0052072208640342654 0.0058809023993947225 0.0011912220186098099
leaf_weight=16893.467436258215 105093.69716414064 32837.202024461702 44224.711147457361 350797.59737785254
leaf_count=740706 867184 807845 59647 824190
internal_value=0 -0.00981821 0.000865007 0.000375097
internal_weight=0 49730.7 500116 455891
internal_count=3299572 1548551 1751021 1691374
is_linear=0
shrinkage=0.025


Tree=118
num_leaves=5
num_cat=0
split_feature=0 0 3 1
split_gain=8084.43 2470.8 4197.81 4171.4
threshold=2.4062500000000004 333.12500000000006 0.00098848342895507834 14666486.500000002
decision_type=2 2 2 2
left_child=-1 2 -2 -4
right_child=1 -3 3 -5
leaf_value=-0.013272288836305022 -0.0071588381970805366 0.0025102622322527354 0.0064890971378565587 -0.0013973393477655146
leaf_weight=27221.80849475693 54309.719936374109 246499.91088937595 56007.261489938945 165771.35756719671
leaf_count=1111084 1038047 555577 166633 427297
internal_value=0 0.000689874 -0.000931056 0.000589655
internal_weight=0 522588 276088 221779
internal_count=3298638 2187554 1631977 593930
is_linear=0
shrinkage=0.025


Tree=119
num_leaves=5
num_cat=0
split_feature=0 3 0 3
split_gain=7709.27 2208.74 2164.81 2651.43
threshold=2.4062500000000004 0.015351295471191408 827.37500000000011 0.00057172775268554698
decision_type=2 2 2 2
left_child=-1 2 3 -2
right_child=1 -3 -4 -5
leaf_value=-0.013154127877493489 -0.0063164825596902221 0.0041622588491121082 0.0025589668833271182 -0.00022322742763374007
leaf_weight=26860.820980348624 54345.188717143144 88629.709863856435 128110.18547530845 251499.79012038186
leaf_count=1111991 984106 118872 301836 783545
internal_value=0 0.000566507 -0.000165393 -0.00131087
internal_weight=0 522585 433955 305845
internal_count=3300350 2188359 2069487 1767651
is_linear=0
shrinkage=0.025


Tree=120
num_leaves=5
num_cat=0
split_feature=0 3 1 0
split_gain=7415.05 3131.6 1792.93 2831.72
threshold=10.281250000000002 0.00053453445434570323 13214000.000000002 370.40625000000006
decision_type=2 2 2 2
left_child=1 -1 -2 -4
right_child=2 -3 3 -5
leaf_value=-0.01401064622473059 0.0061636687458064146 -0.00098820177222577505 -0.0015260822748714945 0.0023898565716254159
leaf_weight=31265.086481898557 37720.031548510771 18632.121552935801 223401.99984809523 238317.12859037332
leaf_count=1387510 188123 126208 1068111 530443
internal_value=0 -0.00917882 0.000923862 0.000492469
internal_weight=0 49897.2 499439 461719
internal_count=3300395 1513718 1786677 1598554
is_linear=0
shrinkage=0.025


Tree=121
num_leaves=5
num_cat=0
split_feature=0 3 3 4
split_gain=7267.27 1872.66 1865.02 1548.16
threshold=4.3437500000000009 0.022485733032226566 0.00030565261840820318 20.781250000000004
decision_type=2 2 2 2
left_child=2 3 -1 -2
right_child=1 -3 -4 -5
leaf_value=-0.014955347416991865 -9.5416225042082038e-05 0.0056253531297407438 -0.00063442278493903471 0.0060882563591502471
leaf_weight=24267.84069766663 445886.90414238581 44375.520272493362 7664.5542234070599 26758.471232104115
leaf_count=1164758 1894062 59376 80683 101486
internal_value=0 0.000716684 -0.0115634 0.00025263
internal_weight=0 517021 31932.4 472645
internal_count=3300365 2054924 1245441 1995548
is_linear=0
shrinkage=0.025


Tree=122
num_leaves=5
num_cat=0
split_feature=0 3 0 3
split_gain=6842.71 1932.66 1622.61 2920.76
threshold=2.4062500000000004 0.022485733032226566 827.37500000000011 0.0011754035949707033
decision_type=2 2 2 2
left_child=-1 2 3 -2
right_child=1 -3 -4 -5
leaf_value=-0.012578311858969805 -0.0050941307603890283 0.0055468438143689387 0.0023315459935263358 0.0004351583662013687
leaf_weight=25891.973642827477 77578.037606155965 44660.106380969286 143810.99084673263 257341.38048550673
leaf_count=1111610 1189342 59674 321117 618835
internal_value=0 0.000575475 0.000108562 -0.000842439
internal_weight=0 523391 478730 334919
internal_count=3300578 2188968 2129294 1808177
is_linear=0
shrinkage=0.025


Tree=123
num_leaves=5
num_cat=0
split_feature=0 3 1 1
split_gain=6898.27 3210.15 1746.94 2449.92
threshold=11.031250000000002 0.00073480606079101573 13214000.000000002 27077478.000000004
decision_type=2 2 2 2
left_child=1 -1 -2 -4
right_child=2 -3 3 -5
leaf_value=-0.013595063938154121 0.0060581948679573425 -0.00050982843067362874 -0.0019779382559300639 0.0018162107250618944
leaf_weight=32090.114244229626 37434.528221378569 18766.924534550868 166551.64372280473 293559.07047886821
leaf_count=1432433 182640 108021 740732 835480
internal_value=0 -0.00879624 0.000865798 0.000440016
internal_weight=0 50857 497545 460111
internal_count=3299306 1540454 1758852 1576212
is_linear=0
shrinkage=0.025


Tree=124
num_leaves=5
num_cat=0
split_feature=3 1 4 1
split_gain=6293.17 2972.07 1749.36 3756.16
threshold=3.1948089599609382e-05 22035030.000000004 18.031250000000004 31344626.000000004
decision_type=2 2 2 2
left_child=1 -1 -3 -4
right_child=-2 2 3 -5
leaf_value=-0.018115215109442778 0.00070012868173431803 -0.0054280442592391266 -0.0068172398048814923 0.10563163080740641
leaf_weight=15050.54596566502 503260.26972363703 29450.241354687139 476.24150812067091 231.54636380495504
leaf_count=720675 1798538 758805 15644 7482
internal_value=0 -0.009032 -0.00443511 0.0328623
internal_weight=0 45208.6 30158 707.788
internal_count=3301144 1502606 781931 23126
is_linear=0
shrinkage=0.025


Tree=125
num_leaves=5
num_cat=0
split_feature=3 1 4 1
split_gain=6283.53 3148.57 1525.34 3466.14
threshold=5.3882598876953132e-05 22035030.000000004 17.593750000000004 31440600.000000004
decision_type=2 2 2 2
left_child=1 -1 -3 -4
right_child=-2 2 3 -5
leaf_value=-0.01768934854360325 0.00086986053020816207 -0.005019465020051247 -0.0042159971614660905 0.094875984816991846
leaf_weight=15831.617664027028 499948.1359875286 32172.310249451082 648.02736380370334 265.85054415883496
leaf_count=758769 1708112 804803 20925 8061
internal_value=0 -0.00851377 -0.0040655 0.0267396
internal_weight=0 48917.8 33086.2 913.878
internal_count=3300670 1592558 833789 28986
is_linear=0
shrinkage=0.025


Tree=126
num_leaves=5
num_cat=0
split_feature=0 0 3 1
split_gain=5877.36 1800.45 3104.04 2642.91
threshold=2.4062500000000004 124.90625000000001 0.00098848342895507834 14666486.500000002
decision_type=2 2 2 2
left_child=-1 2 -2 -4
right_child=1 -3 3 -5
leaf_value=-0.011917492093635738 -0.0077057090660706332 0.0016087802428321819 0.005193781046928231 -0.0019893452087889701
leaf_weight=24925.564661832061 39172.965257838834 332299.89154860191 45858.532854856923 105626.7628425993
leaf_count=1112126 919606 804290 146890 317562
internal_value=0 0.000495974 -0.0014369 0.000177921
internal_weight=0 522958 190658 151485
internal_count=3300474 2188348 1384058 464452
is_linear=0
shrinkage=0.025


Tree=127
num_leaves=5
num_cat=0
split_feature=0 1 1 3
split_gain=6002.63 1679.8 4104.21 3841.67
threshold=2.0937500000000004 29374080.000000004 30404706.000000004 0.0016713142395019533
decision_type=2 2 2 2
left_child=-1 3 -3 -2
right_child=1 2 -4 -5
leaf_value=-0.012315086639501042 -0.005332784719977105 0.0069341909464319109 -0.00047281889904475603 0.00098393331634370317
leaf_weight=23629.61219736468 79272.190905180294 75918.372038135305 120834.81060770899 248666.40868110582
leaf_count=1083657 1077835 217117 410243 510410
internal_value=0 0.000552814 0.0023799 -0.000539768
internal_weight=0 524692 196753 327939
internal_count=3299262 2215605 627360 1588245
is_linear=0
shrinkage=0.025


Tree=128
num_leaves=5
num_cat=0
split_feature=3 1 1 1
split_gain=5754.18 3149.7 1466.13 1549.06
threshold=5.3882598876953132e-05 22035030.000000004 31960361.000000004 29374080.000000004
decision_type=2 2 2 2
left_child=1 -1 3 -2
right_child=2 -3 -4 -5
leaf_value=-0.017649387351625703 5.4614596587884131e-05 -0.0038263994911998007 -0.0057504685212136043 0.0030560893334777373
leaf_weight=15250.334310743026 316007.5671492801 32698.848731831182 20378.160835816991 163489.6398194856
leaf_count=758954 1246332 833528 73971 387749
internal_value=0 -0.00826268 0.000799283 0.00108082
internal_weight=0 47949.2 499875 479497
internal_count=3300534 1592482 1708052 1634081
is_linear=0
shrinkage=0.025


Tree=129
num_leaves=5
num_cat=0
split_feature=0 3 1 1
split_gain=5266.29 4085.65 1890.25 2109.73
threshold=16.093750000000004 0.00087785720825195323 13214000.000000002 27328589.000000004
decision_type=2 2 2 2
left_child=1 -1 -2 -4
right_child=2 -3 3 -5
leaf_value=-0.012500743637570073 0.0064565615542776459 0.00026989152371984057 -0.0018817351542423568 0.001673998169557679
leaf_weight=35309.878877080511 34426.685798053164 27758.53667120263 163778.57823182084 286368.51374631329
leaf_count=1558460 150069 136673 679088 775592
internal_value=0 -0.00686439 0.000812554 0.000377462
internal_weight=0 63068.4 484574 450147
internal_count=3299882 1695133 1604749 1454680
is_linear=0
shrinkage=0.025


Tree=130
num_leaves=5
num_cat=0
split_feature=3 1 4 1
split_gain=5293.16 2655.36 1596.04 3350.67
threshold=2.8133392333984378e-05 22035030.000000004 18.031250000000004 31440600.000000004
decision_type=2 2 2 2
left_child=1 -1 -3 -4
right_child=-2 2 3 -5
leaf_value=-0.017632082671831271 0.00066836968915297225 -0.0051436344657381063 -0.0050648949993038119 0.10195166878573406
leaf_weight=13623.413549015298 505322.07772688521 27911.303782546893 483.67635058006272 222.29384455317631
leaf_count=711350 1820399 746357 16556 5946
internal_value=0 -0.00853866 -0.00414287 0.031493
internal_weight=0 42240.7 28617.3 705.97
internal_count=3300608 1480209 768859 22502
is_linear=0
shrinkage=0.025


Tree=131
num_leaves=5
num_cat=0
split_feature=0 3 2 0
split_gain=5217.49 1634.87 2145.77 1834.23
threshold=2.0937500000000004 0.012617588043212892 0.011529445648193361 906.03125000000011
decision_type=2 2 2 2
left_child=-1 3 -3 -2
right_child=1 2 -4 -5
leaf_value=-0.011689679494070281 -0.0012436937187734183 0.0062995568261582265 -0.00040116098016488867 0.0025366737494339278
leaf_weight=22704.230814395472 295517.98600020306 62620.883910126984 56425.719158753753 109976.04270706326
leaf_count=1083592 1789133 83654 73361 269774
internal_value=0 0.000538319 0.00311422 -0.000215133
internal_weight=0 524541 119047 405494
internal_count=3299514 2215922 157015 2058907
is_linear=0
shrinkage=0.025


Tree=132
num_leaves=5
num_cat=0
split_feature=0 3 1 3
split_gain=5145.29 1528.66 2367.59 2483.57
threshold=2.0937500000000004 0.0037388801574707036 26801631.000000004 0.00093126296997070323
decision_type=2 2 2 2
left_child=-1 2 3 -2
right_child=1 -3 -4 -5
leaf_value=-0.01168077327553161 -0.0093003445731203033 0.0016637380170444441 0.0011021645440444131 -0.00077927538401540916
leaf_weight=22461.361665927339 35725.262808851432 306717.67940363288 127995.66103976686 54045.373884659261
leaf_count=1083880 741469 474875 738119 261558
internal_value=0 0.000525001 -0.00107315 -0.00418754
internal_weight=0 524484 217766 89770.6
internal_count=3299901 2216021 1741146 1003027
is_linear=0
shrinkage=0.025


Tree=133
num_leaves=5
num_cat=0
split_feature=0 3 1 1
split_gain=4893.97 3470.68 1658.48 1770.27
threshold=16.093750000000004 0.00053453445434570323 13214000.000000002 29374080.000000004
decision_type=2 2 2 2
left_child=1 -1 -2 -4
right_child=2 -3 3 -5
leaf_value=-0.012467979683681817 0.0061587314092183066 -0.00057890434779452873 -0.00085582170871424841 0.0023155007859973786
leaf_weight=31044.389798490331 34670.808900031261 30766.530878121033 259935.06130001461 190302.368586611
leaf_count=1501716 150290 191714 944218 508982
internal_value=0 -0.00657562 0.000890997 0.000481937
internal_weight=0 61810.9 484908 450237
internal_count=3296920 1693430 1603490 1453200
is_linear=0
shrinkage=0.025


Tree=134
num_leaves=5
num_cat=0
split_feature=0 3 2 0
split_gain=4568.98 1490.81 1981.52 1627.95
threshold=2.0937500000000004 0.012617588043212892 0.011529445648193361 906.03125000000011
decision_type=2 2 2 2
left_child=-1 3 -3 -2
right_child=1 2 -4 -5
leaf_value=-0.011177755539727737 -0.0012441763052803377 0.005954748542058688 -0.00048250698159337484 0.0023155300825264558
leaf_weight=21974.02646382153 295362.62162153237 62859.40941169858 56288.066992387176 110115.26972340606
leaf_count=1084099 1790481 83708 73418 269551
internal_value=0 0.00044546 0.00290422 -0.000274221
internal_weight=0 524625 119147 405478
internal_count=3301257 2217158 157126 2060032
is_linear=0
shrinkage=0.025


Tree=135
num_leaves=5
num_cat=0
split_feature=3 1 4 1
split_gain=4448.32 2535.02 1512.68 2817.45
threshold=2.8133392333984378e-05 22035030.000000004 17.593750000000004 31440600.000000004
decision_type=2 2 2 2
left_child=1 -1 -3 -4
right_child=-2 2 3 -5
leaf_value=-0.017049421464824147 0.00068514332827936846 -0.004643612166347468 -0.0033310067383827435 0.08864480242156976
leaf_weight=12901.613953760825 505961.23922449024 27318.473334847949 534.45899505913258 264.69563195155933
leaf_count=710785 1819648 742830 18609 6946
internal_value=0 -0.0078698 -0.00359062 0.0290869
internal_weight=0 41019.2 28117.6 799.155
internal_count=3298818 1479170 768385 25555
is_linear=0
shrinkage=0.025


Tree=136
num_leaves=5
num_cat=0
split_feature=0 3 1 1
split_gain=4370.92 3473.38 1631.88 1948.09
threshold=16.093750000000004 0.00053453445434570323 13214000.000000002 29374080.000000004
decision_type=2 2 2 2
left_child=1 -1 -2 -4
right_child=2 -3 3 -5
leaf_value=-0.012346979819443514 0.0059601694079354679 -0.00037886654752282715 -0.0010599126358070256 0.0022663328054071167
leaf_weight=30293.841997642536 34854.946197795682 30730.903399995528 260010.85058868118 190494.38451999519
leaf_count=1503208 150484 192063 945540 509097
internal_value=0 -0.00634578 0.000750365 0.000343898
internal_weight=0 61024.7 485360 450505
internal_count=3300392 1695271 1605121 1454637
is_linear=0
shrinkage=0.025


Tree=137
num_leaves=5
num_cat=0
split_feature=0 1 1 3
split_gain=4034.94 1452.66 1700.39 3077.53
threshold=2.4062500000000004 32068699.000000004 29374080.000000004 0.0016713142395019533
decision_type=2 2 2 2
left_child=-1 2 3 -2
right_child=1 -3 -4 -5
leaf_value=-0.010502663521866702 -0.0048487263192805658 -0.0070087011763477342 0.0025230059239658743 0.00085842448351659871
leaf_weight=22273.696289240848 77296.629300503526 16175.292220476549 182046.67214985564 248965.79093893431
leaf_count=1111369 1057011 65940 556035 509508
internal_value=0 0.000349246 0.000586514 -0.000490393
internal_weight=0 524484 508309 326262
internal_count=3299863 2188494 2122554 1566519
is_linear=0
shrinkage=0.025


Tree=138
num_leaves=5
num_cat=0
split_feature=0 3 1 0
split_gain=3969.46 3242 1459.13 1786.11
threshold=16.093750000000004 0.00073480606079101573 13214000.000000002 299.09375000000006
decision_type=2 2 2 2
left_child=1 -1 -2 -4
right_child=2 -3 3 -5
leaf_value=-0.01164966232868643 0.005614040745845387 -1.6999933199718199e-05 -0.0015074872183225832 0.0016692624956592501
leaf_weight=31479.695960418321 34862.995306642726 28928.380114975385 193501.67982096644 257698.1259876769
leaf_count=1538966 150636 156539 876103 578400
internal_value=0 -0.00610428 0.000688062 0.000304095
internal_weight=0 60408.1 486063 451200
internal_count=3300644 1695505 1605139 1454503
is_linear=0
shrinkage=0.025


Tree=139
num_leaves=5
num_cat=0
split_feature=0 3 1 1
split_gain=3968.72 2422.43 1537.73 2395.1
threshold=11.031250000000002 0.00053453445434570323 14666486.500000002 27077478.000000004
decision_type=2 2 2 2
left_child=1 -1 -2 -4
right_child=2 -3 3 -5
leaf_value=-0.011968787634166608 0.0044367853082551353 -0.00033476224228863312 -0.0024865924033225296 0.0014372269872536894
leaf_weight=26310.776727005839 59272.471256577875 19829.392487465404 144692.59251294751 295899.16203660984
leaf_count=1405582 255340 134530 668607 836325
internal_value=0 -0.00700174 0.000657375 0.000145652
internal_weight=0 46140.2 499864 440592
internal_count=3300384 1540112 1760272 1504932
is_linear=0
shrinkage=0.025


Tree=140
num_leaves=5
num_cat=0
split_feature=3 1 4 1
split_gain=3686.6 2563.26 1369.19 2682.62
threshold=3.1948089599609382e-05 22035030.000000004 18.031250000000004 31440600.000000004
decision_type=2 2 2 2
left_child=1 -1 -3 -4
right_child=-2 2 3 -5
leaf_value=-0.016754391319244694 0.00050238148413861796 -0.004046365462385384 -0.0052290953236636788 0.086153131563762114
leaf_weight=12465.447679821402 505053.66815229645 27535.376673615072 477.91523003950715 264.61357183847576
leaf_count=721318 1797698 757685 17022 6156
internal_value=0 -0.00731038 -0.00308092 0.0291402
internal_weight=0 40743.4 28277.9 742.529
internal_count=3299879 1502181 780863 23178
is_linear=0
shrinkage=0.025


Tree=141
num_leaves=5
num_cat=0
split_feature=3 1 1 4
